Language model created by QuickLM on Sat Jun  9 03:36:57 EDT 2018
Copyright (c) 1996-2010 Carnegie Mellon University and Alexander I. Rudnicky

The model is in standard ARPA format, designed by Doug Paul while he was at MITRE.

The code that was used to produce this language model is available in Open Source.
Please visit http://www.speech.cs.cmu.edu/tools/ for more information

The (fixed) discount mass is 0.5. The backoffs are computed using the ratio method.
This model based on a corpus of 244 sentences and 113 words

\data\
ngram 1=113
ngram 2=315
ngram 3=488

\1-grams:
-1.2647 </s> -0.3010
-1.2647 <s> -0.2601
-2.6107 AI -0.2768
-1.9360 AI'S -0.2822
-2.5059 APRIL -0.2675
-2.6978 AUGUST -0.2671
-3.0500 BAHNHOF -0.2768
-2.6107 BENJAMIN -0.2768
-1.9800 BENJAMIN'S -0.2821
-1.7947 BIRTHDAY -0.2768
-2.5729 BIRTHDAY? -0.2768
-1.6836 CALENDAR -0.2767
-3.6521 CALENDAREIGHTEENTH -0.2906
-3.6521 CALENDARELEVENTH -0.2906
-3.6521 CALENDARFIFTEENTH -0.2906
-3.6521 CALENDARFIRST -0.2906
-3.6521 CALENDARFOURTH -0.2906
-3.3510 CALENDARNINTH -0.2906
-3.6521 CALENDARSECOND -0.2906
-3.3510 CALENDARSEVENTEENTH -0.2906
-3.1749 CALENDARSIXTH -0.2906
-3.3510 CALENDARTHIRTEENTH -0.2906
-3.6521 CALENDARTWENTY-EIGTH -0.2906
-3.6521 CALENDARTWENTY-FIFTH -0.2906
-3.3510 CALENDARTWENTY-FOURTH -0.2906
-3.3510 CALENDARTWENTY-NINTH -0.2906
-3.6521 CALENDARTWENTY-SECOND -0.2906
-3.1749 CALENDARTWENTY-SIXTH -0.2906
-3.3510 CALENDARTWENTY-THIRD -0.2906
-3.0500 CHURCH -0.2768
-2.0500 CONNECTIONS -0.2971
-2.5729 DAYS -0.2940
-2.8739 DECEMBER -0.2752
-2.0393 DISPLAY -0.2869
-3.0500 EIGHTEENTH -0.2824
-3.3510 EIGTH -0.2768
-3.0500 ELEVENTH -0.2622
-2.5059 ERIK -0.2768
-1.9619 ERIK'S -0.2818
-2.5381 FEBRUARY -0.2664
-2.8739 FIFTEENTH -0.2534
-3.3510 FIFTH -0.2906
-3.6521 FIRST -0.2906
-1.7382 FOR -0.2863
-2.9531 FOURTEENTH -0.2622
-3.1749 FOURTH -0.2790
-3.0500 FRIEDRICHSTRASSE -0.2768
-2.0500 FROM -0.2971
-2.3298 GO -0.2943
-1.7947 HOW -0.2940
-2.5729 IS -0.2865
-2.7490 JANUARY -0.2678
-3.0500 JULY -0.2762
-2.8070 JUNE -0.2760
-3.0500 KIRCHE -0.2768
-3.0500 LADENBURG -0.2768
-2.0958 LONG -0.2872
-3.0500 MAIN -0.3003
-2.5729 MANY -0.2999
-2.6107 MARCH -0.2666
-3.0500 MARKET -0.2768
-3.0500 MARKTPLATZ -0.2768
-3.0500 MATTHEUS -0.3006
-2.7490 MAY -0.2758
-2.5729 NECKARAU -0.2995
-2.3510 NEXT -0.2971
-3.0500 NINETEENTH -0.2571
-3.6521 NINTH -0.2977
-2.6521 NOVEMBER -0.2679
-2.8070 OCTOBER -0.2680
-1.6267 OF -0.2876
-3.1749 OFAPRIL -0.3003
-3.3510 OFAUGUST -0.3003
-3.6521 OFDECEMBER -0.3004
-3.6521 OFFEBRUARY -0.3006
-3.6521 OFJANUARY -0.3005
-3.0500 OFMARCH -0.2992
-3.6521 OFMAY -0.3008
-3.1749 OFNOVEMBER -0.2998
-3.6521 OFOCTOBER -0.3004
-2.2718 OFTEN -0.2943
-1.3944 PANDA -0.2724
-3.3510 SECOND -0.2930
-2.8739 SEPTEMBER -0.2764
-2.9531 SEVENTEENTH -0.2571
-3.3510 SEVENTH -0.2824
-1.4452 SHOW -0.2621
-3.6521 SIXTEENTH -0.2906
-3.0500 SIXTH -0.2622
-2.5729 SLEEP -0.2940
-2.7490 STATION -0.2768
-3.1749 THIRD -0.2930
-3.6521 THIRTEENTH -0.2768
-3.1749 THIRTIETH -0.2873
-3.1749 THIRTY-FIRST -0.2824
-1.8132 TO -0.2820
-3.0500 TWENTIETH -0.2790
-3.1749 TWENTY-EIGTH -0.2790
-3.0500 TWENTY-FIFTH -0.2683
-2.8739 TWENTY-FIRST -0.2571
-3.0500 TWENTY-FOURTH -0.2824
-3.3510 TWENTY-NINTH -0.2683
-3.1749 TWENTY-SECOND -0.2658
-3.0500 TWENTY-SEVENTH -0.2534
-2.9531 TWENTY-SIXTH -0.2571
-3.3510 TWENTY-THIRD -0.2906
-1.7947 UNTIL -0.2865
-2.5729 UP -0.2940
-2.5729 WAIT -0.2940
-2.5729 WAKE -0.2999
-2.1206 WEEK -0.2890
-3.0500 WEST -0.2768
-2.5729 WHEN -0.2999

\2-grams:
-1.3662 <s> DISPLAY -0.1725
-1.3662 <s> GO 0.0000
-0.4307 <s> PANDA 0.0000
-1.3662 <s> SHOW -0.2717
-0.3010 AI </s> -0.3010
-0.6368 AI'S BIRTHDAY 0.0000
-1.4150 AI'S BIRTHDAY? 0.0000
-0.8129 AI'S CALENDAR -0.1488
-2.0170 AI'S CALENDAREIGHTEENTH 0.0000
-2.0170 AI'S CALENDARFIRST 0.0000
-2.0170 AI'S CALENDARSIXTH 0.0000
-1.7160 AI'S CALENDARTHIRTEENTH 0.0000
-2.0170 AI'S CALENDARTWENTY-FIFTH 0.0000
-2.0170 AI'S CALENDARTWENTY-NINTH 0.0000
-2.0170 AI'S CALENDARTWENTY-SIXTH 0.0000
-0.4472 APRIL </s> -0.3010
-1.1461 APRIL FOR -0.2709
-1.4472 APRIL NINETEENTH -0.1761
-1.4472 APRIL TWENTY-EIGTH -0.2218
-0.6532 AUGUST </s> -0.3010
-0.9542 AUGUST FOR -0.2292
-1.2553 AUGUST THIRD 0.0000
-1.2553 AUGUST TWENTY-FIRST -0.2632
-1.2553 AUGUST TWENTY-NINTH -0.1761
-0.3010 BAHNHOF </s> -0.3010
-0.3010 BENJAMIN </s> -0.3010
-0.5929 BENJAMIN'S BIRTHDAY 0.0000
-1.3711 BENJAMIN'S BIRTHDAY? 0.0000
-0.9317 BENJAMIN'S CALENDAR -0.1521
-1.9731 BENJAMIN'S CALENDARNINTH 0.0000
-1.9731 BENJAMIN'S CALENDARSECOND 0.0000
-1.6721 BENJAMIN'S CALENDARSEVENTEENTH 0.0000
-1.9731 BENJAMIN'S CALENDARTWENTY-FOURTH 0.0000
-1.9731 BENJAMIN'S CALENDARTWENTY-NINTH 0.0000
-1.9731 BENJAMIN'S CALENDARTWENTY-SIXTH 0.0000
-1.9731 BENJAMIN'S CALENDARTWENTY-THIRD 0.0000
-0.3010 BIRTHDAY </s> -0.3010
-0.3010 BIRTHDAY? </s> -0.3010
-2.2695 CALENDAR EIGHTEENTH -0.0969
-2.2695 CALENDAR ELEVENTH -0.2430
-2.2695 CALENDAR FIFTEENTH -0.2218
-1.9685 CALENDAR FIFTH 0.0000
-2.2695 CALENDAR FIRST 0.0000
-0.6068 CALENDAR FOR -0.1581
-2.2695 CALENDAR FOURTEENTH -0.2041
-2.2695 CALENDAR FOURTH -0.2218
-2.2695 CALENDAR NINETEENTH -0.2430
-0.8381 CALENDAR OF -0.0161
-2.2695 CALENDAR SEVENTEENTH -0.1461
-2.2695 CALENDAR SIXTEENTH 0.0000
-1.9685 CALENDAR SIXTH -0.1761
-2.2695 CALENDAR THIRTIETH -0.2218
-2.2695 CALENDAR TWENTIETH -0.2430
-1.9685 CALENDAR TWENTY-FOURTH -0.0969
-2.2695 CALENDAR TWENTY-SIXTH -0.2041
-1.9685 CALENDAR TWENTY-THIRD 0.0000
-0.3010 CALENDAREIGHTEENTH OF -0.2886
-0.3010 CALENDARELEVENTH OF -0.2714
-0.3010 CALENDARFIFTEENTH OF -0.2843
-0.3010 CALENDARFIRST OF -0.2800
-0.3010 CALENDARFOURTH OF -0.2886
-0.3010 CALENDARNINTH OF -0.2580
-0.3010 CALENDARSECOND OF -0.2800
-0.3010 CALENDARSEVENTEENTH OF -0.2580
-0.3010 CALENDARSIXTH OF -0.2692
-0.3010 CALENDARTHIRTEENTH OF -0.2580
-0.3010 CALENDARTWENTY-EIGTH OF -0.2735
-0.3010 CALENDARTWENTY-FIFTH OF -0.2714
-0.3010 CALENDARTWENTY-FOURTH OF -0.2419
-0.3010 CALENDARTWENTY-NINTH OF -0.2928
-0.3010 CALENDARTWENTY-SECOND OF -0.2864
-0.3010 CALENDARTWENTY-SIXTH OF -0.2395
-0.3010 CALENDARTWENTY-THIRD OF -0.2512
-0.3010 CHURCH </s> -0.3010
-0.3010 CONNECTIONS FROM 0.0000
-0.3010 DAYS UNTIL 0.0000
-0.6021 DECEMBER </s> -0.3010
-1.0792 DECEMBER EIGHTEENTH -0.2430
-1.0792 DECEMBER SEVENTEENTH -0.2553
-1.0792 DECEMBER TWENTY-FIRST -0.1249
-0.9138 DISPLAY CONNECTIONS 0.0000
-0.6585 DISPLAY HOW 0.0000
-0.9138 DISPLAY NEXT 0.0000
-1.4367 DISPLAY WHEN 0.0000
-0.9031 EIGHTEENTH FOR -0.2623
-0.4260 EIGHTEENTH OF -0.2324
-0.3010 EIGTH </s> -0.3010
-0.6021 ELEVENTH </s> -0.3010
-0.9031 ELEVENTH OF -0.2864
-0.9031 ELEVENTH WEEK -0.1761
-0.3010 ERIK </s> -0.3010
-0.6110 ERIK'S BIRTHDAY 0.0000
-1.3892 ERIK'S BIRTHDAY? 0.0000
-0.9912 ERIK'S CALENDAR -0.1488
-1.9912 ERIK'S CALENDARELEVENTH 0.0000
-1.9912 ERIK'S CALENDARFIFTEENTH 0.0000
-1.9912 ERIK'S CALENDARFOURTH 0.0000
-1.9912 ERIK'S CALENDARNINTH 0.0000
-1.6902 ERIK'S CALENDARSIXTH 0.0000
-1.9912 ERIK'S CALENDARTWENTY-EIGTH 0.0000
-1.9912 ERIK'S CALENDARTWENTY-FOURTH 0.0000
-1.9912 ERIK'S CALENDARTWENTY-SECOND 0.0000
-1.9912 ERIK'S CALENDARTWENTY-SIXTH 0.0000
-1.9912 ERIK'S CALENDARTWENTY-THIRD 0.0000
-0.5699 FEBRUARY </s> -0.3010
-1.4150 FEBRUARY FIFTEENTH -0.2218
-1.4150 FEBRUARY FOR -0.2709
-1.4150 FEBRUARY SECOND 0.0000
-1.4150 FEBRUARY SEVENTH -0.1761
-1.4150 FEBRUARY TWENTIETH -0.2430
-1.4150 FEBRUARY TWENTY-SEVENTH -0.2430
-1.0792 FIFTEENTH </s> -0.3010
-0.7782 FIFTEENTH FOR -0.2292
-0.7782 FIFTEENTH OF -0.2625
-1.0792 FIFTEENTH WEEK -0.1761
-0.3010 FIFTH OF -0.2692
-0.3010 FIRST OF -0.2843
-1.1735 FOR AI 0.0000
-1.1735 FOR BENJAMIN 0.0000
-1.9138 FOR EIGHTEENTH -0.0969
-2.2148 FOR ELEVENTH -0.2430
-1.0687 FOR ERIK 0.0000
-1.9138 FOR FIFTEENTH -0.1761
-1.7377 FOR FOURTEENTH -0.0792
-2.2148 FOR FOURTH -0.2218
-2.2148 FOR MARCH -0.2808
-2.2148 FOR NINTH 0.0000
-1.9138 FOR SEVENTEENTH -0.1461
-2.2148 FOR SEVENTH -0.1761
-2.2148 FOR SIXTH -0.2430
-1.9138 FOR THIRTIETH -0.1249
-2.2148 FOR THIRTY-FIRST -0.2218
-1.9138 FOR TWENTIETH -0.1761
-1.9138 FOR TWENTY-EIGTH -0.1249
-2.2148 FOR TWENTY-FIRST -0.2632
-2.2148 FOR TWENTY-FOURTH -0.0969
-1.9138 FOR TWENTY-SECOND -0.1249
-1.9138 FOR TWENTY-SEVENTH -0.1761
-2.2148 FOR TWENTY-SIXTH -0.2041
-0.9844 FOR WEEK -0.1761
-1.0000 FOURTEENTH </s> -0.3010
-0.6990 FOURTEENTH OF -0.2580
-0.6990 FOURTEENTH WEEK -0.1761
-0.7782 FOURTH FOR -0.2623
-0.7782 FOURTH OF -0.2843
-0.7782 FOURTH WEEK -0.1761
-0.3010 FRIEDRICHSTRASSE </s> -0.3010
-1.3010 FROM CHURCH 0.0000
-1.3010 FROM FRIEDRICHSTRASSE 0.0000
-1.3010 FROM LADENBURG 0.0000
-1.3010 FROM MAIN 0.0000
-1.3010 FROM MARKET 0.0000
-1.3010 FROM MARKTPLATZ 0.0000
-1.3010 FROM MATTHEUS 0.0000
-0.8239 FROM NECKARAU 0.0000
-0.3010 GO TO -0.2293
-0.6021 HOW LONG 0.0000
-1.0792 HOW MANY 0.0000
-0.7782 HOW OFTEN 0.0000
-0.7782 IS AI'S -0.2840
-0.7782 IS BENJAMIN'S -0.2821
-0.7782 IS ERIK'S -0.2829
-0.5051 JANUARY </s> -0.3010
-0.9031 JANUARY FOR -0.2292
-1.2041 JANUARY TWENTY-SIXTH -0.2553
-0.4260 JULY </s> -0.3010
-0.9031 JULY SEVENTEENTH -0.2553
-0.5441 JUNE </s> -0.3010
-1.1461 JUNE SECOND 0.0000
-1.1461 JUNE THIRTEENTH 0.0000
-1.1461 JUNE TWENTY-FIFTH -0.2430
-0.3010 KIRCHE </s> -0.3010
-0.3010 LADENBURG </s> -0.3010
-0.4771 LONG TO -0.2181
-0.7782 LONG UNTIL 0.0000
-0.3010 MAIN STATION 0.0000
-0.3010 MANY DAYS 0.0000
-0.6435 MARCH </s> -0.3010
-1.0414 MARCH FOR -0.2292
-1.3424 MARCH THIRD 0.0000
-1.3424 MARCH TWENTY-FIRST -0.1249
-1.3424 MARCH TWENTY-FOURTH -0.2430
-1.3424 MARCH TWENTY-SECOND -0.2218
-0.3010 MARKET </s> -0.3010
-0.3010 MARKTPLATZ </s> -0.3010
-0.3010 MATTHEUS KIRCHE 0.0000
-0.5051 MAY </s> -0.3010
-1.2041 MAY FIFTEENTH -0.2218
-0.9031 MAY THIRTY-FIRST -0.1249
-0.7782 NECKARAU BAHNHOF 0.0000
-0.7782 NECKARAU STATION 0.0000
-0.7782 NECKARAU WEST 0.0000
-0.3010 NEXT CONNECTIONS 0.0000
-0.9031 NINETEENTH </s> -0.3010
-0.6021 NINETEENTH FOR -0.2385
-0.9031 NINETEENTH OF -0.2886
-0.3010 NINTH WEEK -0.1761
-0.4559 NOVEMBER </s> -0.3010
-1.0000 NOVEMBER FOR -0.2292
-1.3010 NOVEMBER NINETEENTH -0.1761
-0.5441 OCTOBER </s> -0.3010
-0.8451 OCTOBER FOR -0.2292
-1.1461 OCTOBER THIRD 0.0000
-1.1802 OF APRIL 0.0000
-1.3721 OF AUGUST 0.0000
-1.5482 OF DECEMBER 0.0000
-1.2124 OF FEBRUARY -0.0000
-1.4232 OF JANUARY 0.0000
-1.7243 OF JULY 0.0000
-1.4812 OF JUNE -0.0000
-1.3263 OF MARCH -0.0378
-1.4232 OF MAY 0.0000
-1.3263 OF NOVEMBER 0.0000
-1.4812 OF OCTOBER 0.0000
-1.5482 OF SEPTEMBER 0.0000
-1.7243 OF WEEK -0.1761
-0.7782 OFAPRIL EIGTH 0.0000
-0.7782 OFAPRIL SIXTH -0.2430
-0.7782 OFAPRIL TWENTY-NINTH -0.1761
-0.6021 OFAUGUST ELEVENTH -0.1761
-0.6021 OFAUGUST TWENTY-FIFTH -0.0969
-0.3010 OFDECEMBER FIFTEENTH -0.2632
-0.3010 OFFEBRUARY TWENTY-FIFTH -0.0969
-0.3010 OFJANUARY TWENTY-SIXTH -0.2041
-0.9031 OFMARCH ELEVENTH -0.1761
-0.9031 OFMARCH TWENTY-FIRST -0.1249
-0.9031 OFMARCH TWENTY-SEVENTH -0.2430
-0.9031 OFMARCH TWENTY-SIXTH -0.2041
-0.3010 OFMAY EIGTH 0.0000
-0.7782 OFNOVEMBER FOURTEENTH -0.2553
-0.7782 OFNOVEMBER NINETEENTH -0.2430
-0.7782 OFNOVEMBER TWENTY-FIFTH -0.0969
-0.3010 OFOCTOBER TWENTY-FIRST -0.1249
-0.3010 OFTEN TO -0.2181
-1.2577 PANDA DISPLAY -0.1796
-1.3034 PANDA HOW 0.0000
-0.4126 PANDA SHOW -0.0532
-2.0816 PANDA WHEN 0.0000
-0.3010 SECOND FOR -0.2385
-0.3802 SEPTEMBER </s> -0.3010
-1.0792 SEPTEMBER FOURTH -0.2218
-1.0000 SEVENTEENTH </s> -0.3010
-1.0000 SEVENTEENTH FOR -0.2623
-0.5229 SEVENTEENTH OF -0.2489
-0.6021 SEVENTH FOR -0.2709
-0.6021 SEVENTH OF -0.2714
-1.1276 SHOW AI'S -0.1871
-1.2291 SHOW BENJAMIN'S -0.2030
-0.7597 SHOW CALENDAR -0.0846
-1.5079 SHOW CONNECTIONS 0.0000
-1.1856 SHOW ERIK'S -0.1963
-1.2526 SHOW HOW 0.0000
-1.5079 SHOW NEXT 0.0000
-2.0307 SHOW WHEN 0.0000
-0.3010 SIXTEENTH OF -0.2843
-0.9031 SIXTH </s> -0.3010
-0.6021 SIXTH OF -0.2489
-0.9031 SIXTH WEEK -0.1761
-0.3010 SLEEP UNTIL 0.0000
-0.3010 STATION </s> -0.3010
-0.3010 THIRD FOR -0.1934
-0.3010 THIRTEENTH </s> -0.3010
-0.7782 THIRTIETH OF -0.2800
-0.4771 THIRTIETH WEEK -0.1761
-0.4771 THIRTY-FIRST FOR -0.2292
-0.7782 THIRTY-FIRST OF -0.2822
-0.8846 TO HOW 0.0000
-1.0607 TO SLEEP 0.0000
-1.0607 TO UNTIL 0.0000
-1.0607 TO WAIT 0.0000
-1.0607 TO WAKE 0.0000
-1.6628 TO WHEN 0.0000
-0.9031 TWENTIETH FOR -0.2709
-0.9031 TWENTIETH OF -0.2864
-0.6021 TWENTIETH WEEK -0.1761
-0.7782 TWENTY-EIGTH FOR -0.2709
-0.7782 TWENTY-EIGTH OF -0.2800
-0.7782 TWENTY-EIGTH WEEK -0.1761
-0.4260 TWENTY-FIFTH </s> -0.3010
-0.9031 TWENTY-FIFTH FOR -0.2709
-0.4771 TWENTY-FIRST </s> -0.3010
-1.0792 TWENTY-FIRST FOR -0.2623
-1.0792 TWENTY-FIRST OF -0.2714
-0.9031 TWENTY-FOURTH FOR -0.2709
-0.4260 TWENTY-FOURTH OF -0.2251
-0.6021 TWENTY-NINTH </s> -0.3010
-0.6021 TWENTY-NINTH FOR -0.2623
-0.7782 TWENTY-SECOND </s> -0.3010
-0.4771 TWENTY-SECOND OF -0.2580
-0.9031 TWENTY-SEVENTH </s> -0.3010
-0.9031 TWENTY-SEVENTH FOR -0.2623
-0.9031 TWENTY-SEVENTH OF -0.2864
-0.9031 TWENTY-SEVENTH WEEK -0.1761
-0.6990 TWENTY-SIXTH </s> -0.3010
-1.0000 TWENTY-SIXTH FOR -0.2709
-0.6990 TWENTY-SIXTH OF -0.2692
-0.3010 TWENTY-THIRD OF -0.2843
-0.7782 UNTIL AI'S -0.1871
-0.7782 UNTIL BENJAMIN'S -0.1730
-0.7782 UNTIL ERIK'S -0.1790
-0.3010 UP UNTIL 0.0000
-0.3010 WAIT UNTIL 0.0000
-0.3010 WAKE UP 0.0000
-0.6021 WEEK OF -0.0681
-1.3554 WEEK OFAPRIL 0.0000
-1.5315 WEEK OFAUGUST 0.0000
-1.8325 WEEK OFDECEMBER 0.0000
-1.8325 WEEK OFFEBRUARY 0.0000
-1.8325 WEEK OFJANUARY 0.0000
-1.2304 WEEK OFMARCH 0.0000
-1.8325 WEEK OFMAY 0.0000
-1.3554 WEEK OFNOVEMBER 0.0000
-1.8325 WEEK OFOCTOBER 0.0000
-0.3010 WEST </s> -0.3010
-0.3010 WHEN IS 0.0000

\3-grams:
-0.3680 <s> DISPLAY HOW
-1.1461 <s> DISPLAY WHEN
-0.3010 <s> GO TO
-1.2577 <s> PANDA DISPLAY
-1.3034 <s> PANDA HOW
-0.4126 <s> PANDA SHOW
-2.0816 <s> PANDA WHEN
-0.3680 <s> SHOW HOW
-1.1461 <s> SHOW WHEN
-0.3010 AI'S BIRTHDAY </s>
-0.3010 AI'S BIRTHDAY? </s>
-1.5051 AI'S CALENDAR FIRST
-0.5509 AI'S CALENDAR FOR
-1.5051 AI'S CALENDAR FOURTEENTH
-1.5051 AI'S CALENDAR NINETEENTH
-1.5051 AI'S CALENDAR SIXTEENTH
-1.5051 AI'S CALENDAR SIXTH
-1.5051 AI'S CALENDAR THIRTIETH
-1.5051 AI'S CALENDAR TWENTY-FOURTH
-0.3010 AI'S CALENDAREIGHTEENTH OF
-0.3010 AI'S CALENDARFIRST OF
-0.3010 AI'S CALENDARSIXTH OF
-0.3010 AI'S CALENDARTHIRTEENTH OF
-0.3010 AI'S CALENDARTWENTY-FIFTH OF
-0.3010 AI'S CALENDARTWENTY-NINTH OF
-0.3010 AI'S CALENDARTWENTY-SIXTH OF
-0.3010 APRIL FOR AI
-0.3010 APRIL NINETEENTH FOR
-0.3010 APRIL TWENTY-EIGTH FOR
-0.6021 AUGUST FOR BENJAMIN
-0.6021 AUGUST FOR ERIK
-0.3010 AUGUST THIRD FOR
-0.3010 AUGUST TWENTY-FIRST FOR
-0.3010 AUGUST TWENTY-NINTH FOR
-0.3010 BENJAMIN'S BIRTHDAY </s>
-0.3010 BENJAMIN'S BIRTHDAY? </s>
-1.3424 BENJAMIN'S CALENDAR ELEVENTH
-1.3424 BENJAMIN'S CALENDAR FIFTEENTH
-1.0414 BENJAMIN'S CALENDAR FIFTH
-0.7404 BENJAMIN'S CALENDAR FOR
-1.3424 BENJAMIN'S CALENDAR FOURTH
-1.3424 BENJAMIN'S CALENDAR TWENTY-SIXTH
-1.3424 BENJAMIN'S CALENDAR TWENTY-THIRD
-0.3010 BENJAMIN'S CALENDARNINTH OF
-0.3010 BENJAMIN'S CALENDARSECOND OF
-0.3010 BENJAMIN'S CALENDARSEVENTEENTH OF
-0.3010 BENJAMIN'S CALENDARTWENTY-FOURTH OF
-0.3010 BENJAMIN'S CALENDARTWENTY-NINTH OF
-0.3010 BENJAMIN'S CALENDARTWENTY-SIXTH OF
-0.3010 BENJAMIN'S CALENDARTWENTY-THIRD OF
-0.3010 CALENDAR EIGHTEENTH OF
-0.3010 CALENDAR ELEVENTH OF
-0.3010 CALENDAR FIFTEENTH OF
-0.3010 CALENDAR FIFTH OF
-0.3010 CALENDAR FIRST OF
-1.6628 CALENDAR FOR EIGHTEENTH
-1.9638 CALENDAR FOR ELEVENTH
-1.6628 CALENDAR FOR FIFTEENTH
-1.4867 CALENDAR FOR FOURTEENTH
-1.9638 CALENDAR FOR FOURTH
-1.9638 CALENDAR FOR MARCH
-1.9638 CALENDAR FOR NINTH
-1.6628 CALENDAR FOR SEVENTEENTH
-1.9638 CALENDAR FOR SEVENTH
-1.9638 CALENDAR FOR SIXTH
-1.6628 CALENDAR FOR THIRTIETH
-1.9638 CALENDAR FOR THIRTY-FIRST
-1.6628 CALENDAR FOR TWENTIETH
-1.6628 CALENDAR FOR TWENTY-EIGTH
-1.9638 CALENDAR FOR TWENTY-FIRST
-1.9638 CALENDAR FOR TWENTY-FOURTH
-1.6628 CALENDAR FOR TWENTY-SECOND
-1.6628 CALENDAR FOR TWENTY-SEVENTH
-1.9638 CALENDAR FOR TWENTY-SIXTH
-0.7333 CALENDAR FOR WEEK
-0.3010 CALENDAR FOURTEENTH OF
-0.3010 CALENDAR FOURTH OF
-0.3010 CALENDAR NINETEENTH OF
-1.4314 CALENDAR OF APRIL
-1.2553 CALENDAR OF AUGUST
-1.4314 CALENDAR OF DECEMBER
-1.0334 CALENDAR OF FEBRUARY
-1.7324 CALENDAR OF JANUARY
-1.4314 CALENDAR OF JUNE
-1.4314 CALENDAR OF MARCH
-1.2553 CALENDAR OF MAY
-1.7324 CALENDAR OF NOVEMBER
-1.7324 CALENDAR OF OCTOBER
-1.7324 CALENDAR OF SEPTEMBER
-1.1303 CALENDAR OF WEEK
-0.3010 CALENDAR SEVENTEENTH OF
-0.3010 CALENDAR SIXTEENTH OF
-0.3010 CALENDAR SIXTH OF
-0.3010 CALENDAR THIRTIETH OF
-0.3010 CALENDAR TWENTIETH OF
-0.3010 CALENDAR TWENTY-FOURTH OF
-0.3010 CALENDAR TWENTY-SIXTH OF
-0.3010 CALENDAR TWENTY-THIRD OF
-0.3010 CALENDAREIGHTEENTH OF SEPTEMBER
-0.3010 CALENDARELEVENTH OF APRIL
-0.3010 CALENDARFIFTEENTH OF JANUARY
-0.3010 CALENDARFIRST OF NOVEMBER
-0.3010 CALENDARFOURTH OF DECEMBER
-0.6021 CALENDARNINTH OF FEBRUARY
-0.6021 CALENDARNINTH OF OCTOBER
-0.3010 CALENDARSECOND OF MARCH
-0.6021 CALENDARSEVENTEENTH OF APRIL
-0.6021 CALENDARSEVENTEENTH OF SEPTEMBER
-0.4771 CALENDARSIXTH OF AUGUST
-0.7782 CALENDARSIXTH OF DECEMBER
-0.6021 CALENDARTHIRTEENTH OF APRIL
-0.6021 CALENDARTHIRTEENTH OF DECEMBER
-0.3010 CALENDARTWENTY-EIGTH OF FEBRUARY
-0.3010 CALENDARTWENTY-FIFTH OF APRIL
-0.6021 CALENDARTWENTY-FOURTH OF APRIL
-0.6021 CALENDARTWENTY-FOURTH OF FEBRUARY
-0.3010 CALENDARTWENTY-NINTH OF JULY
-0.3010 CALENDARTWENTY-SECOND OF JUNE
-0.7782 CALENDARTWENTY-SIXTH OF APRIL
-0.7782 CALENDARTWENTY-SIXTH OF JULY
-0.7782 CALENDARTWENTY-SIXTH OF NOVEMBER
-0.6021 CALENDARTWENTY-THIRD OF FEBRUARY
-0.6021 CALENDARTWENTY-THIRD OF NOVEMBER
-1.3010 CONNECTIONS FROM CHURCH
-1.3010 CONNECTIONS FROM FRIEDRICHSTRASSE
-1.3010 CONNECTIONS FROM LADENBURG
-1.3010 CONNECTIONS FROM MAIN
-1.3010 CONNECTIONS FROM MARKET
-1.3010 CONNECTIONS FROM MARKTPLATZ
-1.3010 CONNECTIONS FROM MATTHEUS
-0.8239 CONNECTIONS FROM NECKARAU
-0.7782 DAYS UNTIL AI'S
-0.7782 DAYS UNTIL BENJAMIN'S
-0.7782 DAYS UNTIL ERIK'S
-0.3010 DECEMBER EIGHTEENTH FOR
-0.3010 DECEMBER SEVENTEENTH FOR
-0.3010 DECEMBER TWENTY-FIRST </s>
-0.3010 DISPLAY CONNECTIONS FROM
-0.6021 DISPLAY HOW LONG
-1.0792 DISPLAY HOW MANY
-0.7782 DISPLAY HOW OFTEN
-0.3010 DISPLAY NEXT CONNECTIONS
-0.3010 DISPLAY WHEN IS
-0.3010 EIGHTEENTH FOR ERIK
-0.7782 EIGHTEENTH OF FEBRUARY
-0.7782 EIGHTEENTH OF MAY
-0.7782 EIGHTEENTH OF NOVEMBER
-0.3010 ELEVENTH OF JUNE
-0.3010 ELEVENTH WEEK OF
-0.3010 ERIK'S BIRTHDAY </s>
-0.3010 ERIK'S BIRTHDAY? </s>
-1.3010 ERIK'S CALENDAR EIGHTEENTH
-0.6990 ERIK'S CALENDAR FOR
-1.3010 ERIK'S CALENDAR SEVENTEENTH
-1.3010 ERIK'S CALENDAR SIXTH
-1.3010 ERIK'S CALENDAR TWENTIETH
-1.3010 ERIK'S CALENDAR TWENTY-FOURTH
-1.3010 ERIK'S CALENDAR TWENTY-THIRD
-0.3010 ERIK'S CALENDARELEVENTH OF
-0.3010 ERIK'S CALENDARFIFTEENTH OF
-0.3010 ERIK'S CALENDARFOURTH OF
-0.3010 ERIK'S CALENDARNINTH OF
-0.3010 ERIK'S CALENDARSIXTH OF
-0.3010 ERIK'S CALENDARTWENTY-EIGTH OF
-0.3010 ERIK'S CALENDARTWENTY-FOURTH OF
-0.3010 ERIK'S CALENDARTWENTY-SECOND OF
-0.3010 ERIK'S CALENDARTWENTY-SIXTH OF
-0.3010 ERIK'S CALENDARTWENTY-THIRD OF
-0.3010 FEBRUARY FIFTEENTH FOR
-0.3010 FEBRUARY FOR BENJAMIN
-0.3010 FEBRUARY SECOND FOR
-0.3010 FEBRUARY SEVENTH FOR
-0.3010 FEBRUARY TWENTIETH FOR
-0.3010 FEBRUARY TWENTY-SEVENTH FOR
-0.6021 FIFTEENTH FOR AI
-0.6021 FIFTEENTH FOR ERIK
-0.6021 FIFTEENTH OF MAY
-0.6021 FIFTEENTH OF NOVEMBER
-0.3010 FIFTEENTH WEEK OF
-0.6021 FIFTH OF AUGUST
-0.6021 FIFTH OF SEPTEMBER
-0.3010 FIRST OF JANUARY
-0.3010 FOR AI </s>
-0.3010 FOR BENJAMIN </s>
-0.3010 FOR EIGHTEENTH OF
-0.3010 FOR ELEVENTH WEEK
-0.3010 FOR ERIK </s>
-0.6021 FOR FIFTEENTH OF
-0.6021 FOR FIFTEENTH WEEK
-0.7782 FOR FOURTEENTH OF
-0.4771 FOR FOURTEENTH WEEK
-0.3010 FOR FOURTH WEEK
-0.3010 FOR MARCH TWENTY-FIRST
-0.3010 FOR NINTH WEEK
-0.3010 FOR SEVENTEENTH OF
-0.3010 FOR SEVENTH OF
-0.3010 FOR SIXTH WEEK
-0.3010 FOR THIRTIETH WEEK
-0.3010 FOR THIRTY-FIRST OF
-0.3010 FOR TWENTIETH WEEK
-0.6021 FOR TWENTY-EIGTH OF
-0.6021 FOR TWENTY-EIGTH WEEK
-0.3010 FOR TWENTY-FIRST OF
-0.3010 FOR TWENTY-FOURTH OF
-0.3010 FOR TWENTY-SECOND OF
-0.6021 FOR TWENTY-SEVENTH OF
-0.6021 FOR TWENTY-SEVENTH WEEK
-0.3010 FOR TWENTY-SIXTH OF
-1.0544 FOR WEEK OFAPRIL
-1.2304 FOR WEEK OFAUGUST
-1.5315 FOR WEEK OFDECEMBER
-1.5315 FOR WEEK OFFEBRUARY
-1.5315 FOR WEEK OFJANUARY
-0.9294 FOR WEEK OFMARCH
-1.5315 FOR WEEK OFMAY
-1.0544 FOR WEEK OFNOVEMBER
-1.5315 FOR WEEK OFOCTOBER
-0.6021 FOURTEENTH OF FEBRUARY
-0.6021 FOURTEENTH OF JUNE
-0.3010 FOURTEENTH WEEK OF
-0.3010 FOURTH FOR ERIK
-0.3010 FOURTH OF MAY
-0.3010 FOURTH WEEK OF
-0.3010 FROM CHURCH </s>
-0.3010 FROM FRIEDRICHSTRASSE </s>
-0.3010 FROM LADENBURG </s>
-0.3010 FROM MAIN STATION
-0.3010 FROM MARKET </s>
-0.3010 FROM MARKTPLATZ </s>
-0.3010 FROM MATTHEUS KIRCHE
-0.7782 FROM NECKARAU BAHNHOF
-0.7782 FROM NECKARAU STATION
-0.7782 FROM NECKARAU WEST
-0.3680 GO TO HOW
-1.1461 GO TO WHEN
-0.4771 HOW LONG TO
-0.7782 HOW LONG UNTIL
-0.3010 HOW MANY DAYS
-0.3010 HOW OFTEN TO
-0.3010 IS AI'S BIRTHDAY?
-0.3010 IS BENJAMIN'S BIRTHDAY?
-0.3010 IS ERIK'S BIRTHDAY?
-0.6021 JANUARY FOR AI
-0.6021 JANUARY FOR ERIK
-0.3010 JANUARY TWENTY-SIXTH FOR
-0.3010 JULY SEVENTEENTH </s>
-0.3010 JUNE SECOND FOR
-0.3010 JUNE THIRTEENTH </s>
-0.3010 JUNE TWENTY-FIFTH FOR
-0.6021 LONG TO UNTIL
-0.6021 LONG TO WAIT
-0.7782 LONG UNTIL AI'S
-0.7782 LONG UNTIL BENJAMIN'S
-0.7782 LONG UNTIL ERIK'S
-0.3010 MAIN STATION </s>
-0.3010 MANY DAYS UNTIL
-0.6021 MARCH FOR AI
-0.6021 MARCH FOR ERIK
-0.3010 MARCH THIRD FOR
-0.3010 MARCH TWENTY-FIRST </s>
-0.3010 MARCH TWENTY-FOURTH FOR
-0.3010 MARCH TWENTY-SECOND </s>
-0.3010 MATTHEUS KIRCHE </s>
-0.3010 MAY FIFTEENTH FOR
-0.3010 MAY THIRTY-FIRST FOR
-0.3010 NECKARAU BAHNHOF </s>
-0.3010 NECKARAU STATION </s>
-0.3010 NECKARAU WEST </s>
-0.3010 NEXT CONNECTIONS FROM
-0.6021 NINETEENTH FOR AI
-0.6021 NINETEENTH FOR BENJAMIN
-0.3010 NINETEENTH OF SEPTEMBER
-0.3010 NINTH WEEK OF
-0.6021 NOVEMBER FOR BENJAMIN
-0.6021 NOVEMBER FOR ERIK
-0.3010 NOVEMBER NINETEENTH FOR
-0.6021 OCTOBER FOR BENJAMIN
-0.6021 OCTOBER FOR ERIK
-0.3010 OCTOBER THIRD FOR
-0.4472 OF APRIL </s>
-1.1461 OF APRIL FOR
-1.4472 OF APRIL NINETEENTH
-1.4472 OF APRIL TWENTY-EIGTH
-0.6532 OF AUGUST </s>
-0.9542 OF AUGUST FOR
-1.2553 OF AUGUST THIRD
-1.2553 OF AUGUST TWENTY-FIRST
-1.2553 OF AUGUST TWENTY-NINTH
-0.6021 OF DECEMBER </s>
-1.0792 OF DECEMBER EIGHTEENTH
-1.0792 OF DECEMBER SEVENTEENTH
-1.0792 OF DECEMBER TWENTY-FIRST
-0.5699 OF FEBRUARY </s>
-1.4150 OF FEBRUARY FIFTEENTH
-1.4150 OF FEBRUARY FOR
-1.4150 OF FEBRUARY SECOND
-1.4150 OF FEBRUARY SEVENTH
-1.4150 OF FEBRUARY TWENTIETH
-1.4150 OF FEBRUARY TWENTY-SEVENTH
-0.5051 OF JANUARY </s>
-0.9031 OF JANUARY FOR
-1.2041 OF JANUARY TWENTY-SIXTH
-0.4260 OF JULY </s>
-0.9031 OF JULY SEVENTEENTH
-0.5441 OF JUNE </s>
-1.1461 OF JUNE SECOND
-1.1461 OF JUNE THIRTEENTH
-1.1461 OF JUNE TWENTY-FIFTH
-0.6021 OF MARCH </s>
-1.0000 OF MARCH FOR
-1.3010 OF MARCH THIRD
-1.3010 OF MARCH TWENTY-FOURTH
-1.3010 OF MARCH TWENTY-SECOND
-0.5051 OF MAY </s>
-1.2041 OF MAY FIFTEENTH
-0.9031 OF MAY THIRTY-FIRST
-0.4559 OF NOVEMBER </s>
-1.0000 OF NOVEMBER FOR
-1.3010 OF NOVEMBER NINETEENTH
-0.5441 OF OCTOBER </s>
-0.8451 OF OCTOBER FOR
-1.1461 OF OCTOBER THIRD
-0.3802 OF SEPTEMBER </s>
-1.0792 OF SEPTEMBER FOURTH
-0.3010 OF WEEK OF
-0.3010 OFAPRIL EIGTH </s>
-0.3010 OFAPRIL SIXTH </s>
-0.3010 OFAPRIL TWENTY-NINTH </s>
-0.3010 OFAUGUST ELEVENTH </s>
-0.3010 OFAUGUST TWENTY-FIFTH </s>
-0.3010 OFDECEMBER FIFTEENTH </s>
-0.3010 OFFEBRUARY TWENTY-FIFTH </s>
-0.3010 OFJANUARY TWENTY-SIXTH </s>
-0.3010 OFMARCH ELEVENTH </s>
-0.3010 OFMARCH TWENTY-FIRST </s>
-0.3010 OFMARCH TWENTY-SEVENTH </s>
-0.3010 OFMARCH TWENTY-SIXTH </s>
-0.3010 OFMAY EIGTH </s>
-0.3010 OFNOVEMBER FOURTEENTH </s>
-0.3010 OFNOVEMBER NINETEENTH </s>
-0.3010 OFNOVEMBER TWENTY-FIFTH </s>
-0.3010 OFOCTOBER TWENTY-FIRST </s>
-0.6021 OFTEN TO SLEEP
-0.6021 OFTEN TO WAKE
-0.6021 PANDA DISPLAY CONNECTIONS
-0.6021 PANDA DISPLAY NEXT
-0.6021 PANDA HOW LONG
-1.0792 PANDA HOW MANY
-0.7782 PANDA HOW OFTEN
-1.0669 PANDA SHOW AI'S
-1.1684 PANDA SHOW BENJAMIN'S
-0.6990 PANDA SHOW CALENDAR
-1.4472 PANDA SHOW CONNECTIONS
-1.1249 PANDA SHOW ERIK'S
-1.4472 PANDA SHOW NEXT
-0.3010 PANDA WHEN IS
-0.6021 SECOND FOR AI
-0.6021 SECOND FOR BENJAMIN
-0.3010 SEPTEMBER FOURTH FOR
-0.3010 SEVENTEENTH FOR ERIK
-0.7782 SEVENTEENTH OF JANUARY
-0.7782 SEVENTEENTH OF MARCH
-0.7782 SEVENTEENTH OF SEPTEMBER
-0.3010 SEVENTH FOR BENJAMIN
-0.3010 SEVENTH OF APRIL
-0.4771 SHOW AI'S CALENDAR
-1.6812 SHOW AI'S CALENDAREIGHTEENTH
-1.6812 SHOW AI'S CALENDARFIRST
-1.6812 SHOW AI'S CALENDARSIXTH
-1.3802 SHOW AI'S CALENDARTHIRTEENTH
-1.6812 SHOW AI'S CALENDARTWENTY-FIFTH
-1.6812 SHOW AI'S CALENDARTWENTY-NINTH
-1.6812 SHOW AI'S CALENDARTWENTY-SIXTH
-0.5384 SHOW BENJAMIN'S CALENDAR
-1.5798 SHOW BENJAMIN'S CALENDARNINTH
-1.5798 SHOW BENJAMIN'S CALENDARSECOND
-1.2788 SHOW BENJAMIN'S CALENDARSEVENTEENTH
-1.5798 SHOW BENJAMIN'S CALENDARTWENTY-FOURTH
-1.5798 SHOW BENJAMIN'S CALENDARTWENTY-NINTH
-1.5798 SHOW BENJAMIN'S CALENDARTWENTY-SIXTH
-1.5798 SHOW BENJAMIN'S CALENDARTWENTY-THIRD
-0.5868 SHOW CALENDAR FOR
-0.6179 SHOW CALENDAR OF
-0.3010 SHOW CONNECTIONS FROM
-0.6232 SHOW ERIK'S CALENDAR
-1.6232 SHOW ERIK'S CALENDARELEVENTH
-1.6232 SHOW ERIK'S CALENDARFIFTEENTH
-1.6232 SHOW ERIK'S CALENDARFOURTH
-1.6232 SHOW ERIK'S CALENDARNINTH
-1.3222 SHOW ERIK'S CALENDARSIXTH
-1.6232 SHOW ERIK'S CALENDARTWENTY-EIGTH
-1.6232 SHOW ERIK'S CALENDARTWENTY-FOURTH
-1.6232 SHOW ERIK'S CALENDARTWENTY-SECOND
-1.6232 SHOW ERIK'S CALENDARTWENTY-SIXTH
-1.6232 SHOW ERIK'S CALENDARTWENTY-THIRD
-0.6021 SHOW HOW LONG
-1.0792 SHOW HOW MANY
-0.7782 SHOW HOW OFTEN
-0.3010 SHOW NEXT CONNECTIONS
-0.3010 SHOW WHEN IS
-0.3010 SIXTEENTH OF JANUARY
-0.6021 SIXTH OF APRIL
-0.6021 SIXTH OF MARCH
-0.3010 SIXTH WEEK OF
-0.7782 SLEEP UNTIL AI'S
-0.7782 SLEEP UNTIL BENJAMIN'S
-0.7782 SLEEP UNTIL ERIK'S
-0.7782 THIRD FOR AI
-0.7782 THIRD FOR BENJAMIN
-0.7782 THIRD FOR ERIK
-0.3010 THIRTIETH OF MARCH
-0.3010 THIRTIETH WEEK OF
-0.6021 THIRTY-FIRST FOR AI
-0.6021 THIRTY-FIRST FOR ERIK
-0.3010 THIRTY-FIRST OF AUGUST
-0.6021 TO HOW LONG
-1.0792 TO HOW MANY
-0.7782 TO HOW OFTEN
-0.3010 TO SLEEP UNTIL
-0.7782 TO UNTIL AI'S
-0.7782 TO UNTIL BENJAMIN'S
-0.7782 TO UNTIL ERIK'S
-0.3010 TO WAIT UNTIL
-0.3010 TO WAKE UP
-0.3010 TO WHEN IS
-0.3010 TWENTIETH FOR BENJAMIN
-0.3010 TWENTIETH OF OCTOBER
-0.3010 TWENTIETH WEEK OF
-0.3010 TWENTY-EIGTH FOR AI
-0.3010 TWENTY-EIGTH OF NOVEMBER
-0.3010 TWENTY-EIGTH WEEK OF
-0.3010 TWENTY-FIFTH FOR AI
-0.3010 TWENTY-FIRST FOR ERIK
-0.3010 TWENTY-FIRST OF APRIL
-0.3010 TWENTY-FOURTH FOR BENJAMIN
-0.7782 TWENTY-FOURTH OF APRIL
-0.7782 TWENTY-FOURTH OF MARCH
-0.7782 TWENTY-FOURTH OF NOVEMBER
-0.3010 TWENTY-NINTH FOR ERIK
-0.6021 TWENTY-SECOND OF FEBRUARY
-0.6021 TWENTY-SECOND OF JUNE
-0.3010 TWENTY-SEVENTH FOR ERIK
-0.3010 TWENTY-SEVENTH OF OCTOBER
-0.3010 TWENTY-SEVENTH WEEK OF
-0.3010 TWENTY-SIXTH FOR BENJAMIN
-0.6021 TWENTY-SIXTH OF JANUARY
-0.6021 TWENTY-SIXTH OF OCTOBER
-0.3010 TWENTY-THIRD OF MAY
-0.3010 UNTIL AI'S BIRTHDAY
-0.3010 UNTIL BENJAMIN'S BIRTHDAY
-0.3010 UNTIL ERIK'S BIRTHDAY
-0.7782 UP UNTIL AI'S
-0.7782 UP UNTIL BENJAMIN'S
-0.7782 UP UNTIL ERIK'S
-0.7782 WAIT UNTIL AI'S
-0.7782 WAIT UNTIL BENJAMIN'S
-0.7782 WAIT UNTIL ERIK'S
-0.3010 WAKE UP UNTIL
-1.2304 WEEK OF APRIL
-1.2304 WEEK OF AUGUST
-1.5315 WEEK OF DECEMBER
-1.5315 WEEK OF FEBRUARY
-1.2304 WEEK OF JANUARY
-1.5315 WEEK OF JULY
-1.5315 WEEK OF JUNE
-1.0544 WEEK OF MARCH
-1.2304 WEEK OF NOVEMBER
-1.2304 WEEK OF OCTOBER
-0.7782 WEEK OFAPRIL EIGTH
-0.7782 WEEK OFAPRIL SIXTH
-0.7782 WEEK OFAPRIL TWENTY-NINTH
-0.6021 WEEK OFAUGUST ELEVENTH
-0.6021 WEEK OFAUGUST TWENTY-FIFTH
-0.3010 WEEK OFDECEMBER FIFTEENTH
-0.3010 WEEK OFFEBRUARY TWENTY-FIFTH
-0.3010 WEEK OFJANUARY TWENTY-SIXTH
-0.9031 WEEK OFMARCH ELEVENTH
-0.9031 WEEK OFMARCH TWENTY-FIRST
-0.9031 WEEK OFMARCH TWENTY-SEVENTH
-0.9031 WEEK OFMARCH TWENTY-SIXTH
-0.3010 WEEK OFMAY EIGTH
-0.7782 WEEK OFNOVEMBER FOURTEENTH
-0.7782 WEEK OFNOVEMBER NINETEENTH
-0.7782 WEEK OFNOVEMBER TWENTY-FIFTH
-0.3010 WEEK OFOCTOBER TWENTY-FIRST
-0.7782 WHEN IS AI'S
-0.7782 WHEN IS BENJAMIN'S
-0.7782 WHEN IS ERIK'S

\end\
