Language model created by QuickLM on Thu May 31 03:48:42 EDT 2018
Copyright (c) 1996-2010 Carnegie Mellon University and Alexander I. Rudnicky

The model is in standard ARPA format, designed by Doug Paul while he was at MITRE.

The code that was used to produce this language model is available in Open Source.
Please visit http://www.speech.cs.cmu.edu/tools/ for more information

The (fixed) discount mass is 0.5. The backoffs are computed using the ratio method.
This model based on a corpus of 32352 sentences and 431 words

\data\
ngram 1=431
ngram 2=2007
ngram 3=7124

\1-grams:
-1.1883 </s> -0.3010
-1.1883 <s> -0.1876
-2.2535 AI -0.2719
-2.0313 AI'S -0.2601
-2.4932 APRIL -0.2413
-4.6190 APRILEIGHTEENTH -0.2900
-4.6190 APRILEIGTH -0.2900
-4.6190 APRILELEVENTH -0.2900
-4.6190 APRILFIFTEENTH -0.2900
-4.6190 APRILFIFTH -0.2900
-4.6190 APRILFIRST -0.2900
-4.6190 APRILFOURTEENTH -0.2900
-4.6190 APRILFOURTH -0.2900
-4.6190 APRILNINETEENTH -0.2900
-4.6190 APRILNINTH -0.2900
-4.6190 APRILSECOND -0.2900
-4.6190 APRILSEVENTEENTH -0.2900
-4.6190 APRILSEVENTH -0.2900
-4.6190 APRILSIXTEENTH -0.2900
-4.6190 APRILSIXTH -0.2900
-4.6190 APRILTHIRD -0.2900
-4.6190 APRILTHIRTEENTH -0.2900
-4.6190 APRILTHIRTIETH -0.2900
-4.6190 APRILTHIRTY-FIRST -0.2900
-4.6190 APRILTWENTIETH -0.2900
-4.6190 APRILTWENTY-EIGTH -0.2900
-4.6190 APRILTWENTY-FIFTH -0.2900
-4.6190 APRILTWENTY-FIRST -0.2900
-4.6190 APRILTWENTY-FOURTH -0.2900
-4.6190 APRILTWENTY-NINTH -0.2900
-4.6190 APRILTWENTY-SECOND -0.2900
-4.6190 APRILTWENTY-SEVENTH -0.2900
-4.6190 APRILTWENTY-SIXTH -0.2900
-4.6190 APRILTWENTY-THIRD -0.2900
-2.4932 AUGUST -0.2413
-4.6190 AUGUSTEIGHTEENTH -0.2900
-4.6190 AUGUSTEIGTH -0.2900
-4.6190 AUGUSTELEVENTH -0.2900
-4.6190 AUGUSTFIFTEENTH -0.2900
-4.6190 AUGUSTFIFTH -0.2900
-4.6190 AUGUSTFIRST -0.2900
-4.6190 AUGUSTFOURTEENTH -0.2900
-4.6190 AUGUSTFOURTH -0.2900
-4.6190 AUGUSTNINETEENTH -0.2900
-4.6190 AUGUSTNINTH -0.2900
-4.6190 AUGUSTSECOND -0.2900
-4.6190 AUGUSTSEVENTEENTH -0.2900
-4.6190 AUGUSTSEVENTH -0.2900
-4.6190 AUGUSTSIXTEENTH -0.2900
-4.6190 AUGUSTSIXTH -0.2900
-4.6190 AUGUSTTHIRD -0.2900
-4.6190 AUGUSTTHIRTEENTH -0.2900
-4.6190 AUGUSTTHIRTIETH -0.2900
-4.6190 AUGUSTTHIRTY-FIRST -0.2900
-4.6190 AUGUSTTWENTIETH -0.2900
-4.6190 AUGUSTTWENTY-EIGTH -0.2900
-4.6190 AUGUSTTWENTY-FIFTH -0.2900
-4.6190 AUGUSTTWENTY-FIRST -0.2900
-4.6190 AUGUSTTWENTY-FOURTH -0.2900
-4.6190 AUGUSTTWENTY-NINTH -0.2900
-4.6190 AUGUSTTWENTY-SECOND -0.2900
-4.6190 AUGUSTTWENTY-SEVENTH -0.2900
-4.6190 AUGUSTTWENTY-SIXTH -0.2900
-4.6190 AUGUSTTWENTY-THIRD -0.2900
-2.2535 BENJAMIN -0.2719
-2.0313 BENJAMIN'S -0.2601
-1.6003 CALENDAR -0.2296
-2.4932 DECEMBER -0.2413
-4.6190 DECEMBEREIGHTEENTH -0.2900
-4.6190 DECEMBEREIGTH -0.2900
-4.6190 DECEMBERELEVENTH -0.2900
-4.6190 DECEMBERFIFTEENTH -0.2900
-4.6190 DECEMBERFIFTH -0.2900
-4.6190 DECEMBERFIRST -0.2900
-4.6190 DECEMBERFOURTEENTH -0.2900
-4.6190 DECEMBERFOURTH -0.2900
-4.6190 DECEMBERNINETEENTH -0.2900
-4.6190 DECEMBERNINTH -0.2900
-4.6190 DECEMBERSECOND -0.2900
-4.6190 DECEMBERSEVENTEENTH -0.2900
-4.6190 DECEMBERSEVENTH -0.2900
-4.6190 DECEMBERSIXTEENTH -0.2900
-4.6190 DECEMBERSIXTH -0.2900
-4.6190 DECEMBERTHIRD -0.2900
-4.6190 DECEMBERTHIRTEENTH -0.2900
-4.6190 DECEMBERTHIRTIETH -0.2900
-4.6190 DECEMBERTHIRTY-FIRST -0.2900
-4.6190 DECEMBERTWENTIETH -0.2900
-4.6190 DECEMBERTWENTY-EIGTH -0.2900
-4.6190 DECEMBERTWENTY-FIFTH -0.2900
-4.6190 DECEMBERTWENTY-FIRST -0.2900
-4.6190 DECEMBERTWENTY-FOURTH -0.2900
-4.6190 DECEMBERTWENTY-NINTH -0.2900
-4.6190 DECEMBERTWENTY-SECOND -0.2900
-4.6190 DECEMBERTWENTY-SEVENTH -0.2900
-4.6190 DECEMBERTWENTY-SIXTH -0.2900
-4.6190 DECEMBERTWENTY-THIRD -0.2900
-1.8563 DISPLAY -0.2324
-3.1566 DISPLAYWEEK -0.2805
-2.6999 EIGHTEENTH -0.2177
-2.6999 EIGTH -0.2177
-2.6999 ELEVENTH -0.2177
-2.2535 ERIK -0.2719
-2.0313 ERIK'S -0.2601
-2.4932 FEBRUARY -0.2413
-4.6190 FEBRUARYEIGHTEENTH -0.2900
-4.6190 FEBRUARYEIGTH -0.2900
-4.6190 FEBRUARYELEVENTH -0.2900
-4.6190 FEBRUARYFIFTEENTH -0.2900
-4.6190 FEBRUARYFIFTH -0.2900
-4.6190 FEBRUARYFIRST -0.2900
-4.6190 FEBRUARYFOURTEENTH -0.2900
-4.6190 FEBRUARYFOURTH -0.2900
-4.6190 FEBRUARYNINETEENTH -0.2900
-4.6190 FEBRUARYNINTH -0.2900
-4.6190 FEBRUARYSECOND -0.2900
-4.6190 FEBRUARYSEVENTEENTH -0.2900
-4.6190 FEBRUARYSEVENTH -0.2900
-4.6190 FEBRUARYSIXTEENTH -0.2900
-4.6190 FEBRUARYSIXTH -0.2900
-4.6190 FEBRUARYTHIRD -0.2900
-4.6190 FEBRUARYTHIRTEENTH -0.2900
-4.6190 FEBRUARYTHIRTIETH -0.2900
-4.6190 FEBRUARYTHIRTY-FIRST -0.2900
-4.6190 FEBRUARYTWENTIETH -0.2900
-4.6190 FEBRUARYTWENTY-EIGTH -0.2900
-4.6190 FEBRUARYTWENTY-FIFTH -0.2900
-4.6190 FEBRUARYTWENTY-FIRST -0.2900
-4.6190 FEBRUARYTWENTY-FOURTH -0.2900
-4.6190 FEBRUARYTWENTY-NINTH -0.2900
-4.6190 FEBRUARYTWENTY-SECOND -0.2900
-4.6190 FEBRUARYTWENTY-SEVENTH -0.2900
-4.6190 FEBRUARYTWENTY-SIXTH -0.2900
-4.6190 FEBRUARYTWENTY-THIRD -0.2900
-2.6999 FIFTEENTH -0.2177
-2.6999 FIFTH -0.2177
-2.4636 FIRST -0.2157
-1.6003 FOR -0.2804
-2.5291 FORAI -0.2719
-2.5291 FORBENJAMIN -0.2719
-2.5291 FORERIK -0.2719
-2.6999 FOURTEENTH -0.2177
-2.4636 FOURTH -0.2157
-3.2572 FRIDAY -0.2456
-1.8351 GO -0.2946
-2.4927 JANUARY -0.2413
-4.6190 JANUARYEIGHTEENTH -0.2900
-4.6190 JANUARYEIGTH -0.2900
-4.6190 JANUARYELEVENTH -0.2900
-4.6190 JANUARYFIFTEENTH -0.2900
-4.6190 JANUARYFIFTH -0.2900
-4.6190 JANUARYFIRST -0.2900
-4.6190 JANUARYFOURTEENTH -0.2900
-4.6190 JANUARYFOURTH -0.2900
-4.6190 JANUARYNINETEENTH -0.2900
-4.6190 JANUARYNINTH -0.2900
-4.6190 JANUARYSECOND -0.2900
-4.6190 JANUARYSEVENTEENTH -0.2900
-4.6190 JANUARYSEVENTH -0.2900
-4.6190 JANUARYSIXTEENTH -0.2900
-4.6190 JANUARYSIXTH -0.2900
-4.6190 JANUARYTHIRD -0.2900
-4.6190 JANUARYTHIRTEENTH -0.2900
-4.6190 JANUARYTHIRTIETH -0.2900
-4.6190 JANUARYTHIRTY-FIRST -0.2900
-4.6190 JANUARYTWENTIETH -0.2900
-4.6190 JANUARYTWENTY-EIGTH -0.2900
-4.6190 JANUARYTWENTY-FIFTH -0.2900
-4.6190 JANUARYTWENTY-FIRST -0.2900
-4.6190 JANUARYTWENTY-FOURTH -0.2900
-4.6190 JANUARYTWENTY-NINTH -0.2900
-4.6190 JANUARYTWENTY-SECOND -0.2900
-4.6190 JANUARYTWENTY-SEVENTH -0.2900
-4.6190 JANUARYTWENTY-SIXTH -0.2900
-4.6190 JANUARYTWENTY-THIRD -0.2900
-2.4932 JULY -0.2413
-4.6190 JULYEIGHTEENTH -0.2900
-4.6190 JULYEIGTH -0.2900
-4.6190 JULYELEVENTH -0.2900
-4.6190 JULYFIFTEENTH -0.2900
-4.6190 JULYFIFTH -0.2900
-4.6190 JULYFIRST -0.2900
-4.6190 JULYFOURTEENTH -0.2900
-4.6190 JULYFOURTH -0.2900
-4.6190 JULYNINETEENTH -0.2900
-4.6190 JULYNINTH -0.2900
-4.6190 JULYSECOND -0.2900
-4.6190 JULYSEVENTEENTH -0.2900
-4.6190 JULYSEVENTH -0.2900
-4.6190 JULYSIXTEENTH -0.2900
-4.6190 JULYSIXTH -0.2900
-4.6190 JULYTHIRD -0.2900
-4.6190 JULYTHIRTEENTH -0.2900
-4.6190 JULYTHIRTIETH -0.2900
-4.6190 JULYTHIRTY-FIRST -0.2900
-4.6190 JULYTWENTIETH -0.2900
-4.6190 JULYTWENTY-EIGTH -0.2900
-4.6190 JULYTWENTY-FIFTH -0.2900
-4.6190 JULYTWENTY-FIRST -0.2900
-4.6190 JULYTWENTY-FOURTH -0.2900
-4.6190 JULYTWENTY-NINTH -0.2900
-4.6190 JULYTWENTY-SECOND -0.2900
-4.6190 JULYTWENTY-SEVENTH -0.2900
-4.6190 JULYTWENTY-SIXTH -0.2900
-4.6190 JULYTWENTY-THIRD -0.2900
-2.4932 JUNE -0.2413
-4.6190 JUNEEIGHTEENTH -0.2900
-4.6190 JUNEEIGTH -0.2900
-4.6190 JUNEELEVENTH -0.2900
-4.6190 JUNEFIFTEENTH -0.2900
-4.6190 JUNEFIFTH -0.2900
-4.6190 JUNEFIRST -0.2900
-4.6190 JUNEFOURTEENTH -0.2900
-4.6190 JUNEFOURTH -0.2900
-4.6190 JUNENINETEENTH -0.2900
-4.6190 JUNENINTH -0.2900
-4.6190 JUNESECOND -0.2900
-4.6190 JUNESEVENTEENTH -0.2900
-4.6190 JUNESEVENTH -0.2900
-4.6190 JUNESIXTEENTH -0.2900
-4.6190 JUNESIXTH -0.2900
-4.6190 JUNETHIRD -0.2900
-4.6190 JUNETHIRTEENTH -0.2900
-4.6190 JUNETHIRTIETH -0.2900
-4.6190 JUNETHIRTY-FIRST -0.2900
-4.6190 JUNETWENTIETH -0.2900
-4.6190 JUNETWENTY-EIGTH -0.2900
-4.6190 JUNETWENTY-FIFTH -0.2900
-4.6190 JUNETWENTY-FIRST -0.2900
-4.6190 JUNETWENTY-FOURTH -0.2900
-4.6190 JUNETWENTY-NINTH -0.2900
-4.6190 JUNETWENTY-SECOND -0.2900
-4.6190 JUNETWENTY-SEVENTH -0.2900
-4.6190 JUNETWENTY-SIXTH -0.2900
-4.6190 JUNETWENTY-THIRD -0.2900
-2.4932 MARCH -0.2413
-4.6190 MARCHEIGHTEENTH -0.2900
-4.6190 MARCHEIGTH -0.2900
-4.6190 MARCHELEVENTH -0.2900
-4.6190 MARCHFIFTEENTH -0.2900
-4.6190 MARCHFIFTH -0.2900
-4.6190 MARCHFIRST -0.2900
-4.6190 MARCHFOURTEENTH -0.2900
-4.6190 MARCHFOURTH -0.2900
-4.6190 MARCHNINETEENTH -0.2900
-4.6190 MARCHNINTH -0.2900
-4.6190 MARCHSECOND -0.2900
-4.6190 MARCHSEVENTEENTH -0.2900
-4.6190 MARCHSEVENTH -0.2900
-4.6190 MARCHSIXTEENTH -0.2900
-4.6190 MARCHSIXTH -0.2900
-4.6190 MARCHTHIRD -0.2900
-4.6190 MARCHTHIRTEENTH -0.2900
-4.6190 MARCHTHIRTIETH -0.2900
-4.6190 MARCHTHIRTY-FIRST -0.2900
-4.6190 MARCHTWENTIETH -0.2900
-4.6190 MARCHTWENTY-EIGTH -0.2900
-4.6190 MARCHTWENTY-FIFTH -0.2900
-4.6190 MARCHTWENTY-FIRST -0.2900
-4.6190 MARCHTWENTY-FOURTH -0.2900
-4.6190 MARCHTWENTY-NINTH -0.2900
-4.6190 MARCHTWENTY-SECOND -0.2900
-4.6190 MARCHTWENTY-SEVENTH -0.2900
-4.6190 MARCHTWENTY-SIXTH -0.2900
-4.6190 MARCHTWENTY-THIRD -0.2900
-2.4932 MAY -0.2413
-4.6190 MAYEIGHTEENTH -0.2900
-4.6190 MAYEIGTH -0.2900
-4.6190 MAYELEVENTH -0.2900
-4.6190 MAYFIFTEENTH -0.2900
-4.6190 MAYFIFTH -0.2900
-4.6190 MAYFIRST -0.2900
-4.6190 MAYFOURTEENTH -0.2900
-4.6190 MAYFOURTH -0.2900
-4.6190 MAYNINETEENTH -0.2900
-4.6190 MAYNINTH -0.2900
-4.6190 MAYSECOND -0.2900
-4.6190 MAYSEVENTEENTH -0.2900
-4.6190 MAYSEVENTH -0.2900
-4.6190 MAYSIXTEENTH -0.2900
-4.6190 MAYSIXTH -0.2900
-4.6190 MAYTHIRD -0.2900
-4.6190 MAYTHIRTEENTH -0.2900
-4.6190 MAYTHIRTIETH -0.2900
-4.6190 MAYTHIRTY-FIRST -0.2900
-4.6190 MAYTWENTIETH -0.2900
-4.6190 MAYTWENTY-EIGTH -0.2900
-4.6190 MAYTWENTY-FIFTH -0.2900
-4.6190 MAYTWENTY-FIRST -0.2900
-4.6190 MAYTWENTY-FOURTH -0.2900
-4.6190 MAYTWENTY-NINTH -0.2900
-4.6190 MAYTWENTY-SECOND -0.2900
-4.6190 MAYTWENTY-SEVENTH -0.2900
-4.6190 MAYTWENTY-SIXTH -0.2900
-4.6190 MAYTWENTY-THIRD -0.2900
-3.2572 MONDAY -0.2456
-2.9288 NEXT -0.2993
-2.6999 NINETEENTH -0.2177
-2.6999 NINTH -0.2177
-2.4932 NOVEMBER -0.2413
-4.6190 NOVEMBEREIGHTEENTH -0.2900
-4.6190 NOVEMBEREIGTH -0.2900
-4.6190 NOVEMBERELEVENTH -0.2900
-4.6190 NOVEMBERFIFTEENTH -0.2900
-4.6190 NOVEMBERFIFTH -0.2900
-4.6190 NOVEMBERFIRST -0.2900
-4.6190 NOVEMBERFOURTEENTH -0.2900
-4.6190 NOVEMBERFOURTH -0.2900
-4.6190 NOVEMBERNINETEENTH -0.2900
-4.6190 NOVEMBERNINTH -0.2900
-4.6190 NOVEMBERSECOND -0.2900
-4.6190 NOVEMBERSEVENTEENTH -0.2900
-4.6190 NOVEMBERSEVENTH -0.2900
-4.6190 NOVEMBERSIXTEENTH -0.2900
-4.6190 NOVEMBERSIXTH -0.2900
-4.6190 NOVEMBERTHIRD -0.2900
-4.6190 NOVEMBERTHIRTEENTH -0.2900
-4.6190 NOVEMBERTHIRTIETH -0.2900
-4.6190 NOVEMBERTHIRTY-FIRST -0.2900
-4.6190 NOVEMBERTWENTIETH -0.2900
-4.6190 NOVEMBERTWENTY-EIGTH -0.2900
-4.6190 NOVEMBERTWENTY-FIFTH -0.2900
-4.6190 NOVEMBERTWENTY-FIRST -0.2900
-4.6190 NOVEMBERTWENTY-FOURTH -0.2900
-4.6190 NOVEMBERTWENTY-NINTH -0.2900
-4.6190 NOVEMBERTWENTY-SECOND -0.2900
-4.6190 NOVEMBERTWENTY-SEVENTH -0.2900
-4.6190 NOVEMBERTWENTY-SIXTH -0.2900
-4.6190 NOVEMBERTWENTY-THIRD -0.2900
-2.4932 OCTOBER -0.2413
-4.6190 OCTOBEREIGHTEENTH -0.2900
-4.6190 OCTOBEREIGTH -0.2900
-4.6190 OCTOBERELEVENTH -0.2900
-4.6190 OCTOBERFIFTEENTH -0.2900
-4.6190 OCTOBERFIFTH -0.2900
-4.6190 OCTOBERFIRST -0.2900
-4.6190 OCTOBERFOURTEENTH -0.2900
-4.6190 OCTOBERFOURTH -0.2900
-4.6190 OCTOBERNINETEENTH -0.2900
-4.6190 OCTOBERNINTH -0.2900
-4.6190 OCTOBERSECOND -0.2900
-4.6190 OCTOBERSEVENTEENTH -0.2900
-4.6190 OCTOBERSEVENTH -0.2900
-4.6190 OCTOBERSIXTEENTH -0.2900
-4.6190 OCTOBERSIXTH -0.2900
-4.6190 OCTOBERTHIRD -0.2900
-4.6190 OCTOBERTHIRTEENTH -0.2900
-4.6190 OCTOBERTHIRTIETH -0.2900
-4.6190 OCTOBERTHIRTY-FIRST -0.2900
-4.6190 OCTOBERTWENTIETH -0.2900
-4.6190 OCTOBERTWENTY-EIGTH -0.2900
-4.6190 OCTOBERTWENTY-FIFTH -0.2900
-4.6190 OCTOBERTWENTY-FIRST -0.2900
-4.6190 OCTOBERTWENTY-FOURTH -0.2900
-4.6190 OCTOBERTWENTY-NINTH -0.2900
-4.6190 OCTOBERTWENTY-SECOND -0.2900
-4.6190 OCTOBERTWENTY-SEVENTH -0.2900
-4.6190 OCTOBERTWENTY-SIXTH -0.2900
-4.6190 OCTOBERTWENTY-THIRD -0.2900
-1.3352 OF -0.2802
-2.8555 OFAPRIL -0.2725
-2.8555 OFAUGUST -0.2725
-2.8555 OFDECEMBER -0.2725
-2.8555 OFFEBRUARY -0.2725
-2.8568 OFJANUARY -0.2725
-2.8555 OFJULY -0.2725
-2.8555 OFJUNE -0.2725
-2.8555 OFMARCH -0.2725
-2.8555 OFMAY -0.2725
-2.8555 OFNOVEMBER -0.2725
-2.8555 OFOCTOBER -0.2725
-2.8555 OFSEPTEMBER -0.2725
-3.2572 SATURDAY -0.2456
-2.4636 SECOND -0.2157
-2.4932 SEPTEMBER -0.2413
-4.6190 SEPTEMBEREIGHTEENTH -0.2900
-4.6190 SEPTEMBEREIGTH -0.2900
-4.6190 SEPTEMBERELEVENTH -0.2900
-4.6190 SEPTEMBERFIFTEENTH -0.2900
-4.6190 SEPTEMBERFIFTH -0.2900
-4.6190 SEPTEMBERFIRST -0.2900
-4.6190 SEPTEMBERFOURTEENTH -0.2900
-4.6190 SEPTEMBERFOURTH -0.2900
-4.6190 SEPTEMBERNINETEENTH -0.2900
-4.6190 SEPTEMBERNINTH -0.2900
-4.6190 SEPTEMBERSECOND -0.2900
-4.6190 SEPTEMBERSEVENTEENTH -0.2900
-4.6190 SEPTEMBERSEVENTH -0.2900
-4.6190 SEPTEMBERSIXTEENTH -0.2900
-4.6190 SEPTEMBERSIXTH -0.2900
-4.6190 SEPTEMBERTHIRD -0.2900
-4.6190 SEPTEMBERTHIRTEENTH -0.2900
-4.6190 SEPTEMBERTHIRTIETH -0.2900
-4.6190 SEPTEMBERTHIRTY-FIRST -0.2900
-4.6190 SEPTEMBERTWENTIETH -0.2900
-4.6190 SEPTEMBERTWENTY-EIGTH -0.2900
-4.6190 SEPTEMBERTWENTY-FIFTH -0.2900
-4.6190 SEPTEMBERTWENTY-FIRST -0.2900
-4.6190 SEPTEMBERTWENTY-FOURTH -0.2900
-4.6190 SEPTEMBERTWENTY-NINTH -0.2900
-4.6190 SEPTEMBERTWENTY-SECOND -0.2900
-4.6190 SEPTEMBERTWENTY-SEVENTH -0.2900
-4.6190 SEPTEMBERTWENTY-SIXTH -0.2900
-4.6190 SEPTEMBERTWENTY-THIRD -0.2900
-2.6999 SEVENTEENTH -0.2177
-2.6999 SEVENTH -0.2177
-1.8563 SHOW -0.2324
-3.1566 SHOWWEEK -0.2805
-2.6999 SIXTEENTH -0.2177
-2.6999 SIXTH -0.2177
-3.2572 SUNDAY -0.2456
-2.4636 THIRD -0.2157
-2.6999 THIRTEENTH -0.2177
-2.6999 THIRTIETH -0.2177
-2.6999 THIRTY-FIRST -0.2177
-3.2572 THURSDAY -0.2456
-1.8563 TO -0.2324
-3.1566 TOWEEK -0.2805
-3.2572 TUESDAY -0.2456
-2.6999 TWENTIETH -0.2177
-2.6999 TWENTY-EIGTH -0.2177
-2.6999 TWENTY-FIFTH -0.2177
-2.6999 TWENTY-FIRST -0.2177
-2.6999 TWENTY-FOURTH -0.2177
-2.6999 TWENTY-NINTH -0.2177
-2.6999 TWENTY-SECOND -0.2177
-2.6999 TWENTY-SEVENTH -0.2177
-2.6999 TWENTY-SIXTH -0.2177
-2.6999 TWENTY-THIRD -0.2177
-3.2572 WEDNESDAY -0.2456
-1.5291 WEEK -0.2728

\2-grams:
-1.6314 <s> AI'S -0.0000
-3.3485 <s> APRIL -0.2238
-3.3485 <s> AUGUST -0.2238
-1.6314 <s> BENJAMIN'S -0.0000
-1.7922 <s> CALENDAR -0.2219
-3.3485 <s> DECEMBER -0.2238
-0.9691 <s> DISPLAY -0.0000
-2.2694 <s> DISPLAYWEEK 0.0000
-3.0328 <s> EIGHTEENTH -0.1778
-3.0328 <s> EIGTH -0.1778
-3.0328 <s> ELEVENTH -0.1778
-1.6314 <s> ERIK'S -0.0000
-3.3485 <s> FEBRUARY -0.2238
-3.0328 <s> FIFTEENTH -0.1778
-3.0328 <s> FIFTH -0.1778
-2.4307 <s> FIRST -0.1118
-3.0328 <s> FOURTEENTH -0.1778
-2.4307 <s> FOURTH -0.1118
-0.9478 <s> GO 0.0000
-3.3485 <s> JANUARY -0.2236
-3.3485 <s> JULY -0.2238
-3.3485 <s> JUNE -0.2238
-3.3485 <s> MARCH -0.2238
-3.3485 <s> MAY -0.2238
-2.2846 <s> NEXT -0.0000
-3.0328 <s> NINETEENTH -0.1778
-3.0328 <s> NINTH -0.1778
-3.3485 <s> NOVEMBER -0.2238
-3.3485 <s> OCTOBER -0.2238
-2.4307 <s> SECOND -0.1118
-3.3485 <s> SEPTEMBER -0.2238
-3.0328 <s> SEVENTEENTH -0.1778
-3.0328 <s> SEVENTH -0.1778
-0.9691 <s> SHOW -0.0000
-2.2694 <s> SHOWWEEK 0.0000
-3.0328 <s> SIXTEENTH -0.1778
-3.0328 <s> SIXTH -0.1778
-2.4307 <s> THIRD -0.1118
-3.0328 <s> THIRTEENTH -0.1778
-3.0328 <s> THIRTIETH -0.1778
-3.0328 <s> THIRTY-FIRST -0.1778
-3.0328 <s> TWENTIETH -0.1778
-3.0328 <s> TWENTY-EIGTH -0.1778
-3.0328 <s> TWENTY-FIFTH -0.1778
-3.0328 <s> TWENTY-FIRST -0.1778
-3.0328 <s> TWENTY-FOURTH -0.1778
-3.0328 <s> TWENTY-NINTH -0.1778
-3.0328 <s> TWENTY-SECOND -0.1778
-3.0328 <s> TWENTY-SEVENTH -0.1778
-3.0328 <s> TWENTY-SIXTH -0.1778
-3.0328 <s> TWENTY-THIRD -0.1778
-1.5704 <s> WEEK -0.1082
-0.3010 AI </s> -0.3010
-0.5233 AI'S CALENDAR -0.1249
-2.2867 AI'S EIGHTEENTH -0.2176
-2.2867 AI'S EIGTH -0.2176
-2.2867 AI'S ELEVENTH -0.2176
-2.2867 AI'S FIFTEENTH -0.2176
-2.2867 AI'S FIFTH -0.2176
-1.8096 AI'S FIRST -0.1118
-2.2867 AI'S FOURTEENTH -0.2176
-1.8096 AI'S FOURTH -0.1118
-2.0436 AI'S NEXT -0.0000
-2.2867 AI'S NINETEENTH -0.2176
-2.2867 AI'S NINTH -0.2176
-1.8096 AI'S SECOND -0.1118
-2.2867 AI'S SEVENTEENTH -0.2176
-2.2867 AI'S SEVENTH -0.2176
-2.2867 AI'S SIXTEENTH -0.2176
-2.2867 AI'S SIXTH -0.2176
-1.8096 AI'S THIRD -0.1118
-2.2867 AI'S THIRTEENTH -0.2176
-2.2867 AI'S THIRTIETH -0.2176
-2.2867 AI'S THIRTY-FIRST -0.2176
-2.2867 AI'S TWENTIETH -0.2176
-2.2867 AI'S TWENTY-EIGTH -0.2176
-2.2867 AI'S TWENTY-FIFTH -0.2176
-2.2867 AI'S TWENTY-FIRST -0.2176
-2.2867 AI'S TWENTY-FOURTH -0.2176
-2.2867 AI'S TWENTY-NINTH -0.2176
-2.2867 AI'S TWENTY-SECOND -0.2176
-2.2867 AI'S TWENTY-SEVENTH -0.2176
-2.2867 AI'S TWENTY-SIXTH -0.2176
-2.2867 AI'S TWENTY-THIRD -0.2176
-0.4721 APRIL </s> -0.3010
-2.2507 APRIL EIGHTEENTH -0.2145
-2.2507 APRIL EIGTH -0.2145
-2.2507 APRIL ELEVENTH -0.2145
-2.2507 APRIL FIFTEENTH -0.2145
-2.2507 APRIL FIFTH -0.2145
-2.2507 APRIL FIRST -0.2529
-2.2507 APRIL FOURTEENTH -0.2145
-2.2507 APRIL FOURTH -0.2529
-2.2507 APRIL NINETEENTH -0.2145
-2.2507 APRIL NINTH -0.2145
-2.2507 APRIL SECOND -0.2529
-2.2507 APRIL SEVENTEENTH -0.2145
-2.2507 APRIL SEVENTH -0.2145
-2.2507 APRIL SIXTEENTH -0.2145
-2.2507 APRIL SIXTH -0.2145
-2.2507 APRIL THIRD -0.2529
-2.2507 APRIL THIRTEENTH -0.2145
-2.2507 APRIL THIRTIETH -0.2145
-2.2507 APRIL THIRTY-FIRST -0.2145
-2.2507 APRIL TWENTIETH -0.2145
-2.2507 APRIL TWENTY-EIGTH -0.2145
-2.2507 APRIL TWENTY-FIFTH -0.2145
-2.2507 APRIL TWENTY-FIRST -0.2145
-2.2507 APRIL TWENTY-FOURTH -0.2145
-2.2507 APRIL TWENTY-NINTH -0.2145
-2.2507 APRIL TWENTY-SECOND -0.2145
-2.2507 APRIL TWENTY-SEVENTH -0.2145
-2.2507 APRIL TWENTY-SIXTH -0.2145
-2.2507 APRIL TWENTY-THIRD -0.2145
-0.3010 APRILEIGHTEENTH FOR -0.1249
-0.3010 APRILEIGTH FOR -0.1249
-0.3010 APRILELEVENTH FOR -0.1249
-0.3010 APRILFIFTEENTH FOR -0.1249
-0.3010 APRILFIFTH FOR -0.1249
-0.3010 APRILFIRST FOR -0.1249
-0.3010 APRILFOURTEENTH FOR -0.1249
-0.3010 APRILFOURTH FOR -0.1249
-0.3010 APRILNINETEENTH FOR -0.1249
-0.3010 APRILNINTH FOR -0.1249
-0.3010 APRILSECOND FOR -0.1249
-0.3010 APRILSEVENTEENTH FOR -0.1249
-0.3010 APRILSEVENTH FOR -0.1249
-0.3010 APRILSIXTEENTH FOR -0.1249
-0.3010 APRILSIXTH FOR -0.1249
-0.3010 APRILTHIRD FOR -0.1249
-0.3010 APRILTHIRTEENTH FOR -0.1249
-0.3010 APRILTHIRTIETH FOR -0.1249
-0.3010 APRILTHIRTY-FIRST FOR -0.1249
-0.3010 APRILTWENTIETH FOR -0.1249
-0.3010 APRILTWENTY-EIGTH FOR -0.1249
-0.3010 APRILTWENTY-FIFTH FOR -0.1249
-0.3010 APRILTWENTY-FIRST FOR -0.1249
-0.3010 APRILTWENTY-FOURTH FOR -0.1249
-0.3010 APRILTWENTY-NINTH FOR -0.1249
-0.3010 APRILTWENTY-SECOND FOR -0.1249
-0.3010 APRILTWENTY-SEVENTH FOR -0.1249
-0.3010 APRILTWENTY-SIXTH FOR -0.1249
-0.3010 APRILTWENTY-THIRD FOR -0.1249
-0.4721 AUGUST </s> -0.3010
-2.2507 AUGUST EIGHTEENTH -0.2145
-2.2507 AUGUST EIGTH -0.2145
-2.2507 AUGUST ELEVENTH -0.2145
-2.2507 AUGUST FIFTEENTH -0.2145
-2.2507 AUGUST FIFTH -0.2145
-2.2507 AUGUST FIRST -0.2529
-2.2507 AUGUST FOURTEENTH -0.2145
-2.2507 AUGUST FOURTH -0.2529
-2.2507 AUGUST NINETEENTH -0.2145
-2.2507 AUGUST NINTH -0.2145
-2.2507 AUGUST SECOND -0.2529
-2.2507 AUGUST SEVENTEENTH -0.2145
-2.2507 AUGUST SEVENTH -0.2145
-2.2507 AUGUST SIXTEENTH -0.2145
-2.2507 AUGUST SIXTH -0.2145
-2.2507 AUGUST THIRD -0.2529
-2.2507 AUGUST THIRTEENTH -0.2145
-2.2507 AUGUST THIRTIETH -0.2145
-2.2507 AUGUST THIRTY-FIRST -0.2145
-2.2507 AUGUST TWENTIETH -0.2145
-2.2507 AUGUST TWENTY-EIGTH -0.2145
-2.2507 AUGUST TWENTY-FIFTH -0.2145
-2.2507 AUGUST TWENTY-FIRST -0.2145
-2.2507 AUGUST TWENTY-FOURTH -0.2145
-2.2507 AUGUST TWENTY-NINTH -0.2145
-2.2507 AUGUST TWENTY-SECOND -0.2145
-2.2507 AUGUST TWENTY-SEVENTH -0.2145
-2.2507 AUGUST TWENTY-SIXTH -0.2145
-2.2507 AUGUST TWENTY-THIRD -0.2145
-0.3010 AUGUSTEIGHTEENTH FOR -0.1249
-0.3010 AUGUSTEIGTH FOR -0.1249
-0.3010 AUGUSTELEVENTH FOR -0.1249
-0.3010 AUGUSTFIFTEENTH FOR -0.1249
-0.3010 AUGUSTFIFTH FOR -0.1249
-0.3010 AUGUSTFIRST FOR -0.1249
-0.3010 AUGUSTFOURTEENTH FOR -0.1249
-0.3010 AUGUSTFOURTH FOR -0.1249
-0.3010 AUGUSTNINETEENTH FOR -0.1249
-0.3010 AUGUSTNINTH FOR -0.1249
-0.3010 AUGUSTSECOND FOR -0.1249
-0.3010 AUGUSTSEVENTEENTH FOR -0.1249
-0.3010 AUGUSTSEVENTH FOR -0.1249
-0.3010 AUGUSTSIXTEENTH FOR -0.1249
-0.3010 AUGUSTSIXTH FOR -0.1249
-0.3010 AUGUSTTHIRD FOR -0.1249
-0.3010 AUGUSTTHIRTEENTH FOR -0.1249
-0.3010 AUGUSTTHIRTIETH FOR -0.1249
-0.3010 AUGUSTTHIRTY-FIRST FOR -0.1249
-0.3010 AUGUSTTWENTIETH FOR -0.1249
-0.3010 AUGUSTTWENTY-EIGTH FOR -0.1249
-0.3010 AUGUSTTWENTY-FIFTH FOR -0.1249
-0.3010 AUGUSTTWENTY-FIRST FOR -0.1249
-0.3010 AUGUSTTWENTY-FOURTH FOR -0.1249
-0.3010 AUGUSTTWENTY-NINTH FOR -0.1249
-0.3010 AUGUSTTWENTY-SECOND FOR -0.1249
-0.3010 AUGUSTTWENTY-SEVENTH FOR -0.1249
-0.3010 AUGUSTTWENTY-SIXTH FOR -0.1249
-0.3010 AUGUSTTWENTY-THIRD FOR -0.1249
-0.3010 BENJAMIN </s> -0.3010
-0.5233 BENJAMIN'S CALENDAR -0.1249
-2.2867 BENJAMIN'S EIGHTEENTH -0.2176
-2.2867 BENJAMIN'S EIGTH -0.2176
-2.2867 BENJAMIN'S ELEVENTH -0.2176
-2.2867 BENJAMIN'S FIFTEENTH -0.2176
-2.2867 BENJAMIN'S FIFTH -0.2176
-1.8096 BENJAMIN'S FIRST -0.1118
-2.2867 BENJAMIN'S FOURTEENTH -0.2176
-1.8096 BENJAMIN'S FOURTH -0.1118
-2.0436 BENJAMIN'S NEXT -0.0000
-2.2867 BENJAMIN'S NINETEENTH -0.2176
-2.2867 BENJAMIN'S NINTH -0.2176
-1.8096 BENJAMIN'S SECOND -0.1118
-2.2867 BENJAMIN'S SEVENTEENTH -0.2176
-2.2867 BENJAMIN'S SEVENTH -0.2176
-2.2867 BENJAMIN'S SIXTEENTH -0.2176
-2.2867 BENJAMIN'S SIXTH -0.2176
-1.8096 BENJAMIN'S THIRD -0.1118
-2.2867 BENJAMIN'S THIRTEENTH -0.2176
-2.2867 BENJAMIN'S THIRTIETH -0.2176
-2.2867 BENJAMIN'S THIRTY-FIRST -0.2176
-2.2867 BENJAMIN'S TWENTIETH -0.2176
-2.2867 BENJAMIN'S TWENTY-EIGTH -0.2176
-2.2867 BENJAMIN'S TWENTY-FIFTH -0.2176
-2.2867 BENJAMIN'S TWENTY-FIRST -0.2176
-2.2867 BENJAMIN'S TWENTY-FOURTH -0.2176
-2.2867 BENJAMIN'S TWENTY-NINTH -0.2176
-2.2867 BENJAMIN'S TWENTY-SECOND -0.2176
-2.2867 BENJAMIN'S TWENTY-SEVENTH -0.2176
-2.2867 BENJAMIN'S TWENTY-SIXTH -0.2176
-2.2867 BENJAMIN'S TWENTY-THIRD -0.2176
-2.2405 CALENDAR EIGHTEENTH -0.2176
-2.2405 CALENDAR EIGTH -0.2176
-2.2405 CALENDAR ELEVENTH -0.2176
-2.2405 CALENDAR FIFTEENTH -0.2176
-2.2405 CALENDAR FIFTH -0.2176
-2.2405 CALENDAR FIRST -0.2546
-0.7782 CALENDAR FOR -0.2218
-2.2405 CALENDAR FOURTEENTH -0.2176
-2.2405 CALENDAR FOURTH -0.2546
-2.2405 CALENDAR NINETEENTH -0.2176
-2.2405 CALENDAR NINTH -0.2176
-4.3989 CALENDAR OF -0.2859
-1.8573 CALENDAR OFAPRIL -0.0000
-1.8573 CALENDAR OFAUGUST -0.0000
-1.8573 CALENDAR OFDECEMBER -0.0000
-1.8573 CALENDAR OFFEBRUARY -0.0000
-1.8586 CALENDAR OFJANUARY 0.0000
-1.8573 CALENDAR OFJULY -0.0000
-1.8573 CALENDAR OFJUNE -0.0000
-1.8573 CALENDAR OFMARCH -0.0000
-1.8573 CALENDAR OFMAY -0.0000
-1.8573 CALENDAR OFNOVEMBER -0.0000
-1.8573 CALENDAR OFOCTOBER -0.0000
-1.8573 CALENDAR OFSEPTEMBER -0.0000
-2.2405 CALENDAR SECOND -0.2546
-2.2405 CALENDAR SEVENTEENTH -0.2176
-2.2405 CALENDAR SEVENTH -0.2176
-2.2405 CALENDAR SIXTEENTH -0.2176
-2.2405 CALENDAR SIXTH -0.2176
-2.2405 CALENDAR THIRD -0.2546
-2.2405 CALENDAR THIRTEENTH -0.2176
-2.2405 CALENDAR THIRTIETH -0.2176
-2.2405 CALENDAR THIRTY-FIRST -0.2176
-2.2405 CALENDAR TWENTIETH -0.2176
-2.2405 CALENDAR TWENTY-EIGTH -0.2176
-2.2405 CALENDAR TWENTY-FIFTH -0.2176
-2.2405 CALENDAR TWENTY-FIRST -0.2176
-2.2405 CALENDAR TWENTY-FOURTH -0.2176
-2.2405 CALENDAR TWENTY-NINTH -0.2176
-2.2405 CALENDAR TWENTY-SECOND -0.2176
-2.2405 CALENDAR TWENTY-SEVENTH -0.2176
-2.2405 CALENDAR TWENTY-SIXTH -0.2176
-2.2405 CALENDAR TWENTY-THIRD -0.2176
-0.4721 DECEMBER </s> -0.3010
-2.2507 DECEMBER EIGHTEENTH -0.2145
-2.2507 DECEMBER EIGTH -0.2145
-2.2507 DECEMBER ELEVENTH -0.2145
-2.2507 DECEMBER FIFTEENTH -0.2145
-2.2507 DECEMBER FIFTH -0.2145
-2.2507 DECEMBER FIRST -0.2529
-2.2507 DECEMBER FOURTEENTH -0.2145
-2.2507 DECEMBER FOURTH -0.2529
-2.2507 DECEMBER NINETEENTH -0.2145
-2.2507 DECEMBER NINTH -0.2145
-2.2507 DECEMBER SECOND -0.2529
-2.2507 DECEMBER SEVENTEENTH -0.2145
-2.2507 DECEMBER SEVENTH -0.2145
-2.2507 DECEMBER SIXTEENTH -0.2145
-2.2507 DECEMBER SIXTH -0.2145
-2.2507 DECEMBER THIRD -0.2529
-2.2507 DECEMBER THIRTEENTH -0.2145
-2.2507 DECEMBER THIRTIETH -0.2145
-2.2507 DECEMBER THIRTY-FIRST -0.2145
-2.2507 DECEMBER TWENTIETH -0.2145
-2.2507 DECEMBER TWENTY-EIGTH -0.2145
-2.2507 DECEMBER TWENTY-FIFTH -0.2145
-2.2507 DECEMBER TWENTY-FIRST -0.2145
-2.2507 DECEMBER TWENTY-FOURTH -0.2145
-2.2507 DECEMBER TWENTY-NINTH -0.2145
-2.2507 DECEMBER TWENTY-SECOND -0.2145
-2.2507 DECEMBER TWENTY-SEVENTH -0.2145
-2.2507 DECEMBER TWENTY-SIXTH -0.2145
-2.2507 DECEMBER TWENTY-THIRD -0.2145
-0.3010 DECEMBEREIGHTEENTH FOR -0.1249
-0.3010 DECEMBEREIGTH FOR -0.1249
-0.3010 DECEMBERELEVENTH FOR -0.1249
-0.3010 DECEMBERFIFTEENTH FOR -0.1249
-0.3010 DECEMBERFIFTH FOR -0.1249
-0.3010 DECEMBERFIRST FOR -0.1249
-0.3010 DECEMBERFOURTEENTH FOR -0.1249
-0.3010 DECEMBERFOURTH FOR -0.1249
-0.3010 DECEMBERNINETEENTH FOR -0.1249
-0.3010 DECEMBERNINTH FOR -0.1249
-0.3010 DECEMBERSECOND FOR -0.1249
-0.3010 DECEMBERSEVENTEENTH FOR -0.1249
-0.3010 DECEMBERSEVENTH FOR -0.1249
-0.3010 DECEMBERSIXTEENTH FOR -0.1249
-0.3010 DECEMBERSIXTH FOR -0.1249
-0.3010 DECEMBERTHIRD FOR -0.1249
-0.3010 DECEMBERTHIRTEENTH FOR -0.1249
-0.3010 DECEMBERTHIRTIETH FOR -0.1249
-0.3010 DECEMBERTHIRTY-FIRST FOR -0.1249
-0.3010 DECEMBERTWENTIETH FOR -0.1249
-0.3010 DECEMBERTWENTY-EIGTH FOR -0.1249
-0.3010 DECEMBERTWENTY-FIFTH FOR -0.1249
-0.3010 DECEMBERTWENTY-FIRST FOR -0.1249
-0.3010 DECEMBERTWENTY-FOURTH FOR -0.1249
-0.3010 DECEMBERTWENTY-NINTH FOR -0.1249
-0.3010 DECEMBERTWENTY-SECOND FOR -0.1249
-0.3010 DECEMBERTWENTY-SEVENTH FOR -0.1249
-0.3010 DECEMBERTWENTY-SIXTH FOR -0.1249
-0.3010 DECEMBERTWENTY-THIRD FOR -0.1249
-1.1242 DISPLAY AI'S -0.0078
-1.1242 DISPLAY BENJAMIN'S -0.0078
-1.1242 DISPLAY CALENDAR -0.2219
-2.4616 DISPLAY EIGHTEENTH -0.1778
-2.4616 DISPLAY EIGTH -0.1778
-2.4616 DISPLAY ELEVENTH -0.1778
-1.1242 DISPLAY ERIK'S -0.0078
-2.4616 DISPLAY FIFTEENTH -0.1778
-2.4616 DISPLAY FIFTH -0.1778
-2.0223 DISPLAY FIRST -0.1730
-2.4616 DISPLAY FOURTEENTH -0.1778
-2.0223 DISPLAY FOURTH -0.1730
-2.4616 DISPLAY NINETEENTH -0.1778
-2.4616 DISPLAY NINTH -0.1778
-2.0223 DISPLAY SECOND -0.1730
-2.4616 DISPLAY SEVENTEENTH -0.1778
-2.4616 DISPLAY SEVENTH -0.1778
-2.4616 DISPLAY SIXTEENTH -0.1778
-2.4616 DISPLAY SIXTH -0.1778
-2.0223 DISPLAY THIRD -0.1730
-2.4616 DISPLAY THIRTEENTH -0.1778
-2.4616 DISPLAY THIRTIETH -0.1778
-2.4616 DISPLAY THIRTY-FIRST -0.1778
-2.4616 DISPLAY TWENTIETH -0.1778
-2.4616 DISPLAY TWENTY-EIGTH -0.1778
-2.4616 DISPLAY TWENTY-FIFTH -0.1778
-2.4616 DISPLAY TWENTY-FIRST -0.1778
-2.4616 DISPLAY TWENTY-FOURTH -0.1778
-2.4616 DISPLAY TWENTY-NINTH -0.1778
-2.4616 DISPLAY TWENTY-SECOND -0.1778
-2.4616 DISPLAY TWENTY-SEVENTH -0.1778
-2.4616 DISPLAY TWENTY-SIXTH -0.1778
-2.4616 DISPLAY TWENTY-THIRD -0.1778
-1.1242 DISPLAY WEEK -0.1082
-0.3010 DISPLAYWEEK OF -0.0723
-0.9648 EIGHTEENTH </s> -0.3010
-1.1409 EIGHTEENTH FOR -0.1249
-1.6180 EIGHTEENTH FORAI 0.0000
-1.6180 EIGHTEENTH FORBENJAMIN 0.0000
-1.6180 EIGHTEENTH FORERIK 0.0000
-0.7577 EIGHTEENTH OF -0.0723
-1.1409 EIGHTEENTH WEEK -0.1082
-0.9648 EIGTH </s> -0.3010
-1.1409 EIGTH FOR -0.1249
-1.6180 EIGTH FORAI 0.0000
-1.6180 EIGTH FORBENJAMIN 0.0000
-1.6180 EIGTH FORERIK 0.0000
-0.7577 EIGTH OF -0.0723
-1.1409 EIGTH WEEK -0.1082
-0.9648 ELEVENTH </s> -0.3010
-1.1409 ELEVENTH FOR -0.1249
-1.6180 ELEVENTH FORAI 0.0000
-1.6180 ELEVENTH FORBENJAMIN 0.0000
-1.6180 ELEVENTH FORERIK 0.0000
-0.7577 ELEVENTH OF -0.0723
-1.1409 ELEVENTH WEEK -0.1082
-0.3010 ERIK </s> -0.3010
-0.5233 ERIK'S CALENDAR -0.1249
-2.2867 ERIK'S EIGHTEENTH -0.2176
-2.2867 ERIK'S EIGTH -0.2176
-2.2867 ERIK'S ELEVENTH -0.2176
-2.2867 ERIK'S FIFTEENTH -0.2176
-2.2867 ERIK'S FIFTH -0.2176
-1.8096 ERIK'S FIRST -0.1118
-2.2867 ERIK'S FOURTEENTH -0.2176
-1.8096 ERIK'S FOURTH -0.1118
-2.0436 ERIK'S NEXT -0.0000
-2.2867 ERIK'S NINETEENTH -0.2176
-2.2867 ERIK'S NINTH -0.2176
-1.8096 ERIK'S SECOND -0.1118
-2.2867 ERIK'S SEVENTEENTH -0.2176
-2.2867 ERIK'S SEVENTH -0.2176
-2.2867 ERIK'S SIXTEENTH -0.2176
-2.2867 ERIK'S SIXTH -0.2176
-1.8096 ERIK'S THIRD -0.1118
-2.2867 ERIK'S THIRTEENTH -0.2176
-2.2867 ERIK'S THIRTIETH -0.2176
-2.2867 ERIK'S THIRTY-FIRST -0.2176
-2.2867 ERIK'S TWENTIETH -0.2176
-2.2867 ERIK'S TWENTY-EIGTH -0.2176
-2.2867 ERIK'S TWENTY-FIFTH -0.2176
-2.2867 ERIK'S TWENTY-FIRST -0.2176
-2.2867 ERIK'S TWENTY-FOURTH -0.2176
-2.2867 ERIK'S TWENTY-NINTH -0.2176
-2.2867 ERIK'S TWENTY-SECOND -0.2176
-2.2867 ERIK'S TWENTY-SEVENTH -0.2176
-2.2867 ERIK'S TWENTY-SIXTH -0.2176
-2.2867 ERIK'S TWENTY-THIRD -0.2176
-0.4721 FEBRUARY </s> -0.3010
-2.2507 FEBRUARY EIGHTEENTH -0.2145
-2.2507 FEBRUARY EIGTH -0.2145
-2.2507 FEBRUARY ELEVENTH -0.2145
-2.2507 FEBRUARY FIFTEENTH -0.2145
-2.2507 FEBRUARY FIFTH -0.2145
-2.2507 FEBRUARY FIRST -0.2529
-2.2507 FEBRUARY FOURTEENTH -0.2145
-2.2507 FEBRUARY FOURTH -0.2529
-2.2507 FEBRUARY NINETEENTH -0.2145
-2.2507 FEBRUARY NINTH -0.2145
-2.2507 FEBRUARY SECOND -0.2529
-2.2507 FEBRUARY SEVENTEENTH -0.2145
-2.2507 FEBRUARY SEVENTH -0.2145
-2.2507 FEBRUARY SIXTEENTH -0.2145
-2.2507 FEBRUARY SIXTH -0.2145
-2.2507 FEBRUARY THIRD -0.2529
-2.2507 FEBRUARY THIRTEENTH -0.2145
-2.2507 FEBRUARY THIRTIETH -0.2145
-2.2507 FEBRUARY THIRTY-FIRST -0.2145
-2.2507 FEBRUARY TWENTIETH -0.2145
-2.2507 FEBRUARY TWENTY-EIGTH -0.2145
-2.2507 FEBRUARY TWENTY-FIFTH -0.2145
-2.2507 FEBRUARY TWENTY-FIRST -0.2145
-2.2507 FEBRUARY TWENTY-FOURTH -0.2145
-2.2507 FEBRUARY TWENTY-NINTH -0.2145
-2.2507 FEBRUARY TWENTY-SECOND -0.2145
-2.2507 FEBRUARY TWENTY-SEVENTH -0.2145
-2.2507 FEBRUARY TWENTY-SIXTH -0.2145
-2.2507 FEBRUARY TWENTY-THIRD -0.2145
-0.3010 FEBRUARYEIGHTEENTH FOR -0.1249
-0.3010 FEBRUARYEIGTH FOR -0.1249
-0.3010 FEBRUARYELEVENTH FOR -0.1249
-0.3010 FEBRUARYFIFTEENTH FOR -0.1249
-0.3010 FEBRUARYFIFTH FOR -0.1249
-0.3010 FEBRUARYFIRST FOR -0.1249
-0.3010 FEBRUARYFOURTEENTH FOR -0.1249
-0.3010 FEBRUARYFOURTH FOR -0.1249
-0.3010 FEBRUARYNINETEENTH FOR -0.1249
-0.3010 FEBRUARYNINTH FOR -0.1249
-0.3010 FEBRUARYSECOND FOR -0.1249
-0.3010 FEBRUARYSEVENTEENTH FOR -0.1249
-0.3010 FEBRUARYSEVENTH FOR -0.1249
-0.3010 FEBRUARYSIXTEENTH FOR -0.1249
-0.3010 FEBRUARYSIXTH FOR -0.1249
-0.3010 FEBRUARYTHIRD FOR -0.1249
-0.3010 FEBRUARYTHIRTEENTH FOR -0.1249
-0.3010 FEBRUARYTHIRTIETH FOR -0.1249
-0.3010 FEBRUARYTHIRTY-FIRST FOR -0.1249
-0.3010 FEBRUARYTWENTIETH FOR -0.1249
-0.3010 FEBRUARYTWENTY-EIGTH FOR -0.1249
-0.3010 FEBRUARYTWENTY-FIFTH FOR -0.1249
-0.3010 FEBRUARYTWENTY-FIRST FOR -0.1249
-0.3010 FEBRUARYTWENTY-FOURTH FOR -0.1249
-0.3010 FEBRUARYTWENTY-NINTH FOR -0.1249
-0.3010 FEBRUARYTWENTY-SECOND FOR -0.1249
-0.3010 FEBRUARYTWENTY-SEVENTH FOR -0.1249
-0.3010 FEBRUARYTWENTY-SIXTH FOR -0.1249
-0.3010 FEBRUARYTWENTY-THIRD FOR -0.1249
-0.9648 FIFTEENTH </s> -0.3010
-1.1409 FIFTEENTH FOR -0.1249
-1.6180 FIFTEENTH FORAI 0.0000
-1.6180 FIFTEENTH FORBENJAMIN 0.0000
-1.6180 FIFTEENTH FORERIK 0.0000
-0.7577 FIFTEENTH OF -0.0723
-1.1409 FIFTEENTH WEEK -0.1082
-0.9648 FIFTH </s> -0.3010
-1.1409 FIFTH FOR -0.1249
-1.6180 FIFTH FORAI 0.0000
-1.6180 FIFTH FORBENJAMIN 0.0000
-1.6180 FIFTH FORERIK 0.0000
-0.7577 FIFTH OF -0.0723
-1.1409 FIFTH WEEK -0.1082
-1.2011 FIRST </s> -0.3010
-1.3772 FIRST FOR -0.1249
-1.8543 FIRST FORAI 0.0000
-1.8543 FIRST FORBENJAMIN 0.0000
-1.8543 FIRST FORERIK 0.0000
-1.8543 FIRST FRIDAY -0.1154
-1.8543 FIRST MONDAY -0.1154
-0.9940 FIRST OF -0.0723
-1.8543 FIRST SATURDAY -0.1154
-1.8543 FIRST SUNDAY -0.1154
-1.8543 FIRST THURSDAY -0.1154
-1.8543 FIRST TUESDAY -0.1154
-1.8543 FIRST WEDNESDAY -0.1154
-0.8129 FIRST WEEK -0.1082
-0.9542 FOR AI 0.0000
-0.9542 FOR BENJAMIN 0.0000
-0.9542 FOR ERIK 0.0000
-0.7782 FOR WEEK 0.0000
-0.3010 FORAI </s> -0.3010
-0.3010 FORBENJAMIN </s> -0.3010
-0.3010 FORERIK </s> -0.3010
-0.9648 FOURTEENTH </s> -0.3010
-1.1409 FOURTEENTH FOR -0.1249
-1.6180 FOURTEENTH FORAI 0.0000
-1.6180 FOURTEENTH FORBENJAMIN 0.0000
-1.6180 FOURTEENTH FORERIK 0.0000
-0.7577 FOURTEENTH OF -0.0723
-1.1409 FOURTEENTH WEEK -0.1082
-1.2011 FOURTH </s> -0.3010
-1.3772 FOURTH FOR -0.1249
-1.8543 FOURTH FORAI 0.0000
-1.8543 FOURTH FORBENJAMIN 0.0000
-1.8543 FOURTH FORERIK 0.0000
-1.8543 FOURTH FRIDAY -0.1154
-1.8543 FOURTH MONDAY -0.1154
-0.9940 FOURTH OF -0.0723
-1.8543 FOURTH SATURDAY -0.1154
-1.8543 FOURTH SUNDAY -0.1154
-1.8543 FOURTH THURSDAY -0.1154
-1.8543 FOURTH TUESDAY -0.1154
-1.8543 FOURTH WEDNESDAY -0.1154
-0.8129 FOURTH WEEK -0.1082
-1.0607 FRIDAY </s> -0.3010
-1.6628 FRIDAY FORAI 0.0000
-1.6628 FRIDAY FORBENJAMIN 0.0000
-1.6628 FRIDAY FORERIK 0.0000
-0.4586 FRIDAY OF -0.0723
-0.3223 GO TO -0.0000
-1.6225 GO TOWEEK 0.0000
-0.4727 JANUARY </s> -0.3010
-2.2512 JANUARY EIGHTEENTH -0.2145
-2.2512 JANUARY EIGTH -0.2145
-2.2512 JANUARY ELEVENTH -0.2145
-2.2512 JANUARY FIFTEENTH -0.2145
-2.2512 JANUARY FIFTH -0.2145
-2.2055 JANUARY FIRST -0.2321
-2.2512 JANUARY FOURTEENTH -0.2145
-2.2512 JANUARY FOURTH -0.2529
-2.2512 JANUARY NINETEENTH -0.2145
-2.2512 JANUARY NINTH -0.2145
-2.2512 JANUARY SECOND -0.2529
-2.2512 JANUARY SEVENTEENTH -0.2145
-2.2512 JANUARY SEVENTH -0.2145
-2.2512 JANUARY SIXTEENTH -0.2145
-2.2512 JANUARY SIXTH -0.2145
-2.2512 JANUARY THIRD -0.2529
-2.2512 JANUARY THIRTEENTH -0.2145
-2.2512 JANUARY THIRTIETH -0.2145
-2.2512 JANUARY THIRTY-FIRST -0.2145
-2.2512 JANUARY TWENTIETH -0.2145
-2.2512 JANUARY TWENTY-EIGTH -0.2145
-2.2512 JANUARY TWENTY-FIFTH -0.2145
-2.2512 JANUARY TWENTY-FIRST -0.2145
-2.2512 JANUARY TWENTY-FOURTH -0.2145
-2.2512 JANUARY TWENTY-NINTH -0.2145
-2.2512 JANUARY TWENTY-SECOND -0.2145
-2.2512 JANUARY TWENTY-SEVENTH -0.2145
-2.2512 JANUARY TWENTY-SIXTH -0.2145
-2.2512 JANUARY TWENTY-THIRD -0.2145
-0.3010 JANUARYEIGHTEENTH FOR -0.1249
-0.3010 JANUARYEIGTH FOR -0.1249
-0.3010 JANUARYELEVENTH FOR -0.1249
-0.3010 JANUARYFIFTEENTH FOR -0.1249
-0.3010 JANUARYFIFTH FOR -0.1249
-0.3010 JANUARYFIRST FOR -0.1249
-0.3010 JANUARYFOURTEENTH FOR -0.1249
-0.3010 JANUARYFOURTH FOR -0.1249
-0.3010 JANUARYNINETEENTH FOR -0.1249
-0.3010 JANUARYNINTH FOR -0.1249
-0.3010 JANUARYSECOND FOR -0.1249
-0.3010 JANUARYSEVENTEENTH FOR -0.1249
-0.3010 JANUARYSEVENTH FOR -0.1249
-0.3010 JANUARYSIXTEENTH FOR -0.1249
-0.3010 JANUARYSIXTH FOR -0.1249
-0.3010 JANUARYTHIRD FOR -0.1249
-0.3010 JANUARYTHIRTEENTH FOR -0.1249
-0.3010 JANUARYTHIRTIETH FOR -0.1249
-0.3010 JANUARYTHIRTY-FIRST FOR -0.1249
-0.3010 JANUARYTWENTIETH FOR -0.1249
-0.3010 JANUARYTWENTY-EIGTH FOR -0.1249
-0.3010 JANUARYTWENTY-FIFTH FOR -0.1249
-0.3010 JANUARYTWENTY-FIRST FOR -0.1249
-0.3010 JANUARYTWENTY-FOURTH FOR -0.1249
-0.3010 JANUARYTWENTY-NINTH FOR -0.1249
-0.3010 JANUARYTWENTY-SECOND FOR -0.1249
-0.3010 JANUARYTWENTY-SEVENTH FOR -0.1249
-0.3010 JANUARYTWENTY-SIXTH FOR -0.1249
-0.3010 JANUARYTWENTY-THIRD FOR -0.1249
-0.4721 JULY </s> -0.3010
-2.2507 JULY EIGHTEENTH -0.2145
-2.2507 JULY EIGTH -0.2145
-2.2507 JULY ELEVENTH -0.2145
-2.2507 JULY FIFTEENTH -0.2145
-2.2507 JULY FIFTH -0.2145
-2.2507 JULY FIRST -0.2529
-2.2507 JULY FOURTEENTH -0.2145
-2.2507 JULY FOURTH -0.2529
-2.2507 JULY NINETEENTH -0.2145
-2.2507 JULY NINTH -0.2145
-2.2507 JULY SECOND -0.2529
-2.2507 JULY SEVENTEENTH -0.2145
-2.2507 JULY SEVENTH -0.2145
-2.2507 JULY SIXTEENTH -0.2145
-2.2507 JULY SIXTH -0.2145
-2.2507 JULY THIRD -0.2529
-2.2507 JULY THIRTEENTH -0.2145
-2.2507 JULY THIRTIETH -0.2145
-2.2507 JULY THIRTY-FIRST -0.2145
-2.2507 JULY TWENTIETH -0.2145
-2.2507 JULY TWENTY-EIGTH -0.2145
-2.2507 JULY TWENTY-FIFTH -0.2145
-2.2507 JULY TWENTY-FIRST -0.2145
-2.2507 JULY TWENTY-FOURTH -0.2145
-2.2507 JULY TWENTY-NINTH -0.2145
-2.2507 JULY TWENTY-SECOND -0.2145
-2.2507 JULY TWENTY-SEVENTH -0.2145
-2.2507 JULY TWENTY-SIXTH -0.2145
-2.2507 JULY TWENTY-THIRD -0.2145
-0.3010 JULYEIGHTEENTH FOR -0.1249
-0.3010 JULYEIGTH FOR -0.1249
-0.3010 JULYELEVENTH FOR -0.1249
-0.3010 JULYFIFTEENTH FOR -0.1249
-0.3010 JULYFIFTH FOR -0.1249
-0.3010 JULYFIRST FOR -0.1249
-0.3010 JULYFOURTEENTH FOR -0.1249
-0.3010 JULYFOURTH FOR -0.1249
-0.3010 JULYNINETEENTH FOR -0.1249
-0.3010 JULYNINTH FOR -0.1249
-0.3010 JULYSECOND FOR -0.1249
-0.3010 JULYSEVENTEENTH FOR -0.1249
-0.3010 JULYSEVENTH FOR -0.1249
-0.3010 JULYSIXTEENTH FOR -0.1249
-0.3010 JULYSIXTH FOR -0.1249
-0.3010 JULYTHIRD FOR -0.1249
-0.3010 JULYTHIRTEENTH FOR -0.1249
-0.3010 JULYTHIRTIETH FOR -0.1249
-0.3010 JULYTHIRTY-FIRST FOR -0.1249
-0.3010 JULYTWENTIETH FOR -0.1249
-0.3010 JULYTWENTY-EIGTH FOR -0.1249
-0.3010 JULYTWENTY-FIFTH FOR -0.1249
-0.3010 JULYTWENTY-FIRST FOR -0.1249
-0.3010 JULYTWENTY-FOURTH FOR -0.1249
-0.3010 JULYTWENTY-NINTH FOR -0.1249
-0.3010 JULYTWENTY-SECOND FOR -0.1249
-0.3010 JULYTWENTY-SEVENTH FOR -0.1249
-0.3010 JULYTWENTY-SIXTH FOR -0.1249
-0.3010 JULYTWENTY-THIRD FOR -0.1249
-0.4721 JUNE </s> -0.3010
-2.2507 JUNE EIGHTEENTH -0.2145
-2.2507 JUNE EIGTH -0.2145
-2.2507 JUNE ELEVENTH -0.2145
-2.2507 JUNE FIFTEENTH -0.2145
-2.2507 JUNE FIFTH -0.2145
-2.2507 JUNE FIRST -0.2529
-2.2507 JUNE FOURTEENTH -0.2145
-2.2507 JUNE FOURTH -0.2529
-2.2507 JUNE NINETEENTH -0.2145
-2.2507 JUNE NINTH -0.2145
-2.2507 JUNE SECOND -0.2529
-2.2507 JUNE SEVENTEENTH -0.2145
-2.2507 JUNE SEVENTH -0.2145
-2.2507 JUNE SIXTEENTH -0.2145
-2.2507 JUNE SIXTH -0.2145
-2.2507 JUNE THIRD -0.2529
-2.2507 JUNE THIRTEENTH -0.2145
-2.2507 JUNE THIRTIETH -0.2145
-2.2507 JUNE THIRTY-FIRST -0.2145
-2.2507 JUNE TWENTIETH -0.2145
-2.2507 JUNE TWENTY-EIGTH -0.2145
-2.2507 JUNE TWENTY-FIFTH -0.2145
-2.2507 JUNE TWENTY-FIRST -0.2145
-2.2507 JUNE TWENTY-FOURTH -0.2145
-2.2507 JUNE TWENTY-NINTH -0.2145
-2.2507 JUNE TWENTY-SECOND -0.2145
-2.2507 JUNE TWENTY-SEVENTH -0.2145
-2.2507 JUNE TWENTY-SIXTH -0.2145
-2.2507 JUNE TWENTY-THIRD -0.2145
-0.3010 JUNEEIGHTEENTH FOR -0.1249
-0.3010 JUNEEIGTH FOR -0.1249
-0.3010 JUNEELEVENTH FOR -0.1249
-0.3010 JUNEFIFTEENTH FOR -0.1249
-0.3010 JUNEFIFTH FOR -0.1249
-0.3010 JUNEFIRST FOR -0.1249
-0.3010 JUNEFOURTEENTH FOR -0.1249
-0.3010 JUNEFOURTH FOR -0.1249
-0.3010 JUNENINETEENTH FOR -0.1249
-0.3010 JUNENINTH FOR -0.1249
-0.3010 JUNESECOND FOR -0.1249
-0.3010 JUNESEVENTEENTH FOR -0.1249
-0.3010 JUNESEVENTH FOR -0.1249
-0.3010 JUNESIXTEENTH FOR -0.1249
-0.3010 JUNESIXTH FOR -0.1249
-0.3010 JUNETHIRD FOR -0.1249
-0.3010 JUNETHIRTEENTH FOR -0.1249
-0.3010 JUNETHIRTIETH FOR -0.1249
-0.3010 JUNETHIRTY-FIRST FOR -0.1249
-0.3010 JUNETWENTIETH FOR -0.1249
-0.3010 JUNETWENTY-EIGTH FOR -0.1249
-0.3010 JUNETWENTY-FIFTH FOR -0.1249
-0.3010 JUNETWENTY-FIRST FOR -0.1249
-0.3010 JUNETWENTY-FOURTH FOR -0.1249
-0.3010 JUNETWENTY-NINTH FOR -0.1249
-0.3010 JUNETWENTY-SECOND FOR -0.1249
-0.3010 JUNETWENTY-SEVENTH FOR -0.1249
-0.3010 JUNETWENTY-SIXTH FOR -0.1249
-0.3010 JUNETWENTY-THIRD FOR -0.1249
-0.4721 MARCH </s> -0.3010
-2.2507 MARCH EIGHTEENTH -0.2145
-2.2507 MARCH EIGTH -0.2145
-2.2507 MARCH ELEVENTH -0.2145
-2.2507 MARCH FIFTEENTH -0.2145
-2.2507 MARCH FIFTH -0.2145
-2.2507 MARCH FIRST -0.2529
-2.2507 MARCH FOURTEENTH -0.2145
-2.2507 MARCH FOURTH -0.2529
-2.2507 MARCH NINETEENTH -0.2145
-2.2507 MARCH NINTH -0.2145
-2.2507 MARCH SECOND -0.2529
-2.2507 MARCH SEVENTEENTH -0.2145
-2.2507 MARCH SEVENTH -0.2145
-2.2507 MARCH SIXTEENTH -0.2145
-2.2507 MARCH SIXTH -0.2145
-2.2507 MARCH THIRD -0.2529
-2.2507 MARCH THIRTEENTH -0.2145
-2.2507 MARCH THIRTIETH -0.2145
-2.2507 MARCH THIRTY-FIRST -0.2145
-2.2507 MARCH TWENTIETH -0.2145
-2.2507 MARCH TWENTY-EIGTH -0.2145
-2.2507 MARCH TWENTY-FIFTH -0.2145
-2.2507 MARCH TWENTY-FIRST -0.2145
-2.2507 MARCH TWENTY-FOURTH -0.2145
-2.2507 MARCH TWENTY-NINTH -0.2145
-2.2507 MARCH TWENTY-SECOND -0.2145
-2.2507 MARCH TWENTY-SEVENTH -0.2145
-2.2507 MARCH TWENTY-SIXTH -0.2145
-2.2507 MARCH TWENTY-THIRD -0.2145
-0.3010 MARCHEIGHTEENTH FOR -0.1249
-0.3010 MARCHEIGTH FOR -0.1249
-0.3010 MARCHELEVENTH FOR -0.1249
-0.3010 MARCHFIFTEENTH FOR -0.1249
-0.3010 MARCHFIFTH FOR -0.1249
-0.3010 MARCHFIRST FOR -0.1249
-0.3010 MARCHFOURTEENTH FOR -0.1249
-0.3010 MARCHFOURTH FOR -0.1249
-0.3010 MARCHNINETEENTH FOR -0.1249
-0.3010 MARCHNINTH FOR -0.1249
-0.3010 MARCHSECOND FOR -0.1249
-0.3010 MARCHSEVENTEENTH FOR -0.1249
-0.3010 MARCHSEVENTH FOR -0.1249
-0.3010 MARCHSIXTEENTH FOR -0.1249
-0.3010 MARCHSIXTH FOR -0.1249
-0.3010 MARCHTHIRD FOR -0.1249
-0.3010 MARCHTHIRTEENTH FOR -0.1249
-0.3010 MARCHTHIRTIETH FOR -0.1249
-0.3010 MARCHTHIRTY-FIRST FOR -0.1249
-0.3010 MARCHTWENTIETH FOR -0.1249
-0.3010 MARCHTWENTY-EIGTH FOR -0.1249
-0.3010 MARCHTWENTY-FIFTH FOR -0.1249
-0.3010 MARCHTWENTY-FIRST FOR -0.1249
-0.3010 MARCHTWENTY-FOURTH FOR -0.1249
-0.3010 MARCHTWENTY-NINTH FOR -0.1249
-0.3010 MARCHTWENTY-SECOND FOR -0.1249
-0.3010 MARCHTWENTY-SEVENTH FOR -0.1249
-0.3010 MARCHTWENTY-SIXTH FOR -0.1249
-0.3010 MARCHTWENTY-THIRD FOR -0.1249
-0.4721 MAY </s> -0.3010
-2.2507 MAY EIGHTEENTH -0.2145
-2.2507 MAY EIGTH -0.2145
-2.2507 MAY ELEVENTH -0.2145
-2.2507 MAY FIFTEENTH -0.2145
-2.2507 MAY FIFTH -0.2145
-2.2507 MAY FIRST -0.2529
-2.2507 MAY FOURTEENTH -0.2145
-2.2507 MAY FOURTH -0.2529
-2.2507 MAY NINETEENTH -0.2145
-2.2507 MAY NINTH -0.2145
-2.2507 MAY SECOND -0.2529
-2.2507 MAY SEVENTEENTH -0.2145
-2.2507 MAY SEVENTH -0.2145
-2.2507 MAY SIXTEENTH -0.2145
-2.2507 MAY SIXTH -0.2145
-2.2507 MAY THIRD -0.2529
-2.2507 MAY THIRTEENTH -0.2145
-2.2507 MAY THIRTIETH -0.2145
-2.2507 MAY THIRTY-FIRST -0.2145
-2.2507 MAY TWENTIETH -0.2145
-2.2507 MAY TWENTY-EIGTH -0.2145
-2.2507 MAY TWENTY-FIFTH -0.2145
-2.2507 MAY TWENTY-FIRST -0.2145
-2.2507 MAY TWENTY-FOURTH -0.2145
-2.2507 MAY TWENTY-NINTH -0.2145
-2.2507 MAY TWENTY-SECOND -0.2145
-2.2507 MAY TWENTY-SEVENTH -0.2145
-2.2507 MAY TWENTY-SIXTH -0.2145
-2.2507 MAY TWENTY-THIRD -0.2145
-0.3010 MAYEIGHTEENTH FOR -0.1249
-0.3010 MAYEIGTH FOR -0.1249
-0.3010 MAYELEVENTH FOR -0.1249
-0.3010 MAYFIFTEENTH FOR -0.1249
-0.3010 MAYFIFTH FOR -0.1249
-0.3010 MAYFIRST FOR -0.1249
-0.3010 MAYFOURTEENTH FOR -0.1249
-0.3010 MAYFOURTH FOR -0.1249
-0.3010 MAYNINETEENTH FOR -0.1249
-0.3010 MAYNINTH FOR -0.1249
-0.3010 MAYSECOND FOR -0.1249
-0.3010 MAYSEVENTEENTH FOR -0.1249
-0.3010 MAYSEVENTH FOR -0.1249
-0.3010 MAYSIXTEENTH FOR -0.1249
-0.3010 MAYSIXTH FOR -0.1249
-0.3010 MAYTHIRD FOR -0.1249
-0.3010 MAYTHIRTEENTH FOR -0.1249
-0.3010 MAYTHIRTIETH FOR -0.1249
-0.3010 MAYTHIRTY-FIRST FOR -0.1249
-0.3010 MAYTWENTIETH FOR -0.1249
-0.3010 MAYTWENTY-EIGTH FOR -0.1249
-0.3010 MAYTWENTY-FIFTH FOR -0.1249
-0.3010 MAYTWENTY-FIRST FOR -0.1249
-0.3010 MAYTWENTY-FOURTH FOR -0.1249
-0.3010 MAYTWENTY-NINTH FOR -0.1249
-0.3010 MAYTWENTY-SECOND FOR -0.1249
-0.3010 MAYTWENTY-SEVENTH FOR -0.1249
-0.3010 MAYTWENTY-SIXTH FOR -0.1249
-0.3010 MAYTWENTY-THIRD FOR -0.1249
-1.0607 MONDAY </s> -0.3010
-1.6628 MONDAY FORAI 0.0000
-1.6628 MONDAY FORBENJAMIN 0.0000
-1.6628 MONDAY FORERIK 0.0000
-0.4586 MONDAY OF -0.0723
-1.1461 NEXT FRIDAY -0.2293
-1.1461 NEXT MONDAY -0.2293
-1.1461 NEXT SATURDAY -0.2293
-1.1461 NEXT SUNDAY -0.2293
-1.1461 NEXT THURSDAY -0.2293
-1.1461 NEXT TUESDAY -0.2293
-1.1461 NEXT WEDNESDAY -0.2293
-0.9648 NINETEENTH </s> -0.3010
-1.1409 NINETEENTH FOR -0.1249
-1.6180 NINETEENTH FORAI 0.0000
-1.6180 NINETEENTH FORBENJAMIN 0.0000
-1.6180 NINETEENTH FORERIK 0.0000
-0.7577 NINETEENTH OF -0.0723
-1.1409 NINETEENTH WEEK -0.1082
-0.9648 NINTH </s> -0.3010
-1.1409 NINTH FOR -0.1249
-1.6180 NINTH FORAI 0.0000
-1.6180 NINTH FORBENJAMIN 0.0000
-1.6180 NINTH FORERIK 0.0000
-0.7577 NINTH OF -0.0723
-1.1409 NINTH WEEK -0.1082
-0.4721 NOVEMBER </s> -0.3010
-2.2507 NOVEMBER EIGHTEENTH -0.2145
-2.2507 NOVEMBER EIGTH -0.2145
-2.2507 NOVEMBER ELEVENTH -0.2145
-2.2507 NOVEMBER FIFTEENTH -0.2145
-2.2507 NOVEMBER FIFTH -0.2145
-2.2507 NOVEMBER FIRST -0.2529
-2.2507 NOVEMBER FOURTEENTH -0.2145
-2.2507 NOVEMBER FOURTH -0.2529
-2.2507 NOVEMBER NINETEENTH -0.2145
-2.2507 NOVEMBER NINTH -0.2145
-2.2507 NOVEMBER SECOND -0.2529
-2.2507 NOVEMBER SEVENTEENTH -0.2145
-2.2507 NOVEMBER SEVENTH -0.2145
-2.2507 NOVEMBER SIXTEENTH -0.2145
-2.2507 NOVEMBER SIXTH -0.2145
-2.2507 NOVEMBER THIRD -0.2529
-2.2507 NOVEMBER THIRTEENTH -0.2145
-2.2507 NOVEMBER THIRTIETH -0.2145
-2.2507 NOVEMBER THIRTY-FIRST -0.2145
-2.2507 NOVEMBER TWENTIETH -0.2145
-2.2507 NOVEMBER TWENTY-EIGTH -0.2145
-2.2507 NOVEMBER TWENTY-FIFTH -0.2145
-2.2507 NOVEMBER TWENTY-FIRST -0.2145
-2.2507 NOVEMBER TWENTY-FOURTH -0.2145
-2.2507 NOVEMBER TWENTY-NINTH -0.2145
-2.2507 NOVEMBER TWENTY-SECOND -0.2145
-2.2507 NOVEMBER TWENTY-SEVENTH -0.2145
-2.2507 NOVEMBER TWENTY-SIXTH -0.2145
-2.2507 NOVEMBER TWENTY-THIRD -0.2145
-0.3010 NOVEMBEREIGHTEENTH FOR -0.1249
-0.3010 NOVEMBEREIGTH FOR -0.1249
-0.3010 NOVEMBERELEVENTH FOR -0.1249
-0.3010 NOVEMBERFIFTEENTH FOR -0.1249
-0.3010 NOVEMBERFIFTH FOR -0.1249
-0.3010 NOVEMBERFIRST FOR -0.1249
-0.3010 NOVEMBERFOURTEENTH FOR -0.1249
-0.3010 NOVEMBERFOURTH FOR -0.1249
-0.3010 NOVEMBERNINETEENTH FOR -0.1249
-0.3010 NOVEMBERNINTH FOR -0.1249
-0.3010 NOVEMBERSECOND FOR -0.1249
-0.3010 NOVEMBERSEVENTEENTH FOR -0.1249
-0.3010 NOVEMBERSEVENTH FOR -0.1249
-0.3010 NOVEMBERSIXTEENTH FOR -0.1249
-0.3010 NOVEMBERSIXTH FOR -0.1249
-0.3010 NOVEMBERTHIRD FOR -0.1249
-0.3010 NOVEMBERTHIRTEENTH FOR -0.1249
-0.3010 NOVEMBERTHIRTIETH FOR -0.1249
-0.3010 NOVEMBERTHIRTY-FIRST FOR -0.1249
-0.3010 NOVEMBERTWENTIETH FOR -0.1249
-0.3010 NOVEMBERTWENTY-EIGTH FOR -0.1249
-0.3010 NOVEMBERTWENTY-FIFTH FOR -0.1249
-0.3010 NOVEMBERTWENTY-FIRST FOR -0.1249
-0.3010 NOVEMBERTWENTY-FOURTH FOR -0.1249
-0.3010 NOVEMBERTWENTY-NINTH FOR -0.1249
-0.3010 NOVEMBERTWENTY-SECOND FOR -0.1249
-0.3010 NOVEMBERTWENTY-SEVENTH FOR -0.1249
-0.3010 NOVEMBERTWENTY-SIXTH FOR -0.1249
-0.3010 NOVEMBERTWENTY-THIRD FOR -0.1249
-0.4721 OCTOBER </s> -0.3010
-2.2507 OCTOBER EIGHTEENTH -0.2145
-2.2507 OCTOBER EIGTH -0.2145
-2.2507 OCTOBER ELEVENTH -0.2145
-2.2507 OCTOBER FIFTEENTH -0.2145
-2.2507 OCTOBER FIFTH -0.2145
-2.2507 OCTOBER FIRST -0.2529
-2.2507 OCTOBER FOURTEENTH -0.2145
-2.2507 OCTOBER FOURTH -0.2529
-2.2507 OCTOBER NINETEENTH -0.2145
-2.2507 OCTOBER NINTH -0.2145
-2.2507 OCTOBER SECOND -0.2529
-2.2507 OCTOBER SEVENTEENTH -0.2145
-2.2507 OCTOBER SEVENTH -0.2145
-2.2507 OCTOBER SIXTEENTH -0.2145
-2.2507 OCTOBER SIXTH -0.2145
-2.2507 OCTOBER THIRD -0.2529
-2.2507 OCTOBER THIRTEENTH -0.2145
-2.2507 OCTOBER THIRTIETH -0.2145
-2.2507 OCTOBER THIRTY-FIRST -0.2145
-2.2507 OCTOBER TWENTIETH -0.2145
-2.2507 OCTOBER TWENTY-EIGTH -0.2145
-2.2507 OCTOBER TWENTY-FIFTH -0.2145
-2.2507 OCTOBER TWENTY-FIRST -0.2145
-2.2507 OCTOBER TWENTY-FOURTH -0.2145
-2.2507 OCTOBER TWENTY-NINTH -0.2145
-2.2507 OCTOBER TWENTY-SECOND -0.2145
-2.2507 OCTOBER TWENTY-SEVENTH -0.2145
-2.2507 OCTOBER TWENTY-SIXTH -0.2145
-2.2507 OCTOBER TWENTY-THIRD -0.2145
-0.3010 OCTOBEREIGHTEENTH FOR -0.1249
-0.3010 OCTOBEREIGTH FOR -0.1249
-0.3010 OCTOBERELEVENTH FOR -0.1249
-0.3010 OCTOBERFIFTEENTH FOR -0.1249
-0.3010 OCTOBERFIFTH FOR -0.1249
-0.3010 OCTOBERFIRST FOR -0.1249
-0.3010 OCTOBERFOURTEENTH FOR -0.1249
-0.3010 OCTOBERFOURTH FOR -0.1249
-0.3010 OCTOBERNINETEENTH FOR -0.1249
-0.3010 OCTOBERNINTH FOR -0.1249
-0.3010 OCTOBERSECOND FOR -0.1249
-0.3010 OCTOBERSEVENTEENTH FOR -0.1249
-0.3010 OCTOBERSEVENTH FOR -0.1249
-0.3010 OCTOBERSIXTEENTH FOR -0.1249
-0.3010 OCTOBERSIXTH FOR -0.1249
-0.3010 OCTOBERTHIRD FOR -0.1249
-0.3010 OCTOBERTHIRTEENTH FOR -0.1249
-0.3010 OCTOBERTHIRTIETH FOR -0.1249
-0.3010 OCTOBERTHIRTY-FIRST FOR -0.1249
-0.3010 OCTOBERTWENTIETH FOR -0.1249
-0.3010 OCTOBERTWENTY-EIGTH FOR -0.1249
-0.3010 OCTOBERTWENTY-FIFTH FOR -0.1249
-0.3010 OCTOBERTWENTY-FIRST FOR -0.1249
-0.3010 OCTOBERTWENTY-FOURTH FOR -0.1249
-0.3010 OCTOBERTWENTY-NINTH FOR -0.1249
-0.3010 OCTOBERTWENTY-SECOND FOR -0.1249
-0.3010 OCTOBERTWENTY-SEVENTH FOR -0.1249
-0.3010 OCTOBERTWENTY-SIXTH FOR -0.1249
-0.3010 OCTOBERTWENTY-THIRD FOR -0.1249
-1.4670 OF APRIL 0.0000
-3.5848 OF APRILEIGHTEENTH 0.0000
-3.5848 OF APRILEIGTH 0.0000
-3.5848 OF APRILELEVENTH 0.0000
-3.5848 OF APRILFIFTEENTH 0.0000
-3.5848 OF APRILFIFTH 0.0000
-3.5848 OF APRILFIRST 0.0000
-3.5848 OF APRILFOURTEENTH 0.0000
-3.5848 OF APRILFOURTH 0.0000
-3.5848 OF APRILNINETEENTH 0.0000
-3.5848 OF APRILNINTH 0.0000
-3.5848 OF APRILSECOND 0.0000
-3.5848 OF APRILSEVENTEENTH 0.0000
-3.5848 OF APRILSEVENTH 0.0000
-3.5848 OF APRILSIXTEENTH 0.0000
-3.5848 OF APRILSIXTH 0.0000
-3.5848 OF APRILTHIRD 0.0000
-3.5848 OF APRILTHIRTEENTH 0.0000
-3.5848 OF APRILTHIRTIETH 0.0000
-3.5848 OF APRILTHIRTY-FIRST 0.0000
-3.5848 OF APRILTWENTIETH 0.0000
-3.5848 OF APRILTWENTY-EIGTH 0.0000
-3.5848 OF APRILTWENTY-FIFTH 0.0000
-3.5848 OF APRILTWENTY-FIRST 0.0000
-3.5848 OF APRILTWENTY-FOURTH 0.0000
-3.5848 OF APRILTWENTY-NINTH 0.0000
-3.5848 OF APRILTWENTY-SECOND 0.0000
-3.5848 OF APRILTWENTY-SEVENTH 0.0000
-3.5848 OF APRILTWENTY-SIXTH 0.0000
-3.5848 OF APRILTWENTY-THIRD 0.0000
-1.4670 OF AUGUST 0.0000
-3.5848 OF AUGUSTEIGHTEENTH 0.0000
-3.5848 OF AUGUSTEIGTH 0.0000
-3.5848 OF AUGUSTELEVENTH 0.0000
-3.5848 OF AUGUSTFIFTEENTH 0.0000
-3.5848 OF AUGUSTFIFTH 0.0000
-3.5848 OF AUGUSTFIRST 0.0000
-3.5848 OF AUGUSTFOURTEENTH 0.0000
-3.5848 OF AUGUSTFOURTH 0.0000
-3.5848 OF AUGUSTNINETEENTH 0.0000
-3.5848 OF AUGUSTNINTH 0.0000
-3.5848 OF AUGUSTSECOND 0.0000
-3.5848 OF AUGUSTSEVENTEENTH 0.0000
-3.5848 OF AUGUSTSEVENTH 0.0000
-3.5848 OF AUGUSTSIXTEENTH 0.0000
-3.5848 OF AUGUSTSIXTH 0.0000
-3.5848 OF AUGUSTTHIRD 0.0000
-3.5848 OF AUGUSTTHIRTEENTH 0.0000
-3.5848 OF AUGUSTTHIRTIETH 0.0000
-3.5848 OF AUGUSTTHIRTY-FIRST 0.0000
-3.5848 OF AUGUSTTWENTIETH 0.0000
-3.5848 OF AUGUSTTWENTY-EIGTH 0.0000
-3.5848 OF AUGUSTTWENTY-FIFTH 0.0000
-3.5848 OF AUGUSTTWENTY-FIRST 0.0000
-3.5848 OF AUGUSTTWENTY-FOURTH 0.0000
-3.5848 OF AUGUSTTWENTY-NINTH 0.0000
-3.5848 OF AUGUSTTWENTY-SECOND 0.0000
-3.5848 OF AUGUSTTWENTY-SEVENTH 0.0000
-3.5848 OF AUGUSTTWENTY-SIXTH 0.0000
-3.5848 OF AUGUSTTWENTY-THIRD 0.0000
-1.4670 OF DECEMBER 0.0000
-3.5848 OF DECEMBEREIGHTEENTH 0.0000
-3.5848 OF DECEMBEREIGTH 0.0000
-3.5848 OF DECEMBERELEVENTH 0.0000
-3.5848 OF DECEMBERFIFTEENTH 0.0000
-3.5848 OF DECEMBERFIFTH 0.0000
-3.5848 OF DECEMBERFIRST 0.0000
-3.5848 OF DECEMBERFOURTEENTH 0.0000
-3.5848 OF DECEMBERFOURTH 0.0000
-3.5848 OF DECEMBERNINETEENTH 0.0000
-3.5848 OF DECEMBERNINTH 0.0000
-3.5848 OF DECEMBERSECOND 0.0000
-3.5848 OF DECEMBERSEVENTEENTH 0.0000
-3.5848 OF DECEMBERSEVENTH 0.0000
-3.5848 OF DECEMBERSIXTEENTH 0.0000
-3.5848 OF DECEMBERSIXTH 0.0000
-3.5848 OF DECEMBERTHIRD 0.0000
-3.5848 OF DECEMBERTHIRTEENTH 0.0000
-3.5848 OF DECEMBERTHIRTIETH 0.0000
-3.5848 OF DECEMBERTHIRTY-FIRST 0.0000
-3.5848 OF DECEMBERTWENTIETH 0.0000
-3.5848 OF DECEMBERTWENTY-EIGTH 0.0000
-3.5848 OF DECEMBERTWENTY-FIFTH 0.0000
-3.5848 OF DECEMBERTWENTY-FIRST 0.0000
-3.5848 OF DECEMBERTWENTY-FOURTH 0.0000
-3.5848 OF DECEMBERTWENTY-NINTH 0.0000
-3.5848 OF DECEMBERTWENTY-SECOND 0.0000
-3.5848 OF DECEMBERTWENTY-SEVENTH 0.0000
-3.5848 OF DECEMBERTWENTY-SIXTH 0.0000
-3.5848 OF DECEMBERTWENTY-THIRD 0.0000
-1.4670 OF FEBRUARY 0.0000
-3.5848 OF FEBRUARYEIGHTEENTH 0.0000
-3.5848 OF FEBRUARYEIGTH 0.0000
-3.5848 OF FEBRUARYELEVENTH 0.0000
-3.5848 OF FEBRUARYFIFTEENTH 0.0000
-3.5848 OF FEBRUARYFIFTH 0.0000
-3.5848 OF FEBRUARYFIRST 0.0000
-3.5848 OF FEBRUARYFOURTEENTH 0.0000
-3.5848 OF FEBRUARYFOURTH 0.0000
-3.5848 OF FEBRUARYNINETEENTH 0.0000
-3.5848 OF FEBRUARYNINTH 0.0000
-3.5848 OF FEBRUARYSECOND 0.0000
-3.5848 OF FEBRUARYSEVENTEENTH 0.0000
-3.5848 OF FEBRUARYSEVENTH 0.0000
-3.5848 OF FEBRUARYSIXTEENTH 0.0000
-3.5848 OF FEBRUARYSIXTH 0.0000
-3.5848 OF FEBRUARYTHIRD 0.0000
-3.5848 OF FEBRUARYTHIRTEENTH 0.0000
-3.5848 OF FEBRUARYTHIRTIETH 0.0000
-3.5848 OF FEBRUARYTHIRTY-FIRST 0.0000
-3.5848 OF FEBRUARYTWENTIETH 0.0000
-3.5848 OF FEBRUARYTWENTY-EIGTH 0.0000
-3.5848 OF FEBRUARYTWENTY-FIFTH 0.0000
-3.5848 OF FEBRUARYTWENTY-FIRST 0.0000
-3.5848 OF FEBRUARYTWENTY-FOURTH 0.0000
-3.5848 OF FEBRUARYTWENTY-NINTH 0.0000
-3.5848 OF FEBRUARYTWENTY-SECOND 0.0000
-3.5848 OF FEBRUARYTWENTY-SEVENTH 0.0000
-3.5848 OF FEBRUARYTWENTY-SIXTH 0.0000
-3.5848 OF FEBRUARYTWENTY-THIRD 0.0000
-1.4664 OF JANUARY 0.0000
-3.5848 OF JANUARYEIGHTEENTH 0.0000
-3.5848 OF JANUARYEIGTH 0.0000
-3.5848 OF JANUARYELEVENTH 0.0000
-3.5848 OF JANUARYFIFTEENTH 0.0000
-3.5848 OF JANUARYFIFTH 0.0000
-3.5848 OF JANUARYFIRST 0.0000
-3.5848 OF JANUARYFOURTEENTH 0.0000
-3.5848 OF JANUARYFOURTH 0.0000
-3.5848 OF JANUARYNINETEENTH 0.0000
-3.5848 OF JANUARYNINTH 0.0000
-3.5848 OF JANUARYSECOND 0.0000
-3.5848 OF JANUARYSEVENTEENTH 0.0000
-3.5848 OF JANUARYSEVENTH 0.0000
-3.5848 OF JANUARYSIXTEENTH 0.0000
-3.5848 OF JANUARYSIXTH 0.0000
-3.5848 OF JANUARYTHIRD 0.0000
-3.5848 OF JANUARYTHIRTEENTH 0.0000
-3.5848 OF JANUARYTHIRTIETH 0.0000
-3.5848 OF JANUARYTHIRTY-FIRST 0.0000
-3.5848 OF JANUARYTWENTIETH 0.0000
-3.5848 OF JANUARYTWENTY-EIGTH 0.0000
-3.5848 OF JANUARYTWENTY-FIFTH 0.0000
-3.5848 OF JANUARYTWENTY-FIRST 0.0000
-3.5848 OF JANUARYTWENTY-FOURTH 0.0000
-3.5848 OF JANUARYTWENTY-NINTH 0.0000
-3.5848 OF JANUARYTWENTY-SECOND 0.0000
-3.5848 OF JANUARYTWENTY-SEVENTH 0.0000
-3.5848 OF JANUARYTWENTY-SIXTH 0.0000
-3.5848 OF JANUARYTWENTY-THIRD 0.0000
-1.4670 OF JULY 0.0000
-3.5848 OF JULYEIGHTEENTH 0.0000
-3.5848 OF JULYEIGTH 0.0000
-3.5848 OF JULYELEVENTH 0.0000
-3.5848 OF JULYFIFTEENTH 0.0000
-3.5848 OF JULYFIFTH 0.0000
-3.5848 OF JULYFIRST 0.0000
-3.5848 OF JULYFOURTEENTH 0.0000
-3.5848 OF JULYFOURTH 0.0000
-3.5848 OF JULYNINETEENTH 0.0000
-3.5848 OF JULYNINTH 0.0000
-3.5848 OF JULYSECOND 0.0000
-3.5848 OF JULYSEVENTEENTH 0.0000
-3.5848 OF JULYSEVENTH 0.0000
-3.5848 OF JULYSIXTEENTH 0.0000
-3.5848 OF JULYSIXTH 0.0000
-3.5848 OF JULYTHIRD 0.0000
-3.5848 OF JULYTHIRTEENTH 0.0000
-3.5848 OF JULYTHIRTIETH 0.0000
-3.5848 OF JULYTHIRTY-FIRST 0.0000
-3.5848 OF JULYTWENTIETH 0.0000
-3.5848 OF JULYTWENTY-EIGTH 0.0000
-3.5848 OF JULYTWENTY-FIFTH 0.0000
-3.5848 OF JULYTWENTY-FIRST 0.0000
-3.5848 OF JULYTWENTY-FOURTH 0.0000
-3.5848 OF JULYTWENTY-NINTH 0.0000
-3.5848 OF JULYTWENTY-SECOND 0.0000
-3.5848 OF JULYTWENTY-SEVENTH 0.0000
-3.5848 OF JULYTWENTY-SIXTH 0.0000
-3.5848 OF JULYTWENTY-THIRD 0.0000
-1.4670 OF JUNE 0.0000
-3.5848 OF JUNEEIGHTEENTH 0.0000
-3.5848 OF JUNEEIGTH 0.0000
-3.5848 OF JUNEELEVENTH 0.0000
-3.5848 OF JUNEFIFTEENTH 0.0000
-3.5848 OF JUNEFIFTH 0.0000
-3.5848 OF JUNEFIRST 0.0000
-3.5848 OF JUNEFOURTEENTH 0.0000
-3.5848 OF JUNEFOURTH 0.0000
-3.5848 OF JUNENINETEENTH 0.0000
-3.5848 OF JUNENINTH 0.0000
-3.5848 OF JUNESECOND 0.0000
-3.5848 OF JUNESEVENTEENTH 0.0000
-3.5848 OF JUNESEVENTH 0.0000
-3.5848 OF JUNESIXTEENTH 0.0000
-3.5848 OF JUNESIXTH 0.0000
-3.5848 OF JUNETHIRD 0.0000
-3.5848 OF JUNETHIRTEENTH 0.0000
-3.5848 OF JUNETHIRTIETH 0.0000
-3.5848 OF JUNETHIRTY-FIRST 0.0000
-3.5848 OF JUNETWENTIETH 0.0000
-3.5848 OF JUNETWENTY-EIGTH 0.0000
-3.5848 OF JUNETWENTY-FIFTH 0.0000
-3.5848 OF JUNETWENTY-FIRST 0.0000
-3.5848 OF JUNETWENTY-FOURTH 0.0000
-3.5848 OF JUNETWENTY-NINTH 0.0000
-3.5848 OF JUNETWENTY-SECOND 0.0000
-3.5848 OF JUNETWENTY-SEVENTH 0.0000
-3.5848 OF JUNETWENTY-SIXTH 0.0000
-3.5848 OF JUNETWENTY-THIRD 0.0000
-1.4670 OF MARCH 0.0000
-3.5848 OF MARCHEIGHTEENTH 0.0000
-3.5848 OF MARCHEIGTH 0.0000
-3.5848 OF MARCHELEVENTH 0.0000
-3.5848 OF MARCHFIFTEENTH 0.0000
-3.5848 OF MARCHFIFTH 0.0000
-3.5848 OF MARCHFIRST 0.0000
-3.5848 OF MARCHFOURTEENTH 0.0000
-3.5848 OF MARCHFOURTH 0.0000
-3.5848 OF MARCHNINETEENTH 0.0000
-3.5848 OF MARCHNINTH 0.0000
-3.5848 OF MARCHSECOND 0.0000
-3.5848 OF MARCHSEVENTEENTH 0.0000
-3.5848 OF MARCHSEVENTH 0.0000
-3.5848 OF MARCHSIXTEENTH 0.0000
-3.5848 OF MARCHSIXTH 0.0000
-3.5848 OF MARCHTHIRD 0.0000
-3.5848 OF MARCHTHIRTEENTH 0.0000
-3.5848 OF MARCHTHIRTIETH 0.0000
-3.5848 OF MARCHTHIRTY-FIRST 0.0000
-3.5848 OF MARCHTWENTIETH 0.0000
-3.5848 OF MARCHTWENTY-EIGTH 0.0000
-3.5848 OF MARCHTWENTY-FIFTH 0.0000
-3.5848 OF MARCHTWENTY-FIRST 0.0000
-3.5848 OF MARCHTWENTY-FOURTH 0.0000
-3.5848 OF MARCHTWENTY-NINTH 0.0000
-3.5848 OF MARCHTWENTY-SECOND 0.0000
-3.5848 OF MARCHTWENTY-SEVENTH 0.0000
-3.5848 OF MARCHTWENTY-SIXTH 0.0000
-3.5848 OF MARCHTWENTY-THIRD 0.0000
-1.4670 OF MAY 0.0000
-3.5848 OF MAYEIGHTEENTH 0.0000
-3.5848 OF MAYEIGTH 0.0000
-3.5848 OF MAYELEVENTH 0.0000
-3.5848 OF MAYFIFTEENTH 0.0000
-3.5848 OF MAYFIFTH 0.0000
-3.5848 OF MAYFIRST 0.0000
-3.5848 OF MAYFOURTEENTH 0.0000
-3.5848 OF MAYFOURTH 0.0000
-3.5848 OF MAYNINETEENTH 0.0000
-3.5848 OF MAYNINTH 0.0000
-3.5848 OF MAYSECOND 0.0000
-3.5848 OF MAYSEVENTEENTH 0.0000
-3.5848 OF MAYSEVENTH 0.0000
-3.5848 OF MAYSIXTEENTH 0.0000
-3.5848 OF MAYSIXTH 0.0000
-3.5848 OF MAYTHIRD 0.0000
-3.5848 OF MAYTHIRTEENTH 0.0000
-3.5848 OF MAYTHIRTIETH 0.0000
-3.5848 OF MAYTHIRTY-FIRST 0.0000
-3.5848 OF MAYTWENTIETH 0.0000
-3.5848 OF MAYTWENTY-EIGTH 0.0000
-3.5848 OF MAYTWENTY-FIFTH 0.0000
-3.5848 OF MAYTWENTY-FIRST 0.0000
-3.5848 OF MAYTWENTY-FOURTH 0.0000
-3.5848 OF MAYTWENTY-NINTH 0.0000
-3.5848 OF MAYTWENTY-SECOND 0.0000
-3.5848 OF MAYTWENTY-SEVENTH 0.0000
-3.5848 OF MAYTWENTY-SIXTH 0.0000
-3.5848 OF MAYTWENTY-THIRD 0.0000
-1.4670 OF NOVEMBER 0.0000
-3.5848 OF NOVEMBEREIGHTEENTH 0.0000
-3.5848 OF NOVEMBEREIGTH 0.0000
-3.5848 OF NOVEMBERELEVENTH 0.0000
-3.5848 OF NOVEMBERFIFTEENTH 0.0000
-3.5848 OF NOVEMBERFIFTH 0.0000
-3.5848 OF NOVEMBERFIRST 0.0000
-3.5848 OF NOVEMBERFOURTEENTH 0.0000
-3.5848 OF NOVEMBERFOURTH 0.0000
-3.5848 OF NOVEMBERNINETEENTH 0.0000
-3.5848 OF NOVEMBERNINTH 0.0000
-3.5848 OF NOVEMBERSECOND 0.0000
-3.5848 OF NOVEMBERSEVENTEENTH 0.0000
-3.5848 OF NOVEMBERSEVENTH 0.0000
-3.5848 OF NOVEMBERSIXTEENTH 0.0000
-3.5848 OF NOVEMBERSIXTH 0.0000
-3.5848 OF NOVEMBERTHIRD 0.0000
-3.5848 OF NOVEMBERTHIRTEENTH 0.0000
-3.5848 OF NOVEMBERTHIRTIETH 0.0000
-3.5848 OF NOVEMBERTHIRTY-FIRST 0.0000
-3.5848 OF NOVEMBERTWENTIETH 0.0000
-3.5848 OF NOVEMBERTWENTY-EIGTH 0.0000
-3.5848 OF NOVEMBERTWENTY-FIFTH 0.0000
-3.5848 OF NOVEMBERTWENTY-FIRST 0.0000
-3.5848 OF NOVEMBERTWENTY-FOURTH 0.0000
-3.5848 OF NOVEMBERTWENTY-NINTH 0.0000
-3.5848 OF NOVEMBERTWENTY-SECOND 0.0000
-3.5848 OF NOVEMBERTWENTY-SEVENTH 0.0000
-3.5848 OF NOVEMBERTWENTY-SIXTH 0.0000
-3.5848 OF NOVEMBERTWENTY-THIRD 0.0000
-1.4670 OF OCTOBER 0.0000
-3.5848 OF OCTOBEREIGHTEENTH 0.0000
-3.5848 OF OCTOBEREIGTH 0.0000
-3.5848 OF OCTOBERELEVENTH 0.0000
-3.5848 OF OCTOBERFIFTEENTH 0.0000
-3.5848 OF OCTOBERFIFTH 0.0000
-3.5848 OF OCTOBERFIRST 0.0000
-3.5848 OF OCTOBERFOURTEENTH 0.0000
-3.5848 OF OCTOBERFOURTH 0.0000
-3.5848 OF OCTOBERNINETEENTH 0.0000
-3.5848 OF OCTOBERNINTH 0.0000
-3.5848 OF OCTOBERSECOND 0.0000
-3.5848 OF OCTOBERSEVENTEENTH 0.0000
-3.5848 OF OCTOBERSEVENTH 0.0000
-3.5848 OF OCTOBERSIXTEENTH 0.0000
-3.5848 OF OCTOBERSIXTH 0.0000
-3.5848 OF OCTOBERTHIRD 0.0000
-3.5848 OF OCTOBERTHIRTEENTH 0.0000
-3.5848 OF OCTOBERTHIRTIETH 0.0000
-3.5848 OF OCTOBERTHIRTY-FIRST 0.0000
-3.5848 OF OCTOBERTWENTIETH 0.0000
-3.5848 OF OCTOBERTWENTY-EIGTH 0.0000
-3.5848 OF OCTOBERTWENTY-FIFTH 0.0000
-3.5848 OF OCTOBERTWENTY-FIRST 0.0000
-3.5848 OF OCTOBERTWENTY-FOURTH 0.0000
-3.5848 OF OCTOBERTWENTY-NINTH 0.0000
-3.5848 OF OCTOBERTWENTY-SECOND 0.0000
-3.5848 OF OCTOBERTWENTY-SEVENTH 0.0000
-3.5848 OF OCTOBERTWENTY-SIXTH 0.0000
-3.5848 OF OCTOBERTWENTY-THIRD 0.0000
-1.4670 OF SEPTEMBER 0.0000
-3.5848 OF SEPTEMBEREIGHTEENTH 0.0000
-3.5848 OF SEPTEMBEREIGTH 0.0000
-3.5848 OF SEPTEMBERELEVENTH 0.0000
-3.5848 OF SEPTEMBERFIFTEENTH 0.0000
-3.5848 OF SEPTEMBERFIFTH 0.0000
-3.5848 OF SEPTEMBERFIRST 0.0000
-3.5848 OF SEPTEMBERFOURTEENTH 0.0000
-3.5848 OF SEPTEMBERFOURTH 0.0000
-3.5848 OF SEPTEMBERNINETEENTH 0.0000
-3.5848 OF SEPTEMBERNINTH 0.0000
-3.5848 OF SEPTEMBERSECOND 0.0000
-3.5848 OF SEPTEMBERSEVENTEENTH 0.0000
-3.5848 OF SEPTEMBERSEVENTH 0.0000
-3.5848 OF SEPTEMBERSIXTEENTH 0.0000
-3.5848 OF SEPTEMBERSIXTH 0.0000
-3.5848 OF SEPTEMBERTHIRD 0.0000
-3.5848 OF SEPTEMBERTHIRTEENTH 0.0000
-3.5848 OF SEPTEMBERTHIRTIETH 0.0000
-3.5848 OF SEPTEMBERTHIRTY-FIRST 0.0000
-3.5848 OF SEPTEMBERTWENTIETH 0.0000
-3.5848 OF SEPTEMBERTWENTY-EIGTH 0.0000
-3.5848 OF SEPTEMBERTWENTY-FIFTH 0.0000
-3.5848 OF SEPTEMBERTWENTY-FIRST 0.0000
-3.5848 OF SEPTEMBERTWENTY-FOURTH 0.0000
-3.5848 OF SEPTEMBERTWENTY-NINTH 0.0000
-3.5848 OF SEPTEMBERTWENTY-SECOND 0.0000
-3.5848 OF SEPTEMBERTWENTY-SEVENTH 0.0000
-3.5848 OF SEPTEMBERTWENTY-SIXTH 0.0000
-3.5848 OF SEPTEMBERTWENTY-THIRD 0.0000
-1.7634 OFAPRIL EIGHTEENTH -0.2145
-1.7634 OFAPRIL EIGTH -0.2145
-1.7634 OFAPRIL ELEVENTH -0.2145
-1.7634 OFAPRIL FIFTEENTH -0.2145
-1.7634 OFAPRIL FIFTH -0.2145
-1.7634 OFAPRIL FIRST -0.2529
-1.7634 OFAPRIL FOURTEENTH -0.2145
-1.7634 OFAPRIL FOURTH -0.2529
-1.7634 OFAPRIL NINETEENTH -0.2145
-1.7634 OFAPRIL NINTH -0.2145
-1.7634 OFAPRIL SECOND -0.2529
-1.7634 OFAPRIL SEVENTEENTH -0.2145
-1.7634 OFAPRIL SEVENTH -0.2145
-1.7634 OFAPRIL SIXTEENTH -0.2145
-1.7634 OFAPRIL SIXTH -0.2145
-1.7634 OFAPRIL THIRD -0.2529
-1.7634 OFAPRIL THIRTEENTH -0.2145
-1.7634 OFAPRIL THIRTIETH -0.2145
-1.7634 OFAPRIL THIRTY-FIRST -0.2145
-1.7634 OFAPRIL TWENTIETH -0.2145
-1.7634 OFAPRIL TWENTY-EIGTH -0.2145
-1.7634 OFAPRIL TWENTY-FIFTH -0.2145
-1.7634 OFAPRIL TWENTY-FIRST -0.2145
-1.7634 OFAPRIL TWENTY-FOURTH -0.2145
-1.7634 OFAPRIL TWENTY-NINTH -0.2145
-1.7634 OFAPRIL TWENTY-SECOND -0.2145
-1.7634 OFAPRIL TWENTY-SEVENTH -0.2145
-1.7634 OFAPRIL TWENTY-SIXTH -0.2145
-1.7634 OFAPRIL TWENTY-THIRD -0.2145
-1.7634 OFAUGUST EIGHTEENTH -0.2145
-1.7634 OFAUGUST EIGTH -0.2145
-1.7634 OFAUGUST ELEVENTH -0.2145
-1.7634 OFAUGUST FIFTEENTH -0.2145
-1.7634 OFAUGUST FIFTH -0.2145
-1.7634 OFAUGUST FIRST -0.2529
-1.7634 OFAUGUST FOURTEENTH -0.2145
-1.7634 OFAUGUST FOURTH -0.2529
-1.7634 OFAUGUST NINETEENTH -0.2145
-1.7634 OFAUGUST NINTH -0.2145
-1.7634 OFAUGUST SECOND -0.2529
-1.7634 OFAUGUST SEVENTEENTH -0.2145
-1.7634 OFAUGUST SEVENTH -0.2145
-1.7634 OFAUGUST SIXTEENTH -0.2145
-1.7634 OFAUGUST SIXTH -0.2145
-1.7634 OFAUGUST THIRD -0.2529
-1.7634 OFAUGUST THIRTEENTH -0.2145
-1.7634 OFAUGUST THIRTIETH -0.2145
-1.7634 OFAUGUST THIRTY-FIRST -0.2145
-1.7634 OFAUGUST TWENTIETH -0.2145
-1.7634 OFAUGUST TWENTY-EIGTH -0.2145
-1.7634 OFAUGUST TWENTY-FIFTH -0.2145
-1.7634 OFAUGUST TWENTY-FIRST -0.2145
-1.7634 OFAUGUST TWENTY-FOURTH -0.2145
-1.7634 OFAUGUST TWENTY-NINTH -0.2145
-1.7634 OFAUGUST TWENTY-SECOND -0.2145
-1.7634 OFAUGUST TWENTY-SEVENTH -0.2145
-1.7634 OFAUGUST TWENTY-SIXTH -0.2145
-1.7634 OFAUGUST TWENTY-THIRD -0.2145
-1.7634 OFDECEMBER EIGHTEENTH -0.2145
-1.7634 OFDECEMBER EIGTH -0.2145
-1.7634 OFDECEMBER ELEVENTH -0.2145
-1.7634 OFDECEMBER FIFTEENTH -0.2145
-1.7634 OFDECEMBER FIFTH -0.2145
-1.7634 OFDECEMBER FIRST -0.2529
-1.7634 OFDECEMBER FOURTEENTH -0.2145
-1.7634 OFDECEMBER FOURTH -0.2529
-1.7634 OFDECEMBER NINETEENTH -0.2145
-1.7634 OFDECEMBER NINTH -0.2145
-1.7634 OFDECEMBER SECOND -0.2529
-1.7634 OFDECEMBER SEVENTEENTH -0.2145
-1.7634 OFDECEMBER SEVENTH -0.2145
-1.7634 OFDECEMBER SIXTEENTH -0.2145
-1.7634 OFDECEMBER SIXTH -0.2145
-1.7634 OFDECEMBER THIRD -0.2529
-1.7634 OFDECEMBER THIRTEENTH -0.2145
-1.7634 OFDECEMBER THIRTIETH -0.2145
-1.7634 OFDECEMBER THIRTY-FIRST -0.2145
-1.7634 OFDECEMBER TWENTIETH -0.2145
-1.7634 OFDECEMBER TWENTY-EIGTH -0.2145
-1.7634 OFDECEMBER TWENTY-FIFTH -0.2145
-1.7634 OFDECEMBER TWENTY-FIRST -0.2145
-1.7634 OFDECEMBER TWENTY-FOURTH -0.2145
-1.7634 OFDECEMBER TWENTY-NINTH -0.2145
-1.7634 OFDECEMBER TWENTY-SECOND -0.2145
-1.7634 OFDECEMBER TWENTY-SEVENTH -0.2145
-1.7634 OFDECEMBER TWENTY-SIXTH -0.2145
-1.7634 OFDECEMBER TWENTY-THIRD -0.2145
-1.7634 OFFEBRUARY EIGHTEENTH -0.2145
-1.7634 OFFEBRUARY EIGTH -0.2145
-1.7634 OFFEBRUARY ELEVENTH -0.2145
-1.7634 OFFEBRUARY FIFTEENTH -0.2145
-1.7634 OFFEBRUARY FIFTH -0.2145
-1.7634 OFFEBRUARY FIRST -0.2529
-1.7634 OFFEBRUARY FOURTEENTH -0.2145
-1.7634 OFFEBRUARY FOURTH -0.2529
-1.7634 OFFEBRUARY NINETEENTH -0.2145
-1.7634 OFFEBRUARY NINTH -0.2145
-1.7634 OFFEBRUARY SECOND -0.2529
-1.7634 OFFEBRUARY SEVENTEENTH -0.2145
-1.7634 OFFEBRUARY SEVENTH -0.2145
-1.7634 OFFEBRUARY SIXTEENTH -0.2145
-1.7634 OFFEBRUARY SIXTH -0.2145
-1.7634 OFFEBRUARY THIRD -0.2529
-1.7634 OFFEBRUARY THIRTEENTH -0.2145
-1.7634 OFFEBRUARY THIRTIETH -0.2145
-1.7634 OFFEBRUARY THIRTY-FIRST -0.2145
-1.7634 OFFEBRUARY TWENTIETH -0.2145
-1.7634 OFFEBRUARY TWENTY-EIGTH -0.2145
-1.7634 OFFEBRUARY TWENTY-FIFTH -0.2145
-1.7634 OFFEBRUARY TWENTY-FIRST -0.2145
-1.7634 OFFEBRUARY TWENTY-FOURTH -0.2145
-1.7634 OFFEBRUARY TWENTY-NINTH -0.2145
-1.7634 OFFEBRUARY TWENTY-SECOND -0.2145
-1.7634 OFFEBRUARY TWENTY-SEVENTH -0.2145
-1.7634 OFFEBRUARY TWENTY-SIXTH -0.2145
-1.7634 OFFEBRUARY TWENTY-THIRD -0.2145
-1.7622 OFJANUARY EIGHTEENTH -0.2145
-1.7622 OFJANUARY EIGTH -0.2145
-1.7622 OFJANUARY ELEVENTH -0.2145
-1.7622 OFJANUARY FIFTEENTH -0.2145
-1.7622 OFJANUARY FIFTH -0.2145
-1.8000 OFJANUARY FIRST -0.2529
-1.7622 OFJANUARY FOURTEENTH -0.2145
-1.7622 OFJANUARY FOURTH -0.2529
-1.7622 OFJANUARY NINETEENTH -0.2145
-1.7622 OFJANUARY NINTH -0.2145
-1.7622 OFJANUARY SECOND -0.2529
-1.7622 OFJANUARY SEVENTEENTH -0.2145
-1.7622 OFJANUARY SEVENTH -0.2145
-1.7622 OFJANUARY SIXTEENTH -0.2145
-1.7622 OFJANUARY SIXTH -0.2145
-1.7622 OFJANUARY THIRD -0.2529
-1.7622 OFJANUARY THIRTEENTH -0.2145
-1.7622 OFJANUARY THIRTIETH -0.2145
-1.7622 OFJANUARY THIRTY-FIRST -0.2145
-1.7622 OFJANUARY TWENTIETH -0.2145
-1.7622 OFJANUARY TWENTY-EIGTH -0.2145
-1.7622 OFJANUARY TWENTY-FIFTH -0.2145
-1.7622 OFJANUARY TWENTY-FIRST -0.2145
-1.7622 OFJANUARY TWENTY-FOURTH -0.2145
-1.7622 OFJANUARY TWENTY-NINTH -0.2145
-1.7622 OFJANUARY TWENTY-SECOND -0.2145
-1.7622 OFJANUARY TWENTY-SEVENTH -0.2145
-1.7622 OFJANUARY TWENTY-SIXTH -0.2145
-1.7622 OFJANUARY TWENTY-THIRD -0.2145
-1.7634 OFJULY EIGHTEENTH -0.2145
-1.7634 OFJULY EIGTH -0.2145
-1.7634 OFJULY ELEVENTH -0.2145
-1.7634 OFJULY FIFTEENTH -0.2145
-1.7634 OFJULY FIFTH -0.2145
-1.7634 OFJULY FIRST -0.2529
-1.7634 OFJULY FOURTEENTH -0.2145
-1.7634 OFJULY FOURTH -0.2529
-1.7634 OFJULY NINETEENTH -0.2145
-1.7634 OFJULY NINTH -0.2145
-1.7634 OFJULY SECOND -0.2529
-1.7634 OFJULY SEVENTEENTH -0.2145
-1.7634 OFJULY SEVENTH -0.2145
-1.7634 OFJULY SIXTEENTH -0.2145
-1.7634 OFJULY SIXTH -0.2145
-1.7634 OFJULY THIRD -0.2529
-1.7634 OFJULY THIRTEENTH -0.2145
-1.7634 OFJULY THIRTIETH -0.2145
-1.7634 OFJULY THIRTY-FIRST -0.2145
-1.7634 OFJULY TWENTIETH -0.2145
-1.7634 OFJULY TWENTY-EIGTH -0.2145
-1.7634 OFJULY TWENTY-FIFTH -0.2145
-1.7634 OFJULY TWENTY-FIRST -0.2145
-1.7634 OFJULY TWENTY-FOURTH -0.2145
-1.7634 OFJULY TWENTY-NINTH -0.2145
-1.7634 OFJULY TWENTY-SECOND -0.2145
-1.7634 OFJULY TWENTY-SEVENTH -0.2145
-1.7634 OFJULY TWENTY-SIXTH -0.2145
-1.7634 OFJULY TWENTY-THIRD -0.2145
-1.7634 OFJUNE EIGHTEENTH -0.2145
-1.7634 OFJUNE EIGTH -0.2145
-1.7634 OFJUNE ELEVENTH -0.2145
-1.7634 OFJUNE FIFTEENTH -0.2145
-1.7634 OFJUNE FIFTH -0.2145
-1.7634 OFJUNE FIRST -0.2529
-1.7634 OFJUNE FOURTEENTH -0.2145
-1.7634 OFJUNE FOURTH -0.2529
-1.7634 OFJUNE NINETEENTH -0.2145
-1.7634 OFJUNE NINTH -0.2145
-1.7634 OFJUNE SECOND -0.2529
-1.7634 OFJUNE SEVENTEENTH -0.2145
-1.7634 OFJUNE SEVENTH -0.2145
-1.7634 OFJUNE SIXTEENTH -0.2145
-1.7634 OFJUNE SIXTH -0.2145
-1.7634 OFJUNE THIRD -0.2529
-1.7634 OFJUNE THIRTEENTH -0.2145
-1.7634 OFJUNE THIRTIETH -0.2145
-1.7634 OFJUNE THIRTY-FIRST -0.2145
-1.7634 OFJUNE TWENTIETH -0.2145
-1.7634 OFJUNE TWENTY-EIGTH -0.2145
-1.7634 OFJUNE TWENTY-FIFTH -0.2145
-1.7634 OFJUNE TWENTY-FIRST -0.2145
-1.7634 OFJUNE TWENTY-FOURTH -0.2145
-1.7634 OFJUNE TWENTY-NINTH -0.2145
-1.7634 OFJUNE TWENTY-SECOND -0.2145
-1.7634 OFJUNE TWENTY-SEVENTH -0.2145
-1.7634 OFJUNE TWENTY-SIXTH -0.2145
-1.7634 OFJUNE TWENTY-THIRD -0.2145
-1.7634 OFMARCH EIGHTEENTH -0.2145
-1.7634 OFMARCH EIGTH -0.2145
-1.7634 OFMARCH ELEVENTH -0.2145
-1.7634 OFMARCH FIFTEENTH -0.2145
-1.7634 OFMARCH FIFTH -0.2145
-1.7634 OFMARCH FIRST -0.2529
-1.7634 OFMARCH FOURTEENTH -0.2145
-1.7634 OFMARCH FOURTH -0.2529
-1.7634 OFMARCH NINETEENTH -0.2145
-1.7634 OFMARCH NINTH -0.2145
-1.7634 OFMARCH SECOND -0.2529
-1.7634 OFMARCH SEVENTEENTH -0.2145
-1.7634 OFMARCH SEVENTH -0.2145
-1.7634 OFMARCH SIXTEENTH -0.2145
-1.7634 OFMARCH SIXTH -0.2145
-1.7634 OFMARCH THIRD -0.2529
-1.7634 OFMARCH THIRTEENTH -0.2145
-1.7634 OFMARCH THIRTIETH -0.2145
-1.7634 OFMARCH THIRTY-FIRST -0.2145
-1.7634 OFMARCH TWENTIETH -0.2145
-1.7634 OFMARCH TWENTY-EIGTH -0.2145
-1.7634 OFMARCH TWENTY-FIFTH -0.2145
-1.7634 OFMARCH TWENTY-FIRST -0.2145
-1.7634 OFMARCH TWENTY-FOURTH -0.2145
-1.7634 OFMARCH TWENTY-NINTH -0.2145
-1.7634 OFMARCH TWENTY-SECOND -0.2145
-1.7634 OFMARCH TWENTY-SEVENTH -0.2145
-1.7634 OFMARCH TWENTY-SIXTH -0.2145
-1.7634 OFMARCH TWENTY-THIRD -0.2145
-1.7634 OFMAY EIGHTEENTH -0.2145
-1.7634 OFMAY EIGTH -0.2145
-1.7634 OFMAY ELEVENTH -0.2145
-1.7634 OFMAY FIFTEENTH -0.2145
-1.7634 OFMAY FIFTH -0.2145
-1.7634 OFMAY FIRST -0.2529
-1.7634 OFMAY FOURTEENTH -0.2145
-1.7634 OFMAY FOURTH -0.2529
-1.7634 OFMAY NINETEENTH -0.2145
-1.7634 OFMAY NINTH -0.2145
-1.7634 OFMAY SECOND -0.2529
-1.7634 OFMAY SEVENTEENTH -0.2145
-1.7634 OFMAY SEVENTH -0.2145
-1.7634 OFMAY SIXTEENTH -0.2145
-1.7634 OFMAY SIXTH -0.2145
-1.7634 OFMAY THIRD -0.2529
-1.7634 OFMAY THIRTEENTH -0.2145
-1.7634 OFMAY THIRTIETH -0.2145
-1.7634 OFMAY THIRTY-FIRST -0.2145
-1.7634 OFMAY TWENTIETH -0.2145
-1.7634 OFMAY TWENTY-EIGTH -0.2145
-1.7634 OFMAY TWENTY-FIFTH -0.2145
-1.7634 OFMAY TWENTY-FIRST -0.2145
-1.7634 OFMAY TWENTY-FOURTH -0.2145
-1.7634 OFMAY TWENTY-NINTH -0.2145
-1.7634 OFMAY TWENTY-SECOND -0.2145
-1.7634 OFMAY TWENTY-SEVENTH -0.2145
-1.7634 OFMAY TWENTY-SIXTH -0.2145
-1.7634 OFMAY TWENTY-THIRD -0.2145
-1.7634 OFNOVEMBER EIGHTEENTH -0.2145
-1.7634 OFNOVEMBER EIGTH -0.2145
-1.7634 OFNOVEMBER ELEVENTH -0.2145
-1.7634 OFNOVEMBER FIFTEENTH -0.2145
-1.7634 OFNOVEMBER FIFTH -0.2145
-1.7634 OFNOVEMBER FIRST -0.2529
-1.7634 OFNOVEMBER FOURTEENTH -0.2145
-1.7634 OFNOVEMBER FOURTH -0.2529
-1.7634 OFNOVEMBER NINETEENTH -0.2145
-1.7634 OFNOVEMBER NINTH -0.2145
-1.7634 OFNOVEMBER SECOND -0.2529
-1.7634 OFNOVEMBER SEVENTEENTH -0.2145
-1.7634 OFNOVEMBER SEVENTH -0.2145
-1.7634 OFNOVEMBER SIXTEENTH -0.2145
-1.7634 OFNOVEMBER SIXTH -0.2145
-1.7634 OFNOVEMBER THIRD -0.2529
-1.7634 OFNOVEMBER THIRTEENTH -0.2145
-1.7634 OFNOVEMBER THIRTIETH -0.2145
-1.7634 OFNOVEMBER THIRTY-FIRST -0.2145
-1.7634 OFNOVEMBER TWENTIETH -0.2145
-1.7634 OFNOVEMBER TWENTY-EIGTH -0.2145
-1.7634 OFNOVEMBER TWENTY-FIFTH -0.2145
-1.7634 OFNOVEMBER TWENTY-FIRST -0.2145
-1.7634 OFNOVEMBER TWENTY-FOURTH -0.2145
-1.7634 OFNOVEMBER TWENTY-NINTH -0.2145
-1.7634 OFNOVEMBER TWENTY-SECOND -0.2145
-1.7634 OFNOVEMBER TWENTY-SEVENTH -0.2145
-1.7634 OFNOVEMBER TWENTY-SIXTH -0.2145
-1.7634 OFNOVEMBER TWENTY-THIRD -0.2145
-1.7634 OFOCTOBER EIGHTEENTH -0.2145
-1.7634 OFOCTOBER EIGTH -0.2145
-1.7634 OFOCTOBER ELEVENTH -0.2145
-1.7634 OFOCTOBER FIFTEENTH -0.2145
-1.7634 OFOCTOBER FIFTH -0.2145
-1.7634 OFOCTOBER FIRST -0.2529
-1.7634 OFOCTOBER FOURTEENTH -0.2145
-1.7634 OFOCTOBER FOURTH -0.2529
-1.7634 OFOCTOBER NINETEENTH -0.2145
-1.7634 OFOCTOBER NINTH -0.2145
-1.7634 OFOCTOBER SECOND -0.2529
-1.7634 OFOCTOBER SEVENTEENTH -0.2145
-1.7634 OFOCTOBER SEVENTH -0.2145
-1.7634 OFOCTOBER SIXTEENTH -0.2145
-1.7634 OFOCTOBER SIXTH -0.2145
-1.7634 OFOCTOBER THIRD -0.2529
-1.7634 OFOCTOBER THIRTEENTH -0.2145
-1.7634 OFOCTOBER THIRTIETH -0.2145
-1.7634 OFOCTOBER THIRTY-FIRST -0.2145
-1.7634 OFOCTOBER TWENTIETH -0.2145
-1.7634 OFOCTOBER TWENTY-EIGTH -0.2145
-1.7634 OFOCTOBER TWENTY-FIFTH -0.2145
-1.7634 OFOCTOBER TWENTY-FIRST -0.2145
-1.7634 OFOCTOBER TWENTY-FOURTH -0.2145
-1.7634 OFOCTOBER TWENTY-NINTH -0.2145
-1.7634 OFOCTOBER TWENTY-SECOND -0.2145
-1.7634 OFOCTOBER TWENTY-SEVENTH -0.2145
-1.7634 OFOCTOBER TWENTY-SIXTH -0.2145
-1.7634 OFOCTOBER TWENTY-THIRD -0.2145
-1.7634 OFSEPTEMBER EIGHTEENTH -0.2145
-1.7634 OFSEPTEMBER EIGTH -0.2145
-1.7634 OFSEPTEMBER ELEVENTH -0.2145
-1.7634 OFSEPTEMBER FIFTEENTH -0.2145
-1.7634 OFSEPTEMBER FIFTH -0.2145
-1.7634 OFSEPTEMBER FIRST -0.2529
-1.7634 OFSEPTEMBER FOURTEENTH -0.2145
-1.7634 OFSEPTEMBER FOURTH -0.2529
-1.7634 OFSEPTEMBER NINETEENTH -0.2145
-1.7634 OFSEPTEMBER NINTH -0.2145
-1.7634 OFSEPTEMBER SECOND -0.2529
-1.7634 OFSEPTEMBER SEVENTEENTH -0.2145
-1.7634 OFSEPTEMBER SEVENTH -0.2145
-1.7634 OFSEPTEMBER SIXTEENTH -0.2145
-1.7634 OFSEPTEMBER SIXTH -0.2145
-1.7634 OFSEPTEMBER THIRD -0.2529
-1.7634 OFSEPTEMBER THIRTEENTH -0.2145
-1.7634 OFSEPTEMBER THIRTIETH -0.2145
-1.7634 OFSEPTEMBER THIRTY-FIRST -0.2145
-1.7634 OFSEPTEMBER TWENTIETH -0.2145
-1.7634 OFSEPTEMBER TWENTY-EIGTH -0.2145
-1.7634 OFSEPTEMBER TWENTY-FIFTH -0.2145
-1.7634 OFSEPTEMBER TWENTY-FIRST -0.2145
-1.7634 OFSEPTEMBER TWENTY-FOURTH -0.2145
-1.7634 OFSEPTEMBER TWENTY-NINTH -0.2145
-1.7634 OFSEPTEMBER TWENTY-SECOND -0.2145
-1.7634 OFSEPTEMBER TWENTY-SEVENTH -0.2145
-1.7634 OFSEPTEMBER TWENTY-SIXTH -0.2145
-1.7634 OFSEPTEMBER TWENTY-THIRD -0.2145
-1.0607 SATURDAY </s> -0.3010
-1.6628 SATURDAY FORAI 0.0000
-1.6628 SATURDAY FORBENJAMIN 0.0000
-1.6628 SATURDAY FORERIK 0.0000
-0.4586 SATURDAY OF -0.0723
-1.2011 SECOND </s> -0.3010
-1.3772 SECOND FOR -0.1249
-1.8543 SECOND FORAI 0.0000
-1.8543 SECOND FORBENJAMIN 0.0000
-1.8543 SECOND FORERIK 0.0000
-1.8543 SECOND FRIDAY -0.1154
-1.8543 SECOND MONDAY -0.1154
-0.9940 SECOND OF -0.0723
-1.8543 SECOND SATURDAY -0.1154
-1.8543 SECOND SUNDAY -0.1154
-1.8543 SECOND THURSDAY -0.1154
-1.8543 SECOND TUESDAY -0.1154
-1.8543 SECOND WEDNESDAY -0.1154
-0.8129 SECOND WEEK -0.1082
-0.4721 SEPTEMBER </s> -0.3010
-2.2507 SEPTEMBER EIGHTEENTH -0.2145
-2.2507 SEPTEMBER EIGTH -0.2145
-2.2507 SEPTEMBER ELEVENTH -0.2145
-2.2507 SEPTEMBER FIFTEENTH -0.2145
-2.2507 SEPTEMBER FIFTH -0.2145
-2.2507 SEPTEMBER FIRST -0.2529
-2.2507 SEPTEMBER FOURTEENTH -0.2145
-2.2507 SEPTEMBER FOURTH -0.2529
-2.2507 SEPTEMBER NINETEENTH -0.2145
-2.2507 SEPTEMBER NINTH -0.2145
-2.2507 SEPTEMBER SECOND -0.2529
-2.2507 SEPTEMBER SEVENTEENTH -0.2145
-2.2507 SEPTEMBER SEVENTH -0.2145
-2.2507 SEPTEMBER SIXTEENTH -0.2145
-2.2507 SEPTEMBER SIXTH -0.2145
-2.2507 SEPTEMBER THIRD -0.2529
-2.2507 SEPTEMBER THIRTEENTH -0.2145
-2.2507 SEPTEMBER THIRTIETH -0.2145
-2.2507 SEPTEMBER THIRTY-FIRST -0.2145
-2.2507 SEPTEMBER TWENTIETH -0.2145
-2.2507 SEPTEMBER TWENTY-EIGTH -0.2145
-2.2507 SEPTEMBER TWENTY-FIFTH -0.2145
-2.2507 SEPTEMBER TWENTY-FIRST -0.2145
-2.2507 SEPTEMBER TWENTY-FOURTH -0.2145
-2.2507 SEPTEMBER TWENTY-NINTH -0.2145
-2.2507 SEPTEMBER TWENTY-SECOND -0.2145
-2.2507 SEPTEMBER TWENTY-SEVENTH -0.2145
-2.2507 SEPTEMBER TWENTY-SIXTH -0.2145
-2.2507 SEPTEMBER TWENTY-THIRD -0.2145
-0.3010 SEPTEMBEREIGHTEENTH FOR -0.1249
-0.3010 SEPTEMBEREIGTH FOR -0.1249
-0.3010 SEPTEMBERELEVENTH FOR -0.1249
-0.3010 SEPTEMBERFIFTEENTH FOR -0.1249
-0.3010 SEPTEMBERFIFTH FOR -0.1249
-0.3010 SEPTEMBERFIRST FOR -0.1249
-0.3010 SEPTEMBERFOURTEENTH FOR -0.1249
-0.3010 SEPTEMBERFOURTH FOR -0.1249
-0.3010 SEPTEMBERNINETEENTH FOR -0.1249
-0.3010 SEPTEMBERNINTH FOR -0.1249
-0.3010 SEPTEMBERSECOND FOR -0.1249
-0.3010 SEPTEMBERSEVENTEENTH FOR -0.1249
-0.3010 SEPTEMBERSEVENTH FOR -0.1249
-0.3010 SEPTEMBERSIXTEENTH FOR -0.1249
-0.3010 SEPTEMBERSIXTH FOR -0.1249
-0.3010 SEPTEMBERTHIRD FOR -0.1249
-0.3010 SEPTEMBERTHIRTEENTH FOR -0.1249
-0.3010 SEPTEMBERTHIRTIETH FOR -0.1249
-0.3010 SEPTEMBERTHIRTY-FIRST FOR -0.1249
-0.3010 SEPTEMBERTWENTIETH FOR -0.1249
-0.3010 SEPTEMBERTWENTY-EIGTH FOR -0.1249
-0.3010 SEPTEMBERTWENTY-FIFTH FOR -0.1249
-0.3010 SEPTEMBERTWENTY-FIRST FOR -0.1249
-0.3010 SEPTEMBERTWENTY-FOURTH FOR -0.1249
-0.3010 SEPTEMBERTWENTY-NINTH FOR -0.1249
-0.3010 SEPTEMBERTWENTY-SECOND FOR -0.1249
-0.3010 SEPTEMBERTWENTY-SEVENTH FOR -0.1249
-0.3010 SEPTEMBERTWENTY-SIXTH FOR -0.1249
-0.3010 SEPTEMBERTWENTY-THIRD FOR -0.1249
-0.9648 SEVENTEENTH </s> -0.3010
-1.1409 SEVENTEENTH FOR -0.1249
-1.6180 SEVENTEENTH FORAI 0.0000
-1.6180 SEVENTEENTH FORBENJAMIN 0.0000
-1.6180 SEVENTEENTH FORERIK 0.0000
-0.7577 SEVENTEENTH OF -0.0723
-1.1409 SEVENTEENTH WEEK -0.1082
-0.9648 SEVENTH </s> -0.3010
-1.1409 SEVENTH FOR -0.1249
-1.6180 SEVENTH FORAI 0.0000
-1.6180 SEVENTH FORBENJAMIN 0.0000
-1.6180 SEVENTH FORERIK 0.0000
-0.7577 SEVENTH OF -0.0723
-1.1409 SEVENTH WEEK -0.1082
-1.1242 SHOW AI'S -0.0078
-1.1242 SHOW BENJAMIN'S -0.0078
-1.1242 SHOW CALENDAR -0.2219
-2.4616 SHOW EIGHTEENTH -0.1778
-2.4616 SHOW EIGTH -0.1778
-2.4616 SHOW ELEVENTH -0.1778
-1.1242 SHOW ERIK'S -0.0078
-2.4616 SHOW FIFTEENTH -0.1778
-2.4616 SHOW FIFTH -0.1778
-2.0223 SHOW FIRST -0.1730
-2.4616 SHOW FOURTEENTH -0.1778
-2.0223 SHOW FOURTH -0.1730
-2.4616 SHOW NINETEENTH -0.1778
-2.4616 SHOW NINTH -0.1778
-2.0223 SHOW SECOND -0.1730
-2.4616 SHOW SEVENTEENTH -0.1778
-2.4616 SHOW SEVENTH -0.1778
-2.4616 SHOW SIXTEENTH -0.1778
-2.4616 SHOW SIXTH -0.1778
-2.0223 SHOW THIRD -0.1730
-2.4616 SHOW THIRTEENTH -0.1778
-2.4616 SHOW THIRTIETH -0.1778
-2.4616 SHOW THIRTY-FIRST -0.1778
-2.4616 SHOW TWENTIETH -0.1778
-2.4616 SHOW TWENTY-EIGTH -0.1778
-2.4616 SHOW TWENTY-FIFTH -0.1778
-2.4616 SHOW TWENTY-FIRST -0.1778
-2.4616 SHOW TWENTY-FOURTH -0.1778
-2.4616 SHOW TWENTY-NINTH -0.1778
-2.4616 SHOW TWENTY-SECOND -0.1778
-2.4616 SHOW TWENTY-SEVENTH -0.1778
-2.4616 SHOW TWENTY-SIXTH -0.1778
-2.4616 SHOW TWENTY-THIRD -0.1778
-1.1242 SHOW WEEK -0.1082
-0.3010 SHOWWEEK OF -0.0723
-0.9648 SIXTEENTH </s> -0.3010
-1.1409 SIXTEENTH FOR -0.1249
-1.6180 SIXTEENTH FORAI 0.0000
-1.6180 SIXTEENTH FORBENJAMIN 0.0000
-1.6180 SIXTEENTH FORERIK 0.0000
-0.7577 SIXTEENTH OF -0.0723
-1.1409 SIXTEENTH WEEK -0.1082
-0.9648 SIXTH </s> -0.3010
-1.1409 SIXTH FOR -0.1249
-1.6180 SIXTH FORAI 0.0000
-1.6180 SIXTH FORBENJAMIN 0.0000
-1.6180 SIXTH FORERIK 0.0000
-0.7577 SIXTH OF -0.0723
-1.1409 SIXTH WEEK -0.1082
-1.0607 SUNDAY </s> -0.3010
-1.6628 SUNDAY FORAI 0.0000
-1.6628 SUNDAY FORBENJAMIN 0.0000
-1.6628 SUNDAY FORERIK 0.0000
-0.4586 SUNDAY OF -0.0723
-1.2011 THIRD </s> -0.3010
-1.3772 THIRD FOR -0.1249
-1.8543 THIRD FORAI 0.0000
-1.8543 THIRD FORBENJAMIN 0.0000
-1.8543 THIRD FORERIK 0.0000
-1.8543 THIRD FRIDAY -0.1154
-1.8543 THIRD MONDAY -0.1154
-0.9940 THIRD OF -0.0723
-1.8543 THIRD SATURDAY -0.1154
-1.8543 THIRD SUNDAY -0.1154
-1.8543 THIRD THURSDAY -0.1154
-1.8543 THIRD TUESDAY -0.1154
-1.8543 THIRD WEDNESDAY -0.1154
-0.8129 THIRD WEEK -0.1082
-0.9648 THIRTEENTH </s> -0.3010
-1.1409 THIRTEENTH FOR -0.1249
-1.6180 THIRTEENTH FORAI 0.0000
-1.6180 THIRTEENTH FORBENJAMIN 0.0000
-1.6180 THIRTEENTH FORERIK 0.0000
-0.7577 THIRTEENTH OF -0.0723
-1.1409 THIRTEENTH WEEK -0.1082
-0.9648 THIRTIETH </s> -0.3010
-1.1409 THIRTIETH FOR -0.1249
-1.6180 THIRTIETH FORAI 0.0000
-1.6180 THIRTIETH FORBENJAMIN 0.0000
-1.6180 THIRTIETH FORERIK 0.0000
-0.7577 THIRTIETH OF -0.0723
-1.1409 THIRTIETH WEEK -0.1082
-0.9648 THIRTY-FIRST </s> -0.3010
-1.1409 THIRTY-FIRST FOR -0.1249
-1.6180 THIRTY-FIRST FORAI 0.0000
-1.6180 THIRTY-FIRST FORBENJAMIN 0.0000
-1.6180 THIRTY-FIRST FORERIK 0.0000
-0.7577 THIRTY-FIRST OF -0.0723
-1.1409 THIRTY-FIRST WEEK -0.1082
-1.0607 THURSDAY </s> -0.3010
-1.6628 THURSDAY FORAI 0.0000
-1.6628 THURSDAY FORBENJAMIN 0.0000
-1.6628 THURSDAY FORERIK 0.0000
-0.4586 THURSDAY OF -0.0723
-1.1242 TO AI'S -0.0078
-1.1242 TO BENJAMIN'S -0.0078
-1.1242 TO CALENDAR -0.2218
-2.4616 TO EIGHTEENTH -0.1778
-2.4616 TO EIGTH -0.1778
-2.4616 TO ELEVENTH -0.1778
-1.1242 TO ERIK'S -0.0078
-2.4616 TO FIFTEENTH -0.1778
-2.4616 TO FIFTH -0.1778
-2.0223 TO FIRST -0.1730
-2.4616 TO FOURTEENTH -0.1778
-2.0223 TO FOURTH -0.1730
-2.4616 TO NINETEENTH -0.1778
-2.4616 TO NINTH -0.1778
-2.0223 TO SECOND -0.1730
-2.4616 TO SEVENTEENTH -0.1778
-2.4616 TO SEVENTH -0.1778
-2.4616 TO SIXTEENTH -0.1778
-2.4616 TO SIXTH -0.1778
-2.0223 TO THIRD -0.1730
-2.4616 TO THIRTEENTH -0.1778
-2.4616 TO THIRTIETH -0.1778
-2.4616 TO THIRTY-FIRST -0.1778
-2.4616 TO TWENTIETH -0.1778
-2.4616 TO TWENTY-EIGTH -0.1778
-2.4616 TO TWENTY-FIFTH -0.1778
-2.4616 TO TWENTY-FIRST -0.1778
-2.4616 TO TWENTY-FOURTH -0.1778
-2.4616 TO TWENTY-NINTH -0.1778
-2.4616 TO TWENTY-SECOND -0.1778
-2.4616 TO TWENTY-SEVENTH -0.1778
-2.4616 TO TWENTY-SIXTH -0.1778
-2.4616 TO TWENTY-THIRD -0.1778
-1.1242 TO WEEK -0.1082
-0.3010 TOWEEK OF -0.0723
-1.0607 TUESDAY </s> -0.3010
-1.6628 TUESDAY FORAI 0.0000
-1.6628 TUESDAY FORBENJAMIN 0.0000
-1.6628 TUESDAY FORERIK 0.0000
-0.4586 TUESDAY OF -0.0723
-0.9648 TWENTIETH </s> -0.3010
-1.1409 TWENTIETH FOR -0.1249
-1.6180 TWENTIETH FORAI 0.0000
-1.6180 TWENTIETH FORBENJAMIN 0.0000
-1.6180 TWENTIETH FORERIK 0.0000
-0.7577 TWENTIETH OF -0.0723
-1.1409 TWENTIETH WEEK -0.1082
-0.9648 TWENTY-EIGTH </s> -0.3010
-1.1409 TWENTY-EIGTH FOR -0.1249
-1.6180 TWENTY-EIGTH FORAI 0.0000
-1.6180 TWENTY-EIGTH FORBENJAMIN 0.0000
-1.6180 TWENTY-EIGTH FORERIK 0.0000
-0.7577 TWENTY-EIGTH OF -0.0723
-1.1409 TWENTY-EIGTH WEEK -0.1082
-0.9648 TWENTY-FIFTH </s> -0.3010
-1.1409 TWENTY-FIFTH FOR -0.1249
-1.6180 TWENTY-FIFTH FORAI 0.0000
-1.6180 TWENTY-FIFTH FORBENJAMIN 0.0000
-1.6180 TWENTY-FIFTH FORERIK 0.0000
-0.7577 TWENTY-FIFTH OF -0.0723
-1.1409 TWENTY-FIFTH WEEK -0.1082
-0.9648 TWENTY-FIRST </s> -0.3010
-1.1409 TWENTY-FIRST FOR -0.1249
-1.6180 TWENTY-FIRST FORAI 0.0000
-1.6180 TWENTY-FIRST FORBENJAMIN 0.0000
-1.6180 TWENTY-FIRST FORERIK 0.0000
-0.7577 TWENTY-FIRST OF -0.0723
-1.1409 TWENTY-FIRST WEEK -0.1082
-0.9648 TWENTY-FOURTH </s> -0.3010
-1.1409 TWENTY-FOURTH FOR -0.1249
-1.6180 TWENTY-FOURTH FORAI 0.0000
-1.6180 TWENTY-FOURTH FORBENJAMIN 0.0000
-1.6180 TWENTY-FOURTH FORERIK 0.0000
-0.7577 TWENTY-FOURTH OF -0.0723
-1.1409 TWENTY-FOURTH WEEK -0.1082
-0.9648 TWENTY-NINTH </s> -0.3010
-1.1409 TWENTY-NINTH FOR -0.1249
-1.6180 TWENTY-NINTH FORAI 0.0000
-1.6180 TWENTY-NINTH FORBENJAMIN 0.0000
-1.6180 TWENTY-NINTH FORERIK 0.0000
-0.7577 TWENTY-NINTH OF -0.0723
-1.1409 TWENTY-NINTH WEEK -0.1082
-0.9648 TWENTY-SECOND </s> -0.3010
-1.1409 TWENTY-SECOND FOR -0.1249
-1.6180 TWENTY-SECOND FORAI 0.0000
-1.6180 TWENTY-SECOND FORBENJAMIN 0.0000
-1.6180 TWENTY-SECOND FORERIK 0.0000
-0.7577 TWENTY-SECOND OF -0.0723
-1.1409 TWENTY-SECOND WEEK -0.1082
-0.9648 TWENTY-SEVENTH </s> -0.3010
-1.1409 TWENTY-SEVENTH FOR -0.1249
-1.6180 TWENTY-SEVENTH FORAI 0.0000
-1.6180 TWENTY-SEVENTH FORBENJAMIN 0.0000
-1.6180 TWENTY-SEVENTH FORERIK 0.0000
-0.7577 TWENTY-SEVENTH OF -0.0723
-1.1409 TWENTY-SEVENTH WEEK -0.1082
-0.9648 TWENTY-SIXTH </s> -0.3010
-1.1409 TWENTY-SIXTH FOR -0.1249
-1.6180 TWENTY-SIXTH FORAI 0.0000
-1.6180 TWENTY-SIXTH FORBENJAMIN 0.0000
-1.6180 TWENTY-SIXTH FORERIK 0.0000
-0.7577 TWENTY-SIXTH OF -0.0723
-1.1409 TWENTY-SIXTH WEEK -0.1082
-0.9648 TWENTY-THIRD </s> -0.3010
-1.1409 TWENTY-THIRD FOR -0.1249
-1.6180 TWENTY-THIRD FORAI 0.0000
-1.6180 TWENTY-THIRD FORBENJAMIN 0.0000
-1.6180 TWENTY-THIRD FORERIK 0.0000
-0.7577 TWENTY-THIRD OF -0.0723
-1.1409 TWENTY-THIRD WEEK -0.1082
-1.0607 WEDNESDAY </s> -0.3010
-1.6628 WEDNESDAY FORAI 0.0000
-1.6628 WEDNESDAY FORBENJAMIN 0.0000
-1.6628 WEDNESDAY FORERIK 0.0000
-0.4586 WEDNESDAY OF -0.0723
-0.4454 WEEK OF 0.0000
-1.9285 WEEK OFAPRIL -0.0000
-1.9285 WEEK OFAUGUST -0.0000
-1.9285 WEEK OFDECEMBER -0.0000
-1.9285 WEEK OFFEBRUARY -0.0000
-1.9298 WEEK OFJANUARY 0.0000
-1.9285 WEEK OFJULY -0.0000
-1.9285 WEEK OFJUNE -0.0000
-1.9285 WEEK OFMARCH -0.0000
-1.9285 WEEK OFMAY -0.0000
-1.9285 WEEK OFNOVEMBER -0.0000
-1.9285 WEEK OFOCTOBER -0.0000
-1.9285 WEEK OFSEPTEMBER -0.0000

\3-grams:
-0.6380 <s> AI'S CALENDAR
-2.4014 <s> AI'S EIGHTEENTH
-2.4014 <s> AI'S EIGTH
-2.4014 <s> AI'S ELEVENTH
-2.4014 <s> AI'S FIFTEENTH
-2.4014 <s> AI'S FIFTH
-1.4472 <s> AI'S FIRST
-2.4014 <s> AI'S FOURTEENTH
-1.4472 <s> AI'S FOURTH
-1.5563 <s> AI'S NEXT
-2.4014 <s> AI'S NINETEENTH
-2.4014 <s> AI'S NINTH
-1.4472 <s> AI'S SECOND
-2.4014 <s> AI'S SEVENTEENTH
-2.4014 <s> AI'S SEVENTH
-2.4014 <s> AI'S SIXTEENTH
-2.4014 <s> AI'S SIXTH
-1.4472 <s> AI'S THIRD
-2.4014 <s> AI'S THIRTEENTH
-2.4014 <s> AI'S THIRTIETH
-2.4014 <s> AI'S THIRTY-FIRST
-2.4014 <s> AI'S TWENTIETH
-2.4014 <s> AI'S TWENTY-EIGTH
-2.4014 <s> AI'S TWENTY-FIFTH
-2.4014 <s> AI'S TWENTY-FIRST
-2.4014 <s> AI'S TWENTY-FOURTH
-2.4014 <s> AI'S TWENTY-NINTH
-2.4014 <s> AI'S TWENTY-SECOND
-2.4014 <s> AI'S TWENTY-SEVENTH
-2.4014 <s> AI'S TWENTY-SIXTH
-2.4014 <s> AI'S TWENTY-THIRD
-1.7634 <s> APRIL EIGHTEENTH
-1.7634 <s> APRIL EIGTH
-1.7634 <s> APRIL ELEVENTH
-1.7634 <s> APRIL FIFTEENTH
-1.7634 <s> APRIL FIFTH
-1.7634 <s> APRIL FIRST
-1.7634 <s> APRIL FOURTEENTH
-1.7634 <s> APRIL FOURTH
-1.7634 <s> APRIL NINETEENTH
-1.7634 <s> APRIL NINTH
-1.7634 <s> APRIL SECOND
-1.7634 <s> APRIL SEVENTEENTH
-1.7634 <s> APRIL SEVENTH
-1.7634 <s> APRIL SIXTEENTH
-1.7634 <s> APRIL SIXTH
-1.7634 <s> APRIL THIRD
-1.7634 <s> APRIL THIRTEENTH
-1.7634 <s> APRIL THIRTIETH
-1.7634 <s> APRIL THIRTY-FIRST
-1.7634 <s> APRIL TWENTIETH
-1.7634 <s> APRIL TWENTY-EIGTH
-1.7634 <s> APRIL TWENTY-FIFTH
-1.7634 <s> APRIL TWENTY-FIRST
-1.7634 <s> APRIL TWENTY-FOURTH
-1.7634 <s> APRIL TWENTY-NINTH
-1.7634 <s> APRIL TWENTY-SECOND
-1.7634 <s> APRIL TWENTY-SEVENTH
-1.7634 <s> APRIL TWENTY-SIXTH
-1.7634 <s> APRIL TWENTY-THIRD
-1.7634 <s> AUGUST EIGHTEENTH
-1.7634 <s> AUGUST EIGTH
-1.7634 <s> AUGUST ELEVENTH
-1.7634 <s> AUGUST FIFTEENTH
-1.7634 <s> AUGUST FIFTH
-1.7634 <s> AUGUST FIRST
-1.7634 <s> AUGUST FOURTEENTH
-1.7634 <s> AUGUST FOURTH
-1.7634 <s> AUGUST NINETEENTH
-1.7634 <s> AUGUST NINTH
-1.7634 <s> AUGUST SECOND
-1.7634 <s> AUGUST SEVENTEENTH
-1.7634 <s> AUGUST SEVENTH
-1.7634 <s> AUGUST SIXTEENTH
-1.7634 <s> AUGUST SIXTH
-1.7634 <s> AUGUST THIRD
-1.7634 <s> AUGUST THIRTEENTH
-1.7634 <s> AUGUST THIRTIETH
-1.7634 <s> AUGUST THIRTY-FIRST
-1.7634 <s> AUGUST TWENTIETH
-1.7634 <s> AUGUST TWENTY-EIGTH
-1.7634 <s> AUGUST TWENTY-FIFTH
-1.7634 <s> AUGUST TWENTY-FIRST
-1.7634 <s> AUGUST TWENTY-FOURTH
-1.7634 <s> AUGUST TWENTY-NINTH
-1.7634 <s> AUGUST TWENTY-SECOND
-1.7634 <s> AUGUST TWENTY-SEVENTH
-1.7634 <s> AUGUST TWENTY-SIXTH
-1.7634 <s> AUGUST TWENTY-THIRD
-0.6380 <s> BENJAMIN'S CALENDAR
-2.4014 <s> BENJAMIN'S EIGHTEENTH
-2.4014 <s> BENJAMIN'S EIGTH
-2.4014 <s> BENJAMIN'S ELEVENTH
-2.4014 <s> BENJAMIN'S FIFTEENTH
-2.4014 <s> BENJAMIN'S FIFTH
-1.4472 <s> BENJAMIN'S FIRST
-2.4014 <s> BENJAMIN'S FOURTEENTH
-1.4472 <s> BENJAMIN'S FOURTH
-1.5563 <s> BENJAMIN'S NEXT
-2.4014 <s> BENJAMIN'S NINETEENTH
-2.4014 <s> BENJAMIN'S NINTH
-1.4472 <s> BENJAMIN'S SECOND
-2.4014 <s> BENJAMIN'S SEVENTEENTH
-2.4014 <s> BENJAMIN'S SEVENTH
-2.4014 <s> BENJAMIN'S SIXTEENTH
-2.4014 <s> BENJAMIN'S SIXTH
-1.4472 <s> BENJAMIN'S THIRD
-2.4014 <s> BENJAMIN'S THIRTEENTH
-2.4014 <s> BENJAMIN'S THIRTIETH
-2.4014 <s> BENJAMIN'S THIRTY-FIRST
-2.4014 <s> BENJAMIN'S TWENTIETH
-2.4014 <s> BENJAMIN'S TWENTY-EIGTH
-2.4014 <s> BENJAMIN'S TWENTY-FIFTH
-2.4014 <s> BENJAMIN'S TWENTY-FIRST
-2.4014 <s> BENJAMIN'S TWENTY-FOURTH
-2.4014 <s> BENJAMIN'S TWENTY-NINTH
-2.4014 <s> BENJAMIN'S TWENTY-SECOND
-2.4014 <s> BENJAMIN'S TWENTY-SEVENTH
-2.4014 <s> BENJAMIN'S TWENTY-SIXTH
-2.4014 <s> BENJAMIN'S TWENTY-THIRD
-1.3802 <s> CALENDAR OFAPRIL
-1.3802 <s> CALENDAR OFAUGUST
-1.3802 <s> CALENDAR OFDECEMBER
-1.3802 <s> CALENDAR OFFEBRUARY
-1.3802 <s> CALENDAR OFJANUARY
-1.3802 <s> CALENDAR OFJULY
-1.3802 <s> CALENDAR OFJUNE
-1.3802 <s> CALENDAR OFMARCH
-1.3802 <s> CALENDAR OFMAY
-1.3802 <s> CALENDAR OFNOVEMBER
-1.3802 <s> CALENDAR OFOCTOBER
-1.3802 <s> CALENDAR OFSEPTEMBER
-1.7634 <s> DECEMBER EIGHTEENTH
-1.7634 <s> DECEMBER EIGTH
-1.7634 <s> DECEMBER ELEVENTH
-1.7634 <s> DECEMBER FIFTEENTH
-1.7634 <s> DECEMBER FIFTH
-1.7634 <s> DECEMBER FIRST
-1.7634 <s> DECEMBER FOURTEENTH
-1.7634 <s> DECEMBER FOURTH
-1.7634 <s> DECEMBER NINETEENTH
-1.7634 <s> DECEMBER NINTH
-1.7634 <s> DECEMBER SECOND
-1.7634 <s> DECEMBER SEVENTEENTH
-1.7634 <s> DECEMBER SEVENTH
-1.7634 <s> DECEMBER SIXTEENTH
-1.7634 <s> DECEMBER SIXTH
-1.7634 <s> DECEMBER THIRD
-1.7634 <s> DECEMBER THIRTEENTH
-1.7634 <s> DECEMBER THIRTIETH
-1.7634 <s> DECEMBER THIRTY-FIRST
-1.7634 <s> DECEMBER TWENTIETH
-1.7634 <s> DECEMBER TWENTY-EIGTH
-1.7634 <s> DECEMBER TWENTY-FIFTH
-1.7634 <s> DECEMBER TWENTY-FIRST
-1.7634 <s> DECEMBER TWENTY-FOURTH
-1.7634 <s> DECEMBER TWENTY-NINTH
-1.7634 <s> DECEMBER TWENTY-SECOND
-1.7634 <s> DECEMBER TWENTY-SEVENTH
-1.7634 <s> DECEMBER TWENTY-SIXTH
-1.7634 <s> DECEMBER TWENTY-THIRD
-1.1242 <s> DISPLAY AI'S
-1.1242 <s> DISPLAY BENJAMIN'S
-1.1242 <s> DISPLAY CALENDAR
-2.4616 <s> DISPLAY EIGHTEENTH
-2.4616 <s> DISPLAY EIGTH
-2.4616 <s> DISPLAY ELEVENTH
-1.1242 <s> DISPLAY ERIK'S
-2.4616 <s> DISPLAY FIFTEENTH
-2.4616 <s> DISPLAY FIFTH
-2.0223 <s> DISPLAY FIRST
-2.4616 <s> DISPLAY FOURTEENTH
-2.0223 <s> DISPLAY FOURTH
-2.4616 <s> DISPLAY NINETEENTH
-2.4616 <s> DISPLAY NINTH
-2.0223 <s> DISPLAY SECOND
-2.4616 <s> DISPLAY SEVENTEENTH
-2.4616 <s> DISPLAY SEVENTH
-2.4616 <s> DISPLAY SIXTEENTH
-2.4616 <s> DISPLAY SIXTH
-2.0223 <s> DISPLAY THIRD
-2.4616 <s> DISPLAY THIRTEENTH
-2.4616 <s> DISPLAY THIRTIETH
-2.4616 <s> DISPLAY THIRTY-FIRST
-2.4616 <s> DISPLAY TWENTIETH
-2.4616 <s> DISPLAY TWENTY-EIGTH
-2.4616 <s> DISPLAY TWENTY-FIFTH
-2.4616 <s> DISPLAY TWENTY-FIRST
-2.4616 <s> DISPLAY TWENTY-FOURTH
-2.4616 <s> DISPLAY TWENTY-NINTH
-2.4616 <s> DISPLAY TWENTY-SECOND
-2.4616 <s> DISPLAY TWENTY-SEVENTH
-2.4616 <s> DISPLAY TWENTY-SIXTH
-2.4616 <s> DISPLAY TWENTY-THIRD
-1.1242 <s> DISPLAY WEEK
-0.3010 <s> DISPLAYWEEK OF
-0.6990 <s> EIGHTEENTH OF
-0.5229 <s> EIGHTEENTH WEEK
-0.6990 <s> EIGTH OF
-0.5229 <s> EIGTH WEEK
-0.6990 <s> ELEVENTH OF
-0.5229 <s> ELEVENTH WEEK
-0.6380 <s> ERIK'S CALENDAR
-2.4014 <s> ERIK'S EIGHTEENTH
-2.4014 <s> ERIK'S EIGTH
-2.4014 <s> ERIK'S ELEVENTH
-2.4014 <s> ERIK'S FIFTEENTH
-2.4014 <s> ERIK'S FIFTH
-1.4472 <s> ERIK'S FIRST
-2.4014 <s> ERIK'S FOURTEENTH
-1.4472 <s> ERIK'S FOURTH
-1.5563 <s> ERIK'S NEXT
-2.4014 <s> ERIK'S NINETEENTH
-2.4014 <s> ERIK'S NINTH
-1.4472 <s> ERIK'S SECOND
-2.4014 <s> ERIK'S SEVENTEENTH
-2.4014 <s> ERIK'S SEVENTH
-2.4014 <s> ERIK'S SIXTEENTH
-2.4014 <s> ERIK'S SIXTH
-1.4472 <s> ERIK'S THIRD
-2.4014 <s> ERIK'S THIRTEENTH
-2.4014 <s> ERIK'S THIRTIETH
-2.4014 <s> ERIK'S THIRTY-FIRST
-2.4014 <s> ERIK'S TWENTIETH
-2.4014 <s> ERIK'S TWENTY-EIGTH
-2.4014 <s> ERIK'S TWENTY-FIFTH
-2.4014 <s> ERIK'S TWENTY-FIRST
-2.4014 <s> ERIK'S TWENTY-FOURTH
-2.4014 <s> ERIK'S TWENTY-NINTH
-2.4014 <s> ERIK'S TWENTY-SECOND
-2.4014 <s> ERIK'S TWENTY-SEVENTH
-2.4014 <s> ERIK'S TWENTY-SIXTH
-2.4014 <s> ERIK'S TWENTY-THIRD
-1.7634 <s> FEBRUARY EIGHTEENTH
-1.7634 <s> FEBRUARY EIGTH
-1.7634 <s> FEBRUARY ELEVENTH
-1.7634 <s> FEBRUARY FIFTEENTH
-1.7634 <s> FEBRUARY FIFTH
-1.7634 <s> FEBRUARY FIRST
-1.7634 <s> FEBRUARY FOURTEENTH
-1.7634 <s> FEBRUARY FOURTH
-1.7634 <s> FEBRUARY NINETEENTH
-1.7634 <s> FEBRUARY NINTH
-1.7634 <s> FEBRUARY SECOND
-1.7634 <s> FEBRUARY SEVENTEENTH
-1.7634 <s> FEBRUARY SEVENTH
-1.7634 <s> FEBRUARY SIXTEENTH
-1.7634 <s> FEBRUARY SIXTH
-1.7634 <s> FEBRUARY THIRD
-1.7634 <s> FEBRUARY THIRTEENTH
-1.7634 <s> FEBRUARY THIRTIETH
-1.7634 <s> FEBRUARY THIRTY-FIRST
-1.7634 <s> FEBRUARY TWENTIETH
-1.7634 <s> FEBRUARY TWENTY-EIGTH
-1.7634 <s> FEBRUARY TWENTY-FIFTH
-1.7634 <s> FEBRUARY TWENTY-FIRST
-1.7634 <s> FEBRUARY TWENTY-FOURTH
-1.7634 <s> FEBRUARY TWENTY-NINTH
-1.7634 <s> FEBRUARY TWENTY-SECOND
-1.7634 <s> FEBRUARY TWENTY-SEVENTH
-1.7634 <s> FEBRUARY TWENTY-SIXTH
-1.7634 <s> FEBRUARY TWENTY-THIRD
-0.6990 <s> FIFTEENTH OF
-0.5229 <s> FIFTEENTH WEEK
-0.6990 <s> FIFTH OF
-0.5229 <s> FIFTH WEEK
-1.6021 <s> FIRST FRIDAY
-1.6021 <s> FIRST MONDAY
-1.3010 <s> FIRST OF
-1.6021 <s> FIRST SATURDAY
-1.6021 <s> FIRST SUNDAY
-1.6021 <s> FIRST THURSDAY
-1.6021 <s> FIRST TUESDAY
-1.6021 <s> FIRST WEDNESDAY
-0.5607 <s> FIRST WEEK
-0.6990 <s> FOURTEENTH OF
-0.5229 <s> FOURTEENTH WEEK
-1.6021 <s> FOURTH FRIDAY
-1.6021 <s> FOURTH MONDAY
-1.3010 <s> FOURTH OF
-1.6021 <s> FOURTH SATURDAY
-1.6021 <s> FOURTH SUNDAY
-1.6021 <s> FOURTH THURSDAY
-1.6021 <s> FOURTH TUESDAY
-1.6021 <s> FOURTH WEDNESDAY
-0.5607 <s> FOURTH WEEK
-0.3223 <s> GO TO
-1.6225 <s> GO TOWEEK
-1.7634 <s> JANUARY EIGHTEENTH
-1.7634 <s> JANUARY EIGTH
-1.7634 <s> JANUARY ELEVENTH
-1.7634 <s> JANUARY FIFTEENTH
-1.7634 <s> JANUARY FIFTH
-1.7634 <s> JANUARY FIRST
-1.7634 <s> JANUARY FOURTEENTH
-1.7634 <s> JANUARY FOURTH
-1.7634 <s> JANUARY NINETEENTH
-1.7634 <s> JANUARY NINTH
-1.7634 <s> JANUARY SECOND
-1.7634 <s> JANUARY SEVENTEENTH
-1.7634 <s> JANUARY SEVENTH
-1.7634 <s> JANUARY SIXTEENTH
-1.7634 <s> JANUARY SIXTH
-1.7634 <s> JANUARY THIRD
-1.7634 <s> JANUARY THIRTEENTH
-1.7634 <s> JANUARY THIRTIETH
-1.7634 <s> JANUARY THIRTY-FIRST
-1.7634 <s> JANUARY TWENTIETH
-1.7634 <s> JANUARY TWENTY-EIGTH
-1.7634 <s> JANUARY TWENTY-FIFTH
-1.7634 <s> JANUARY TWENTY-FIRST
-1.7634 <s> JANUARY TWENTY-FOURTH
-1.7634 <s> JANUARY TWENTY-NINTH
-1.7634 <s> JANUARY TWENTY-SECOND
-1.7634 <s> JANUARY TWENTY-SEVENTH
-1.7634 <s> JANUARY TWENTY-SIXTH
-1.7634 <s> JANUARY TWENTY-THIRD
-1.7634 <s> JULY EIGHTEENTH
-1.7634 <s> JULY EIGTH
-1.7634 <s> JULY ELEVENTH
-1.7634 <s> JULY FIFTEENTH
-1.7634 <s> JULY FIFTH
-1.7634 <s> JULY FIRST
-1.7634 <s> JULY FOURTEENTH
-1.7634 <s> JULY FOURTH
-1.7634 <s> JULY NINETEENTH
-1.7634 <s> JULY NINTH
-1.7634 <s> JULY SECOND
-1.7634 <s> JULY SEVENTEENTH
-1.7634 <s> JULY SEVENTH
-1.7634 <s> JULY SIXTEENTH
-1.7634 <s> JULY SIXTH
-1.7634 <s> JULY THIRD
-1.7634 <s> JULY THIRTEENTH
-1.7634 <s> JULY THIRTIETH
-1.7634 <s> JULY THIRTY-FIRST
-1.7634 <s> JULY TWENTIETH
-1.7634 <s> JULY TWENTY-EIGTH
-1.7634 <s> JULY TWENTY-FIFTH
-1.7634 <s> JULY TWENTY-FIRST
-1.7634 <s> JULY TWENTY-FOURTH
-1.7634 <s> JULY TWENTY-NINTH
-1.7634 <s> JULY TWENTY-SECOND
-1.7634 <s> JULY TWENTY-SEVENTH
-1.7634 <s> JULY TWENTY-SIXTH
-1.7634 <s> JULY TWENTY-THIRD
-1.7634 <s> JUNE EIGHTEENTH
-1.7634 <s> JUNE EIGTH
-1.7634 <s> JUNE ELEVENTH
-1.7634 <s> JUNE FIFTEENTH
-1.7634 <s> JUNE FIFTH
-1.7634 <s> JUNE FIRST
-1.7634 <s> JUNE FOURTEENTH
-1.7634 <s> JUNE FOURTH
-1.7634 <s> JUNE NINETEENTH
-1.7634 <s> JUNE NINTH
-1.7634 <s> JUNE SECOND
-1.7634 <s> JUNE SEVENTEENTH
-1.7634 <s> JUNE SEVENTH
-1.7634 <s> JUNE SIXTEENTH
-1.7634 <s> JUNE SIXTH
-1.7634 <s> JUNE THIRD
-1.7634 <s> JUNE THIRTEENTH
-1.7634 <s> JUNE THIRTIETH
-1.7634 <s> JUNE THIRTY-FIRST
-1.7634 <s> JUNE TWENTIETH
-1.7634 <s> JUNE TWENTY-EIGTH
-1.7634 <s> JUNE TWENTY-FIFTH
-1.7634 <s> JUNE TWENTY-FIRST
-1.7634 <s> JUNE TWENTY-FOURTH
-1.7634 <s> JUNE TWENTY-NINTH
-1.7634 <s> JUNE TWENTY-SECOND
-1.7634 <s> JUNE TWENTY-SEVENTH
-1.7634 <s> JUNE TWENTY-SIXTH
-1.7634 <s> JUNE TWENTY-THIRD
-1.7634 <s> MARCH EIGHTEENTH
-1.7634 <s> MARCH EIGTH
-1.7634 <s> MARCH ELEVENTH
-1.7634 <s> MARCH FIFTEENTH
-1.7634 <s> MARCH FIFTH
-1.7634 <s> MARCH FIRST
-1.7634 <s> MARCH FOURTEENTH
-1.7634 <s> MARCH FOURTH
-1.7634 <s> MARCH NINETEENTH
-1.7634 <s> MARCH NINTH
-1.7634 <s> MARCH SECOND
-1.7634 <s> MARCH SEVENTEENTH
-1.7634 <s> MARCH SEVENTH
-1.7634 <s> MARCH SIXTEENTH
-1.7634 <s> MARCH SIXTH
-1.7634 <s> MARCH THIRD
-1.7634 <s> MARCH THIRTEENTH
-1.7634 <s> MARCH THIRTIETH
-1.7634 <s> MARCH THIRTY-FIRST
-1.7634 <s> MARCH TWENTIETH
-1.7634 <s> MARCH TWENTY-EIGTH
-1.7634 <s> MARCH TWENTY-FIFTH
-1.7634 <s> MARCH TWENTY-FIRST
-1.7634 <s> MARCH TWENTY-FOURTH
-1.7634 <s> MARCH TWENTY-NINTH
-1.7634 <s> MARCH TWENTY-SECOND
-1.7634 <s> MARCH TWENTY-SEVENTH
-1.7634 <s> MARCH TWENTY-SIXTH
-1.7634 <s> MARCH TWENTY-THIRD
-1.7634 <s> MAY EIGHTEENTH
-1.7634 <s> MAY EIGTH
-1.7634 <s> MAY ELEVENTH
-1.7634 <s> MAY FIFTEENTH
-1.7634 <s> MAY FIFTH
-1.7634 <s> MAY FIRST
-1.7634 <s> MAY FOURTEENTH
-1.7634 <s> MAY FOURTH
-1.7634 <s> MAY NINETEENTH
-1.7634 <s> MAY NINTH
-1.7634 <s> MAY SECOND
-1.7634 <s> MAY SEVENTEENTH
-1.7634 <s> MAY SEVENTH
-1.7634 <s> MAY SIXTEENTH
-1.7634 <s> MAY SIXTH
-1.7634 <s> MAY THIRD
-1.7634 <s> MAY THIRTEENTH
-1.7634 <s> MAY THIRTIETH
-1.7634 <s> MAY THIRTY-FIRST
-1.7634 <s> MAY TWENTIETH
-1.7634 <s> MAY TWENTY-EIGTH
-1.7634 <s> MAY TWENTY-FIFTH
-1.7634 <s> MAY TWENTY-FIRST
-1.7634 <s> MAY TWENTY-FOURTH
-1.7634 <s> MAY TWENTY-NINTH
-1.7634 <s> MAY TWENTY-SECOND
-1.7634 <s> MAY TWENTY-SEVENTH
-1.7634 <s> MAY TWENTY-SIXTH
-1.7634 <s> MAY TWENTY-THIRD
-1.1461 <s> NEXT FRIDAY
-1.1461 <s> NEXT MONDAY
-1.1461 <s> NEXT SATURDAY
-1.1461 <s> NEXT SUNDAY
-1.1461 <s> NEXT THURSDAY
-1.1461 <s> NEXT TUESDAY
-1.1461 <s> NEXT WEDNESDAY
-0.6990 <s> NINETEENTH OF
-0.5229 <s> NINETEENTH WEEK
-0.6990 <s> NINTH OF
-0.5229 <s> NINTH WEEK
-1.7634 <s> NOVEMBER EIGHTEENTH
-1.7634 <s> NOVEMBER EIGTH
-1.7634 <s> NOVEMBER ELEVENTH
-1.7634 <s> NOVEMBER FIFTEENTH
-1.7634 <s> NOVEMBER FIFTH
-1.7634 <s> NOVEMBER FIRST
-1.7634 <s> NOVEMBER FOURTEENTH
-1.7634 <s> NOVEMBER FOURTH
-1.7634 <s> NOVEMBER NINETEENTH
-1.7634 <s> NOVEMBER NINTH
-1.7634 <s> NOVEMBER SECOND
-1.7634 <s> NOVEMBER SEVENTEENTH
-1.7634 <s> NOVEMBER SEVENTH
-1.7634 <s> NOVEMBER SIXTEENTH
-1.7634 <s> NOVEMBER SIXTH
-1.7634 <s> NOVEMBER THIRD
-1.7634 <s> NOVEMBER THIRTEENTH
-1.7634 <s> NOVEMBER THIRTIETH
-1.7634 <s> NOVEMBER THIRTY-FIRST
-1.7634 <s> NOVEMBER TWENTIETH
-1.7634 <s> NOVEMBER TWENTY-EIGTH
-1.7634 <s> NOVEMBER TWENTY-FIFTH
-1.7634 <s> NOVEMBER TWENTY-FIRST
-1.7634 <s> NOVEMBER TWENTY-FOURTH
-1.7634 <s> NOVEMBER TWENTY-NINTH
-1.7634 <s> NOVEMBER TWENTY-SECOND
-1.7634 <s> NOVEMBER TWENTY-SEVENTH
-1.7634 <s> NOVEMBER TWENTY-SIXTH
-1.7634 <s> NOVEMBER TWENTY-THIRD
-1.7634 <s> OCTOBER EIGHTEENTH
-1.7634 <s> OCTOBER EIGTH
-1.7634 <s> OCTOBER ELEVENTH
-1.7634 <s> OCTOBER FIFTEENTH
-1.7634 <s> OCTOBER FIFTH
-1.7634 <s> OCTOBER FIRST
-1.7634 <s> OCTOBER FOURTEENTH
-1.7634 <s> OCTOBER FOURTH
-1.7634 <s> OCTOBER NINETEENTH
-1.7634 <s> OCTOBER NINTH
-1.7634 <s> OCTOBER SECOND
-1.7634 <s> OCTOBER SEVENTEENTH
-1.7634 <s> OCTOBER SEVENTH
-1.7634 <s> OCTOBER SIXTEENTH
-1.7634 <s> OCTOBER SIXTH
-1.7634 <s> OCTOBER THIRD
-1.7634 <s> OCTOBER THIRTEENTH
-1.7634 <s> OCTOBER THIRTIETH
-1.7634 <s> OCTOBER THIRTY-FIRST
-1.7634 <s> OCTOBER TWENTIETH
-1.7634 <s> OCTOBER TWENTY-EIGTH
-1.7634 <s> OCTOBER TWENTY-FIFTH
-1.7634 <s> OCTOBER TWENTY-FIRST
-1.7634 <s> OCTOBER TWENTY-FOURTH
-1.7634 <s> OCTOBER TWENTY-NINTH
-1.7634 <s> OCTOBER TWENTY-SECOND
-1.7634 <s> OCTOBER TWENTY-SEVENTH
-1.7634 <s> OCTOBER TWENTY-SIXTH
-1.7634 <s> OCTOBER TWENTY-THIRD
-1.6021 <s> SECOND FRIDAY
-1.6021 <s> SECOND MONDAY
-1.3010 <s> SECOND OF
-1.6021 <s> SECOND SATURDAY
-1.6021 <s> SECOND SUNDAY
-1.6021 <s> SECOND THURSDAY
-1.6021 <s> SECOND TUESDAY
-1.6021 <s> SECOND WEDNESDAY
-0.5607 <s> SECOND WEEK
-1.7634 <s> SEPTEMBER EIGHTEENTH
-1.7634 <s> SEPTEMBER EIGTH
-1.7634 <s> SEPTEMBER ELEVENTH
-1.7634 <s> SEPTEMBER FIFTEENTH
-1.7634 <s> SEPTEMBER FIFTH
-1.7634 <s> SEPTEMBER FIRST
-1.7634 <s> SEPTEMBER FOURTEENTH
-1.7634 <s> SEPTEMBER FOURTH
-1.7634 <s> SEPTEMBER NINETEENTH
-1.7634 <s> SEPTEMBER NINTH
-1.7634 <s> SEPTEMBER SECOND
-1.7634 <s> SEPTEMBER SEVENTEENTH
-1.7634 <s> SEPTEMBER SEVENTH
-1.7634 <s> SEPTEMBER SIXTEENTH
-1.7634 <s> SEPTEMBER SIXTH
-1.7634 <s> SEPTEMBER THIRD
-1.7634 <s> SEPTEMBER THIRTEENTH
-1.7634 <s> SEPTEMBER THIRTIETH
-1.7634 <s> SEPTEMBER THIRTY-FIRST
-1.7634 <s> SEPTEMBER TWENTIETH
-1.7634 <s> SEPTEMBER TWENTY-EIGTH
-1.7634 <s> SEPTEMBER TWENTY-FIFTH
-1.7634 <s> SEPTEMBER TWENTY-FIRST
-1.7634 <s> SEPTEMBER TWENTY-FOURTH
-1.7634 <s> SEPTEMBER TWENTY-NINTH
-1.7634 <s> SEPTEMBER TWENTY-SECOND
-1.7634 <s> SEPTEMBER TWENTY-SEVENTH
-1.7634 <s> SEPTEMBER TWENTY-SIXTH
-1.7634 <s> SEPTEMBER TWENTY-THIRD
-0.6990 <s> SEVENTEENTH OF
-0.5229 <s> SEVENTEENTH WEEK
-0.6990 <s> SEVENTH OF
-0.5229 <s> SEVENTH WEEK
-1.1242 <s> SHOW AI'S
-1.1242 <s> SHOW BENJAMIN'S
-1.1242 <s> SHOW CALENDAR
-2.4616 <s> SHOW EIGHTEENTH
-2.4616 <s> SHOW EIGTH
-2.4616 <s> SHOW ELEVENTH
-1.1242 <s> SHOW ERIK'S
-2.4616 <s> SHOW FIFTEENTH
-2.4616 <s> SHOW FIFTH
-2.0223 <s> SHOW FIRST
-2.4616 <s> SHOW FOURTEENTH
-2.0223 <s> SHOW FOURTH
-2.4616 <s> SHOW NINETEENTH
-2.4616 <s> SHOW NINTH
-2.0223 <s> SHOW SECOND
-2.4616 <s> SHOW SEVENTEENTH
-2.4616 <s> SHOW SEVENTH
-2.4616 <s> SHOW SIXTEENTH
-2.4616 <s> SHOW SIXTH
-2.0223 <s> SHOW THIRD
-2.4616 <s> SHOW THIRTEENTH
-2.4616 <s> SHOW THIRTIETH
-2.4616 <s> SHOW THIRTY-FIRST
-2.4616 <s> SHOW TWENTIETH
-2.4616 <s> SHOW TWENTY-EIGTH
-2.4616 <s> SHOW TWENTY-FIFTH
-2.4616 <s> SHOW TWENTY-FIRST
-2.4616 <s> SHOW TWENTY-FOURTH
-2.4616 <s> SHOW TWENTY-NINTH
-2.4616 <s> SHOW TWENTY-SECOND
-2.4616 <s> SHOW TWENTY-SEVENTH
-2.4616 <s> SHOW TWENTY-SIXTH
-2.4616 <s> SHOW TWENTY-THIRD
-1.1242 <s> SHOW WEEK
-0.3010 <s> SHOWWEEK OF
-0.6990 <s> SIXTEENTH OF
-0.5229 <s> SIXTEENTH WEEK
-0.6990 <s> SIXTH OF
-0.5229 <s> SIXTH WEEK
-1.6021 <s> THIRD FRIDAY
-1.6021 <s> THIRD MONDAY
-1.3010 <s> THIRD OF
-1.6021 <s> THIRD SATURDAY
-1.6021 <s> THIRD SUNDAY
-1.6021 <s> THIRD THURSDAY
-1.6021 <s> THIRD TUESDAY
-1.6021 <s> THIRD WEDNESDAY
-0.5607 <s> THIRD WEEK
-0.6990 <s> THIRTEENTH OF
-0.5229 <s> THIRTEENTH WEEK
-0.6990 <s> THIRTIETH OF
-0.5229 <s> THIRTIETH WEEK
-0.6990 <s> THIRTY-FIRST OF
-0.5229 <s> THIRTY-FIRST WEEK
-0.6990 <s> TWENTIETH OF
-0.5229 <s> TWENTIETH WEEK
-0.6990 <s> TWENTY-EIGTH OF
-0.5229 <s> TWENTY-EIGTH WEEK
-0.6990 <s> TWENTY-FIFTH OF
-0.5229 <s> TWENTY-FIFTH WEEK
-0.6990 <s> TWENTY-FIRST OF
-0.5229 <s> TWENTY-FIRST WEEK
-0.6990 <s> TWENTY-FOURTH OF
-0.5229 <s> TWENTY-FOURTH WEEK
-0.6990 <s> TWENTY-NINTH OF
-0.5229 <s> TWENTY-NINTH WEEK
-0.6990 <s> TWENTY-SECOND OF
-0.5229 <s> TWENTY-SECOND WEEK
-0.6990 <s> TWENTY-SEVENTH OF
-0.5229 <s> TWENTY-SEVENTH WEEK
-0.6990 <s> TWENTY-SIXTH OF
-0.5229 <s> TWENTY-SIXTH WEEK
-0.6990 <s> TWENTY-THIRD OF
-0.5229 <s> TWENTY-THIRD WEEK
-0.3010 <s> WEEK OF
-2.0645 AI'S CALENDAR EIGHTEENTH
-2.0645 AI'S CALENDAR EIGTH
-2.0645 AI'S CALENDAR ELEVENTH
-2.0645 AI'S CALENDAR FIFTEENTH
-2.0645 AI'S CALENDAR FIFTH
-2.0645 AI'S CALENDAR FIRST
-0.6021 AI'S CALENDAR FOR
-2.0645 AI'S CALENDAR FOURTEENTH
-2.0645 AI'S CALENDAR FOURTH
-2.0645 AI'S CALENDAR NINETEENTH
