Language model created by QuickLM on Tue Jun  5 15:12:57 EDT 2018
Copyright (c) 1996-2010 Carnegie Mellon University and Alexander I. Rudnicky

The model is in standard ARPA format, designed by Doug Paul while he was at MITRE.

The code that was used to produce this language model is available in Open Source.
Please visit http://www.speech.cs.cmu.edu/tools/ for more information

The (fixed) discount mass is 0.5. The backoffs are computed using the ratio method.
This model based on a corpus of 50 sentences and 41 words

\data\
ngram 1=41
ngram 2=72
ngram 3=115

\1-grams:
-1.2041 </s> -0.3010
-1.2041 <s> -0.2730
-2.1249 AI'S -0.2844
-2.4260 AIS -0.2900
-2.9031 AI\S -0.2900
-2.2041 AUFWACHEN -0.2900
-2.1249 BENJAMIN'S -0.2844
-2.4260 BENJAMINS -0.2900
-2.9031 BENJAMIN\S -0.2900
-1.5051 BIRTHDAY -0.2730
-2.2041 BIRTHDAY? -0.2730
-1.6021 BIS -0.2900
-2.2041 DAYS -0.2872
-2.1249 ERIK'S -0.2844
-2.4260 ERIKS -0.2900
-2.9031 ERIK\S -0.2900
-1.6021 GEBURTSTAG -0.2730
-1.5051 HOW -0.2872
-2.2041 IS -0.2844
-2.2041 LANGE -0.2900
-1.9031 LONG -0.2788
-2.1249 MAMA'S -0.2844
-2.4260 MAMAS -0.2900
-2.9031 MAMA\S -0.2900
-2.2041 MANY -0.2983
-1.9031 NOCH -0.2956
-1.9031 OFT -0.2956
-1.9031 OFTEN -0.2928
-2.1249 PAPA'S -0.2844
-2.4260 PAPAS -0.2900
-2.9031 PAPA\S -0.2900
-2.2041 SCHLAFEN -0.2900
-2.2041 SLEEP -0.2872
-2.2041 TAGE -0.2900
-1.7270 TO -0.2816
-1.5051 UNTIL -0.2844
-2.2041 UP -0.2872
-2.2041 WAKE -0.2983
-2.2041 WHEN -0.2983
-1.7270 WIE -0.2928
-2.2041 WIEVIELE -0.2983

\2-grams:
-0.6021 <s> HOW 0.0000
-1.3010 <s> WHEN 0.0000
-0.8239 <s> WIE 0.0000
-1.3010 <s> WIEVIELE 0.0000
-0.3802 AI'S BIRTHDAY 0.0000
-1.0792 AI'S BIRTHDAY? 0.0000
-0.3010 AIS GEBURTSTAG 0.0000
-0.3010 AI\S GEBURTSTAG 0.0000
-0.3010 AUFWACHEN BIS -0.0969
-0.3802 BENJAMIN'S BIRTHDAY 0.0000
-1.0792 BENJAMIN'S BIRTHDAY? 0.0000
-0.3010 BENJAMINS GEBURTSTAG 0.0000
-0.3010 BENJAMIN\S GEBURTSTAG 0.0000
-0.3010 BIRTHDAY </s> -0.3010
-0.3010 BIRTHDAY? </s> -0.3010
-1.1249 BIS AIS 0.0000
-1.6021 BIS AI\S 0.0000
-1.1249 BIS BENJAMINS 0.0000
-1.6021 BIS BENJAMIN\S 0.0000
-1.1249 BIS ERIKS 0.0000
-1.6021 BIS ERIK\S 0.0000
-1.1249 BIS MAMAS 0.0000
-1.6021 BIS MAMA\S 0.0000
-1.1249 BIS PAPAS 0.0000
-1.6021 BIS PAPA\S 0.0000
-0.3010 DAYS UNTIL 0.0000
-0.3802 ERIK'S BIRTHDAY 0.0000
-1.0792 ERIK'S BIRTHDAY? 0.0000
-0.3010 ERIKS GEBURTSTAG 0.0000
-0.3010 ERIK\S GEBURTSTAG 0.0000
-0.3010 GEBURTSTAG </s> -0.3010
-0.6990 HOW LONG 0.0000
-1.0000 HOW MANY 0.0000
-0.6990 HOW OFTEN 0.0000
-1.0000 IS AI'S -0.2632
-1.0000 IS BENJAMIN'S -0.2632
-1.0000 IS ERIK'S -0.2632
-1.0000 IS MAMA'S -0.2632
-1.0000 IS PAPA'S -0.2632
-0.3010 LANGE BIS -0.2430
-0.6021 LONG TO -0.2218
-0.6021 LONG UNTIL 0.0000
-0.3802 MAMA'S BIRTHDAY 0.0000
-1.0792 MAMA'S BIRTHDAY? 0.0000
-0.3010 MAMAS GEBURTSTAG 0.0000
-0.3010 MAMA\S GEBURTSTAG 0.0000
-0.3010 MANY DAYS 0.0000
-0.6021 NOCH AUFWACHEN 0.0000
-0.6021 NOCH SCHLAFEN 0.0000
-0.3010 OFT NOCH 0.0000
-0.3010 OFTEN TO -0.1249
-0.3802 PAPA'S BIRTHDAY 0.0000
-1.0792 PAPA'S BIRTHDAY? 0.0000
-0.3010 PAPAS GEBURTSTAG 0.0000
-0.3010 PAPA\S GEBURTSTAG 0.0000
-0.3010 SCHLAFEN BIS -0.0969
-0.3010 SLEEP UNTIL 0.0000
-0.3010 TAGE BIS -0.0969
-0.7782 TO SLEEP 0.0000
-0.7782 TO UNTIL 0.0000
-0.7782 TO WAKE 0.0000
-1.0000 UNTIL AI'S -0.0669
-1.0000 UNTIL BENJAMIN'S -0.0669
-1.0000 UNTIL ERIK'S -0.0669
-1.0000 UNTIL MAMA'S -0.0669
-1.0000 UNTIL PAPA'S -0.0669
-0.3010 UP UNTIL 0.0000
-0.3010 WAKE UP 0.0000
-0.3010 WHEN IS 0.0000
-0.7782 WIE LANGE 0.0000
-0.4771 WIE OFT 0.0000
-0.3010 WIEVIELE TAGE 0.0000

\3-grams:
-0.6990 <s> HOW LONG
-1.0000 <s> HOW MANY
-0.6990 <s> HOW OFTEN
-0.3010 <s> WHEN IS
-0.7782 <s> WIE LANGE
-0.4771 <s> WIE OFT
-0.3010 <s> WIEVIELE TAGE
-0.3010 AI'S BIRTHDAY </s>
-0.3010 AI'S BIRTHDAY? </s>
-0.3010 AIS GEBURTSTAG </s>
-0.3010 AI\S GEBURTSTAG </s>
-1.0000 AUFWACHEN BIS AIS
-1.0000 AUFWACHEN BIS BENJAMINS
-1.0000 AUFWACHEN BIS ERIKS
-1.0000 AUFWACHEN BIS MAMAS
-1.0000 AUFWACHEN BIS PAPAS
-0.3010 BENJAMIN'S BIRTHDAY </s>
-0.3010 BENJAMIN'S BIRTHDAY? </s>
-0.3010 BENJAMINS GEBURTSTAG </s>
-0.3010 BENJAMIN\S GEBURTSTAG </s>
-0.3010 BIS AIS GEBURTSTAG
-0.3010 BIS AI\S GEBURTSTAG
-0.3010 BIS BENJAMINS GEBURTSTAG
-0.3010 BIS BENJAMIN\S GEBURTSTAG
-0.3010 BIS ERIKS GEBURTSTAG
-0.3010 BIS ERIK\S GEBURTSTAG
-0.3010 BIS MAMAS GEBURTSTAG
-0.3010 BIS MAMA\S GEBURTSTAG
-0.3010 BIS PAPAS GEBURTSTAG
-0.3010 BIS PAPA\S GEBURTSTAG
-1.0000 DAYS UNTIL AI'S
-1.0000 DAYS UNTIL BENJAMIN'S
-1.0000 DAYS UNTIL ERIK'S
-1.0000 DAYS UNTIL MAMA'S
-1.0000 DAYS UNTIL PAPA'S
-0.3010 ERIK'S BIRTHDAY </s>
-0.3010 ERIK'S BIRTHDAY? </s>
-0.3010 ERIKS GEBURTSTAG </s>
-0.3010 ERIK\S GEBURTSTAG </s>
-0.6021 HOW LONG TO
-0.6021 HOW LONG UNTIL
-0.3010 HOW MANY DAYS
-0.3010 HOW OFTEN TO
-0.3010 IS AI'S BIRTHDAY?
-0.3010 IS BENJAMIN'S BIRTHDAY?
-0.3010 IS ERIK'S BIRTHDAY?
-0.3010 IS MAMA'S BIRTHDAY?
-0.3010 IS PAPA'S BIRTHDAY?
-1.0000 LANGE BIS AI\S
-1.0000 LANGE BIS BENJAMIN\S
-1.0000 LANGE BIS ERIK\S
-1.0000 LANGE BIS MAMA\S
-1.0000 LANGE BIS PAPA\S
-0.3010 LONG TO UNTIL
-1.0000 LONG UNTIL AI'S
-1.0000 LONG UNTIL BENJAMIN'S
-1.0000 LONG UNTIL ERIK'S
-1.0000 LONG UNTIL MAMA'S
-1.0000 LONG UNTIL PAPA'S
-0.3010 MAMA'S BIRTHDAY </s>
-0.3010 MAMA'S BIRTHDAY? </s>
-0.3010 MAMAS GEBURTSTAG </s>
-0.3010 MAMA\S GEBURTSTAG </s>
-0.3010 MANY DAYS UNTIL
-0.3010 NOCH AUFWACHEN BIS
-0.3010 NOCH SCHLAFEN BIS
-0.6021 OFT NOCH AUFWACHEN
-0.6021 OFT NOCH SCHLAFEN
-0.6021 OFTEN TO SLEEP
-0.6021 OFTEN TO WAKE
-0.3010 PAPA'S BIRTHDAY </s>
-0.3010 PAPA'S BIRTHDAY? </s>
-0.3010 PAPAS GEBURTSTAG </s>
-0.3010 PAPA\S GEBURTSTAG </s>
-1.0000 SCHLAFEN BIS AIS
-1.0000 SCHLAFEN BIS BENJAMINS
-1.0000 SCHLAFEN BIS ERIKS
-1.0000 SCHLAFEN BIS MAMAS
-1.0000 SCHLAFEN BIS PAPAS
-1.0000 SLEEP UNTIL AI'S
-1.0000 SLEEP UNTIL BENJAMIN'S
-1.0000 SLEEP UNTIL ERIK'S
-1.0000 SLEEP UNTIL MAMA'S
-1.0000 SLEEP UNTIL PAPA'S
-1.0000 TAGE BIS AIS
-1.0000 TAGE BIS BENJAMINS
-1.0000 TAGE BIS ERIKS
-1.0000 TAGE BIS MAMAS
-1.0000 TAGE BIS PAPAS
-0.3010 TO SLEEP UNTIL
-1.0000 TO UNTIL AI'S
-1.0000 TO UNTIL BENJAMIN'S
-1.0000 TO UNTIL ERIK'S
-1.0000 TO UNTIL MAMA'S
-1.0000 TO UNTIL PAPA'S
-0.3010 TO WAKE UP
-0.3010 UNTIL AI'S BIRTHDAY
-0.3010 UNTIL BENJAMIN'S BIRTHDAY
-0.3010 UNTIL ERIK'S BIRTHDAY
-0.3010 UNTIL MAMA'S BIRTHDAY
-0.3010 UNTIL PAPA'S BIRTHDAY
-1.0000 UP UNTIL AI'S
-1.0000 UP UNTIL BENJAMIN'S
-1.0000 UP UNTIL ERIK'S
-1.0000 UP UNTIL MAMA'S
-1.0000 UP UNTIL PAPA'S
-0.3010 WAKE UP UNTIL
-1.0000 WHEN IS AI'S
-1.0000 WHEN IS BENJAMIN'S
-1.0000 WHEN IS ERIK'S
-1.0000 WHEN IS MAMA'S
-1.0000 WHEN IS PAPA'S
-0.3010 WIE LANGE BIS
-0.3010 WIE OFT NOCH
-0.3010 WIEVIELE TAGE BIS

\end\
