Language model created by QuickLM on Tue Jun  5 15:12:13 EDT 2018
Copyright (c) 1996-2010 Carnegie Mellon University and Alexander I. Rudnicky

The model is in standard ARPA format, designed by Doug Paul while he was at MITRE.

The code that was used to produce this language model is available in Open Source.
Please visit http://www.speech.cs.cmu.edu/tools/ for more information

The (fixed) discount mass is 0.5. The backoffs are computed using the ratio method.
This model based on a corpus of 30 sentences and 17 words

\data\
ngram 1=17
ngram 2=25
ngram 3=25

\1-grams:
-1.1139 </s> -0.3010
-1.1139 <s> -0.2663
-2.1139 BAHNHOF -0.2663
-2.1139 CHURCH -0.2663
-1.1139 CONNECTIONS -0.2663
-2.1139 FRIEDRICHSTRASSE -0.2663
-1.1139 FROM -0.2663
-2.1139 KIRCHE -0.2663
-2.1139 LADENBURG -0.2663
-2.1139 MAIN -0.2943
-2.1139 MARKET -0.2663
-2.1139 MARKTPLATZ -0.2663
-2.1139 MATTHEUS -0.2977
-1.6368 NECKARAU -0.2875
-1.1139 NEXT -0.2663
-1.8129 STATION -0.2663
-2.1139 WEST -0.2663

\2-grams:
-0.3010 <s> NEXT 0.0000
-0.3010 BAHNHOF </s> -0.3010
-0.3010 CHURCH </s> -0.3010
-0.3010 CONNECTIONS FROM 0.0000
-0.3010 FRIEDRICHSTRASSE </s> -0.3010
-1.3010 FROM CHURCH 0.0000
-1.3010 FROM FRIEDRICHSTRASSE 0.0000
-1.3010 FROM LADENBURG 0.0000
-1.3010 FROM MAIN 0.0000
-1.3010 FROM MARKET 0.0000
-1.3010 FROM MARKTPLATZ 0.0000
-1.3010 FROM MATTHEUS 0.0000
-0.8239 FROM NECKARAU 0.0000
-0.3010 KIRCHE </s> -0.3010
-0.3010 LADENBURG </s> -0.3010
-0.3010 MAIN STATION 0.0000
-0.3010 MARKET </s> -0.3010
-0.3010 MARKTPLATZ </s> -0.3010
-0.3010 MATTHEUS KIRCHE 0.0000
-0.7782 NECKARAU BAHNHOF 0.0000
-0.7782 NECKARAU STATION 0.0000
-0.7782 NECKARAU WEST 0.0000
-0.3010 NEXT CONNECTIONS 0.0000
-0.3010 STATION </s> -0.3010
-0.3010 WEST </s> -0.3010

\3-grams:
-0.3010 <s> NEXT CONNECTIONS
-1.3010 CONNECTIONS FROM CHURCH
-1.3010 CONNECTIONS FROM FRIEDRICHSTRASSE
-1.3010 CONNECTIONS FROM LADENBURG
-1.3010 CONNECTIONS FROM MAIN
-1.3010 CONNECTIONS FROM MARKET
-1.3010 CONNECTIONS FROM MARKTPLATZ
-1.3010 CONNECTIONS FROM MATTHEUS
-0.8239 CONNECTIONS FROM NECKARAU
-0.3010 FROM CHURCH </s>
-0.3010 FROM FRIEDRICHSTRASSE </s>
-0.3010 FROM LADENBURG </s>
-0.3010 FROM MAIN STATION
-0.3010 FROM MARKET </s>
-0.3010 FROM MARKTPLATZ </s>
-0.3010 FROM MATTHEUS KIRCHE
-0.7782 FROM NECKARAU BAHNHOF
-0.7782 FROM NECKARAU STATION
-0.7782 FROM NECKARAU WEST
-0.3010 MAIN STATION </s>
-0.3010 MATTHEUS KIRCHE </s>
-0.3010 NECKARAU BAHNHOF </s>
-0.3010 NECKARAU STATION </s>
-0.3010 NECKARAU WEST </s>
-0.3010 NEXT CONNECTIONS FROM

\end\
