Language model created by QuickLM on Thu May 31 04:29:53 EDT 2018
Copyright (c) 1996-2010 Carnegie Mellon University and Alexander I. Rudnicky

The model is in standard ARPA format, designed by Doug Paul while he was at MITRE.

The code that was used to produce this language model is available in Open Source.
Please visit http://www.speech.cs.cmu.edu/tools/ for more information

The (fixed) discount mass is 0.5. The backoffs are computed using the ratio method.
This model based on a corpus of 4250 sentences and 46 words

\data\
ngram 1=46
ngram 2=156
ngram 3=359

\1-grams:
-1.3661 </s> -0.3010
-1.3661 <s> -0.2520
-2.3925 BAHNBUS -0.2771
-2.3661 BAHNHOF -0.2544
-2.6935 BUS -0.2771
-2.3661 CHURCH -0.2544
-2.2956 CONNECTIONS -0.2799
-2.0651 DISPLAY -0.2643
-2.3925 DREI -0.2771
-2.3925 EINS -0.2771
-2.3925 FIFTY -0.2771
-2.3661 FRIEDRICHSTRASSE -0.2544
-1.3661 FROM -0.2747
-2.3925 FUENFZIG -0.2771
-2.0651 GO -0.2973
-1.9733 GOES -0.2870
-2.2164 HOW -0.2984
-1.9733 IS -0.2870
-2.3661 KIRCHE -0.2544
-2.3661 LADENBURG -0.2544
-1.9733 LEAVES -0.2870
-1.9733 LEAVING -0.2619
-1.6424 LINE -0.2849
-2.2164 LONG -0.2984
-2.3661 MAIN -0.2973
-2.3661 MARKET -0.2544
-2.3661 MARKTPLATZ -0.2544
-2.3661 MATTHEUS -0.2992
-1.8890 NECKARAU -0.2935
-1.3661 NEXT -0.2799
-1.8642 NUMBER -0.2849
-2.3925 ONE -0.2771
-2.0651 SHOW -0.2643
-2.3925 SIXTY -0.2771
-2.0651 STATION -0.2544
-1.8042 STOP -0.2819
-1.4962 THE -0.2819
-2.3925 THREE -0.2771
-2.0651 TO -0.2643
-2.6935 TRAIN -0.2771
-2.6935 TRAM -0.2771
-2.3925 TWO -0.2771
-2.2164 UNTIL -0.2819
-2.3661 WEST -0.2544
-1.4962 WHEN -0.2870
-2.3413 WITH -0.2910

\2-grams:
-1.0000 <s> DISPLAY 0.0000
-1.0000 <s> GO 0.0000
-1.5492 <s> HOW 0.0000
-1.6284 <s> NEXT -0.2747
-1.0000 <s> SHOW 0.0000
-0.8290 <s> WHEN 0.0000
-0.4260 BAHNBUS FROM -0.0618
-0.9031 BAHNBUS LEAVING -0.0580
-0.4981 BAHNHOF </s> -0.3010
-1.1165 BAHNHOF FROM -0.2665
-0.9752 BAHNHOF STOP 0.0000
-1.4260 BUS CHURCH -0.2665
-1.4260 BUS FRIEDRICHSTRASSE -0.2665
-1.4260 BUS LADENBURG -0.2665
-0.9031 BUS LEAVING -0.2688
-1.4260 BUS MAIN 0.0000
-1.4260 BUS MARKET -0.2665
-1.4260 BUS MARKTPLATZ -0.2665
-1.4260 BUS MATTHEUS 0.0000
-0.9488 BUS NECKARAU 0.0000
-0.4981 CHURCH </s> -0.3010
-1.1165 CHURCH FROM -0.2665
-0.9752 CHURCH STOP 0.0000
-2.3010 CONNECTIONS CHURCH -0.2665
-2.3010 CONNECTIONS FRIEDRICHSTRASSE -0.2665
-2.3010 CONNECTIONS LADENBURG -0.2665
-2.3010 CONNECTIONS MAIN 0.0000
-2.3010 CONNECTIONS MARKET -0.2665
-2.3010 CONNECTIONS MARKTPLATZ -0.2665
-2.3010 CONNECTIONS MATTHEUS 0.0000
-1.8239 CONNECTIONS NECKARAU 0.0000
-0.3468 CONNECTIONS WITH 0.0000
-1.1513 DISPLAY HOW 0.0000
-1.2304 DISPLAY NEXT -0.2747
-0.4311 DISPLAY WHEN 0.0000
-0.4260 DREI FROM -0.0618
-0.9031 DREI LEAVING -0.0580
-0.4260 EINS FROM -0.0618
-0.9031 EINS LEAVING -0.0580
-0.4260 FIFTY FROM -0.0618
-0.9031 FIFTY LEAVING -0.0580
-0.4981 FRIEDRICHSTRASSE </s> -0.3010
-1.1165 FRIEDRICHSTRASSE FROM -0.2665
-0.9752 FRIEDRICHSTRASSE STOP 0.0000
-1.3731 FROM CHURCH -0.0618
-1.3731 FROM FRIEDRICHSTRASSE -0.0618
-1.3731 FROM LADENBURG -0.0618
-1.3731 FROM MAIN 0.0000
-1.3731 FROM MARKET -0.0618
-1.3731 FROM MARKTPLATZ -0.0618
-1.3731 FROM MATTHEUS 0.0000
-0.8960 FROM NECKARAU 0.0000
-1.1165 FROM STOP 0.0000
-0.4260 FUENFZIG FROM -0.0618
-0.9031 FUENFZIG LEAVING -0.0580
-0.3010 GO TO 0.0000
-0.3010 GOES THE 0.0000
-0.3010 HOW LONG 0.0000
-0.3010 IS THE 0.0000
-0.4981 KIRCHE </s> -0.3010
-1.1165 KIRCHE FROM -0.2665
-0.9752 KIRCHE STOP 0.0000
-0.4981 LADENBURG </s> -0.3010
-1.1165 LADENBURG FROM -0.2665
-0.9752 LADENBURG STOP 0.0000
-0.3010 LEAVES THE 0.0000
-2.1461 LEAVING CHURCH -0.2665
-2.1461 LEAVING FRIEDRICHSTRASSE -0.2665
-0.3680 LEAVING FROM -0.0618
-2.1461 LEAVING LADENBURG -0.2665
-2.1461 LEAVING MAIN 0.0000
-2.1461 LEAVING MARKET -0.2665
-2.1461 LEAVING MARKTPLATZ -0.2665
-2.1461 LEAVING MATTHEUS 0.0000
-1.6690 LEAVING NECKARAU 0.0000
-1.2553 LINE BAHNBUS 0.0000
-1.2553 LINE DREI 0.0000
-1.2553 LINE EINS 0.0000
-1.2553 LINE FIFTY 0.0000
-1.2553 LINE FUENFZIG 0.0000
-1.2553 LINE ONE 0.0000
-1.2553 LINE SIXTY 0.0000
-1.2553 LINE THREE 0.0000
-1.2553 LINE TWO 0.0000
-0.3010 LONG UNTIL 0.0000
-0.3010 MAIN STATION 0.0000
-0.4981 MARKET </s> -0.3010
-1.1165 MARKET FROM -0.2665
-0.9752 MARKET STOP 0.0000
-0.4981 MARKTPLATZ </s> -0.3010
-1.1165 MARKTPLATZ FROM -0.2665
-0.9752 MARKTPLATZ STOP 0.0000
-0.3010 MATTHEUS KIRCHE 0.0000
-0.7782 NECKARAU BAHNHOF 0.0000
-0.7782 NECKARAU STATION 0.0000
-0.7782 NECKARAU WEST 0.0000
-1.6284 NEXT BUS 0.0000
-1.2304 NEXT CONNECTIONS 0.0000
-0.6741 NEXT LINE 0.0000
-0.7991 NEXT NUMBER 0.0000
-1.6284 NEXT TRAIN 0.0000
-1.6284 NEXT TRAM 0.0000
-1.2553 NUMBER BAHNBUS 0.0000
-1.2553 NUMBER DREI 0.0000
-1.2553 NUMBER EINS 0.0000
-1.2553 NUMBER FIFTY 0.0000
-1.2553 NUMBER FUENFZIG 0.0000
-1.2553 NUMBER ONE 0.0000
-1.2553 NUMBER SIXTY 0.0000
-1.2553 NUMBER THREE 0.0000
-1.2553 NUMBER TWO 0.0000
-0.4260 ONE FROM -0.0618
-0.9031 ONE LEAVING -0.0580
-1.1513 SHOW HOW 0.0000
-1.2304 SHOW NEXT -0.2747
-0.4311 SHOW WHEN 0.0000
-0.4260 SIXTY FROM -0.0618
-0.9031 SIXTY LEAVING -0.0580
-0.4981 STATION </s> -0.3010
-1.1165 STATION FROM -0.2665
-0.9752 STATION STOP 0.0000
-0.3010 STOP </s> -0.3010
-0.3010 THE NEXT -0.0483
-0.4260 THREE FROM -0.0618
-0.9031 THREE LEAVING -0.0580
-1.1513 TO HOW 0.0000
-1.2304 TO NEXT -0.2747
-0.4311 TO WHEN 0.0000
-1.4260 TRAIN CHURCH -0.2665
-1.4260 TRAIN FRIEDRICHSTRASSE -0.2665
-1.4260 TRAIN LADENBURG -0.2665
-0.9031 TRAIN LEAVING -0.2688
-1.4260 TRAIN MAIN 0.0000
-1.4260 TRAIN MARKET -0.2665
-1.4260 TRAIN MARKTPLATZ -0.2665
-1.4260 TRAIN MATTHEUS 0.0000
-0.9488 TRAIN NECKARAU 0.0000
-1.4260 TRAM CHURCH -0.2665
-1.4260 TRAM FRIEDRICHSTRASSE -0.2665
-1.4260 TRAM LADENBURG -0.2665
-0.9031 TRAM LEAVING -0.2688
-1.4260 TRAM MAIN 0.0000
-1.4260 TRAM MARKET -0.2665
-1.4260 TRAM MARKTPLATZ -0.2665
-1.4260 TRAM MATTHEUS 0.0000
-0.9488 TRAM NECKARAU 0.0000
-0.4260 TWO FROM -0.0618
-0.9031 TWO LEAVING -0.0580
-0.3010 UNTIL NEXT -0.1569
-0.4981 WEST </s> -0.3010
-1.1165 WEST FROM -0.2665
-0.9752 WEST STOP 0.0000
-0.7782 WHEN GOES 0.0000
-0.7782 WHEN IS 0.0000
-0.7782 WHEN LEAVES 0.0000
-0.3010 WITH LINE 0.0000

\3-grams:
-1.1513 <s> DISPLAY HOW
-1.2304 <s> DISPLAY NEXT
-0.4311 <s> DISPLAY WHEN
-0.3010 <s> GO TO
-0.3010 <s> HOW LONG
-0.3010 <s> NEXT CONNECTIONS
-1.1513 <s> SHOW HOW
-1.2304 <s> SHOW NEXT
-0.4311 <s> SHOW WHEN
-0.7782 <s> WHEN GOES
-0.7782 <s> WHEN IS
-0.7782 <s> WHEN LEAVES
-1.3010 BAHNBUS FROM CHURCH
-1.3010 BAHNBUS FROM FRIEDRICHSTRASSE
-1.3010 BAHNBUS FROM LADENBURG
-1.3010 BAHNBUS FROM MAIN
-1.3010 BAHNBUS FROM MARKET
-1.3010 BAHNBUS FROM MARKTPLATZ
-1.3010 BAHNBUS FROM MATTHEUS
-0.8239 BAHNBUS FROM NECKARAU
-0.3010 BAHNBUS LEAVING FROM
-0.3010 BAHNHOF FROM STOP
-0.3010 BAHNHOF STOP </s>
-0.3010 BUS CHURCH FROM
-0.3010 BUS FRIEDRICHSTRASSE FROM
-0.3010 BUS LADENBURG FROM
-1.3010 BUS LEAVING CHURCH
-1.3010 BUS LEAVING FRIEDRICHSTRASSE
-1.3010 BUS LEAVING LADENBURG
-1.3010 BUS LEAVING MAIN
-1.3010 BUS LEAVING MARKET
-1.3010 BUS LEAVING MARKTPLATZ
-1.3010 BUS LEAVING MATTHEUS
-0.8239 BUS LEAVING NECKARAU
-0.3010 BUS MAIN STATION
-0.3010 BUS MARKET FROM
-0.3010 BUS MARKTPLATZ FROM
-0.3010 BUS MATTHEUS KIRCHE
-0.7782 BUS NECKARAU BAHNHOF
-0.7782 BUS NECKARAU STATION
-0.7782 BUS NECKARAU WEST
-0.3010 CHURCH FROM STOP
-0.3010 CHURCH STOP </s>
-0.3010 CONNECTIONS CHURCH FROM
-0.3010 CONNECTIONS FRIEDRICHSTRASSE FROM
-0.3010 CONNECTIONS LADENBURG FROM
-0.3010 CONNECTIONS MAIN STATION
-0.3010 CONNECTIONS MARKET FROM
-0.3010 CONNECTIONS MARKTPLATZ FROM
-0.3010 CONNECTIONS MATTHEUS KIRCHE
-0.7782 CONNECTIONS NECKARAU BAHNHOF
-0.7782 CONNECTIONS NECKARAU STATION
-0.7782 CONNECTIONS NECKARAU WEST
-0.3010 CONNECTIONS WITH LINE
-0.3010 DISPLAY HOW LONG
-0.3010 DISPLAY NEXT CONNECTIONS
-0.7782 DISPLAY WHEN GOES
-0.7782 DISPLAY WHEN IS
-0.7782 DISPLAY WHEN LEAVES
-1.3010 DREI FROM CHURCH
-1.3010 DREI FROM FRIEDRICHSTRASSE
-1.3010 DREI FROM LADENBURG
-1.3010 DREI FROM MAIN
-1.3010 DREI FROM MARKET
-1.3010 DREI FROM MARKTPLATZ
-1.3010 DREI FROM MATTHEUS
-0.8239 DREI FROM NECKARAU
-0.3010 DREI LEAVING FROM
-1.3010 EINS FROM CHURCH
-1.3010 EINS FROM FRIEDRICHSTRASSE
-1.3010 EINS FROM LADENBURG
-1.3010 EINS FROM MAIN
-1.3010 EINS FROM MARKET
-1.3010 EINS FROM MARKTPLATZ
-1.3010 EINS FROM MATTHEUS
-0.8239 EINS FROM NECKARAU
-0.3010 EINS LEAVING FROM
-1.3010 FIFTY FROM CHURCH
-1.3010 FIFTY FROM FRIEDRICHSTRASSE
-1.3010 FIFTY FROM LADENBURG
-1.3010 FIFTY FROM MAIN
-1.3010 FIFTY FROM MARKET
-1.3010 FIFTY FROM MARKTPLATZ
-1.3010 FIFTY FROM MATTHEUS
-0.8239 FIFTY FROM NECKARAU
-0.3010 FIFTY LEAVING FROM
-0.3010 FRIEDRICHSTRASSE FROM STOP
-0.3010 FRIEDRICHSTRASSE STOP </s>
-0.4260 FROM CHURCH </s>
-0.9031 FROM CHURCH STOP
-0.4260 FROM FRIEDRICHSTRASSE </s>
-0.9031 FROM FRIEDRICHSTRASSE STOP
-0.4260 FROM LADENBURG </s>
-0.9031 FROM LADENBURG STOP
-0.3010 FROM MAIN STATION
-0.4260 FROM MARKET </s>
-0.9031 FROM MARKET STOP
-0.4260 FROM MARKTPLATZ </s>
-0.9031 FROM MARKTPLATZ STOP
-0.3010 FROM MATTHEUS KIRCHE
-0.7782 FROM NECKARAU BAHNHOF
-0.7782 FROM NECKARAU STATION
-0.7782 FROM NECKARAU WEST
-0.3010 FROM STOP </s>
-1.3010 FUENFZIG FROM CHURCH
-1.3010 FUENFZIG FROM FRIEDRICHSTRASSE
-1.3010 FUENFZIG FROM LADENBURG
-1.3010 FUENFZIG FROM MAIN
-1.3010 FUENFZIG FROM MARKET
-1.3010 FUENFZIG FROM MARKTPLATZ
-1.3010 FUENFZIG FROM MATTHEUS
-0.8239 FUENFZIG FROM NECKARAU
-0.3010 FUENFZIG LEAVING FROM
-1.1513 GO TO HOW
-1.2304 GO TO NEXT
-0.4311 GO TO WHEN
-0.3010 GOES THE NEXT
-0.3010 HOW LONG UNTIL
-0.3010 IS THE NEXT
-0.3010 KIRCHE FROM STOP
-0.3010 KIRCHE STOP </s>
-0.3010 LADENBURG FROM STOP
-0.3010 LADENBURG STOP </s>
-0.3010 LEAVES THE NEXT
-0.3010 LEAVING CHURCH FROM
-0.3010 LEAVING FRIEDRICHSTRASSE FROM
-1.3010 LEAVING FROM CHURCH
-1.3010 LEAVING FROM FRIEDRICHSTRASSE
-1.3010 LEAVING FROM LADENBURG
-1.3010 LEAVING FROM MAIN
-1.3010 LEAVING FROM MARKET
-1.3010 LEAVING FROM MARKTPLATZ
-1.3010 LEAVING FROM MATTHEUS
-0.8239 LEAVING FROM NECKARAU
-0.3010 LEAVING LADENBURG FROM
-0.3010 LEAVING MAIN STATION
-0.3010 LEAVING MARKET FROM
-0.3010 LEAVING MARKTPLATZ FROM
-0.3010 LEAVING MATTHEUS KIRCHE
-0.7782 LEAVING NECKARAU BAHNHOF
-0.7782 LEAVING NECKARAU STATION
-0.7782 LEAVING NECKARAU WEST
-0.3979 LINE BAHNBUS FROM
-1.0000 LINE BAHNBUS LEAVING
-0.3979 LINE DREI FROM
-1.0000 LINE DREI LEAVING
-0.3979 LINE EINS FROM
-1.0000 LINE EINS LEAVING
-0.3979 LINE FIFTY FROM
-1.0000 LINE FIFTY LEAVING
-0.3979 LINE FUENFZIG FROM
-1.0000 LINE FUENFZIG LEAVING
-0.3979 LINE ONE FROM
-1.0000 LINE ONE LEAVING
-0.3979 LINE SIXTY FROM
-1.0000 LINE SIXTY LEAVING
-0.3979 LINE THREE FROM
-1.0000 LINE THREE LEAVING
-0.3979 LINE TWO FROM
-1.0000 LINE TWO LEAVING
-0.3010 LONG UNTIL NEXT
-0.4981 MAIN STATION </s>
-1.1165 MAIN STATION FROM
-0.9752 MAIN STATION STOP
-0.3010 MARKET FROM STOP
-0.3010 MARKET STOP </s>
-0.3010 MARKTPLATZ FROM STOP
-0.3010 MARKTPLATZ STOP </s>
-0.4981 MATTHEUS KIRCHE </s>
-1.1165 MATTHEUS KIRCHE FROM
-0.9752 MATTHEUS KIRCHE STOP
-0.4981 NECKARAU BAHNHOF </s>
-1.1165 NECKARAU BAHNHOF FROM
-0.9752 NECKARAU BAHNHOF STOP
-0.4981 NECKARAU STATION </s>
-1.1165 NECKARAU STATION FROM
-0.9752 NECKARAU STATION STOP
-0.4981 NECKARAU WEST </s>
-1.1165 NECKARAU WEST FROM
-0.9752 NECKARAU WEST STOP
-1.4260 NEXT BUS CHURCH
-1.4260 NEXT BUS FRIEDRICHSTRASSE
-1.4260 NEXT BUS LADENBURG
-0.9031 NEXT BUS LEAVING
-1.4260 NEXT BUS MAIN
-1.4260 NEXT BUS MARKET
-1.4260 NEXT BUS MARKTPLATZ
-1.4260 NEXT BUS MATTHEUS
-0.9488 NEXT BUS NECKARAU
-2.3010 NEXT CONNECTIONS CHURCH
-2.3010 NEXT CONNECTIONS FRIEDRICHSTRASSE
-2.3010 NEXT CONNECTIONS LADENBURG
-2.3010 NEXT CONNECTIONS MAIN
-2.3010 NEXT CONNECTIONS MARKET
-2.3010 NEXT CONNECTIONS MARKTPLATZ
-2.3010 NEXT CONNECTIONS MATTHEUS
-1.8239 NEXT CONNECTIONS NECKARAU
-0.3468 NEXT CONNECTIONS WITH
-1.2553 NEXT LINE BAHNBUS
-1.2553 NEXT LINE DREI
-1.2553 NEXT LINE EINS
-1.2553 NEXT LINE FIFTY
-1.2553 NEXT LINE FUENFZIG
-1.2553 NEXT LINE ONE
-1.2553 NEXT LINE SIXTY
-1.2553 NEXT LINE THREE
-1.2553 NEXT LINE TWO
-1.2553 NEXT NUMBER BAHNBUS
-1.2553 NEXT NUMBER DREI
-1.2553 NEXT NUMBER EINS
-1.2553 NEXT NUMBER FIFTY
-1.2553 NEXT NUMBER FUENFZIG
-1.2553 NEXT NUMBER ONE
-1.2553 NEXT NUMBER SIXTY
-1.2553 NEXT NUMBER THREE
-1.2553 NEXT NUMBER TWO
-1.4260 NEXT TRAIN CHURCH
-1.4260 NEXT TRAIN FRIEDRICHSTRASSE
-1.4260 NEXT TRAIN LADENBURG
-0.9031 NEXT TRAIN LEAVING
-1.4260 NEXT TRAIN MAIN
-1.4260 NEXT TRAIN MARKET
-1.4260 NEXT TRAIN MARKTPLATZ
-1.4260 NEXT TRAIN MATTHEUS
-0.9488 NEXT TRAIN NECKARAU
-1.4260 NEXT TRAM CHURCH
-1.4260 NEXT TRAM FRIEDRICHSTRASSE
-1.4260 NEXT TRAM LADENBURG
-0.9031 NEXT TRAM LEAVING
-1.4260 NEXT TRAM MAIN
-1.4260 NEXT TRAM MARKET
-1.4260 NEXT TRAM MARKTPLATZ
-1.4260 NEXT TRAM MATTHEUS
-0.9488 NEXT TRAM NECKARAU
-0.4771 NUMBER BAHNBUS FROM
-0.7782 NUMBER BAHNBUS LEAVING
-0.4771 NUMBER DREI FROM
-0.7782 NUMBER DREI LEAVING
-0.4771 NUMBER EINS FROM
-0.7782 NUMBER EINS LEAVING
-0.4771 NUMBER FIFTY FROM
-0.7782 NUMBER FIFTY LEAVING
-0.4771 NUMBER FUENFZIG FROM
-0.7782 NUMBER FUENFZIG LEAVING
-0.4771 NUMBER ONE FROM
-0.7782 NUMBER ONE LEAVING
-0.4771 NUMBER SIXTY FROM
-0.7782 NUMBER SIXTY LEAVING
-0.4771 NUMBER THREE FROM
-0.7782 NUMBER THREE LEAVING
-0.4771 NUMBER TWO FROM
-0.7782 NUMBER TWO LEAVING
-1.3010 ONE FROM CHURCH
-1.3010 ONE FROM FRIEDRICHSTRASSE
-1.3010 ONE FROM LADENBURG
-1.3010 ONE FROM MAIN
-1.3010 ONE FROM MARKET
-1.3010 ONE FROM MARKTPLATZ
-1.3010 ONE FROM MATTHEUS
-0.8239 ONE FROM NECKARAU
-0.3010 ONE LEAVING FROM
-0.3010 SHOW HOW LONG
-0.3010 SHOW NEXT CONNECTIONS
-0.7782 SHOW WHEN GOES
-0.7782 SHOW WHEN IS
-0.7782 SHOW WHEN LEAVES
-1.3010 SIXTY FROM CHURCH
-1.3010 SIXTY FROM FRIEDRICHSTRASSE
-1.3010 SIXTY FROM LADENBURG
-1.3010 SIXTY FROM MAIN
-1.3010 SIXTY FROM MARKET
-1.3010 SIXTY FROM MARKTPLATZ
-1.3010 SIXTY FROM MATTHEUS
-0.8239 SIXTY FROM NECKARAU
-0.3010 SIXTY LEAVING FROM
-0.3010 STATION FROM STOP
-0.3010 STATION STOP </s>
-1.6232 THE NEXT BUS
-0.6690 THE NEXT LINE
-0.6690 THE NEXT NUMBER
-1.6232 THE NEXT TRAIN
-1.6232 THE NEXT TRAM
-1.3010 THREE FROM CHURCH
-1.3010 THREE FROM FRIEDRICHSTRASSE
-1.3010 THREE FROM LADENBURG
-1.3010 THREE FROM MAIN
-1.3010 THREE FROM MARKET
-1.3010 THREE FROM MARKTPLATZ
-1.3010 THREE FROM MATTHEUS
-0.8239 THREE FROM NECKARAU
-0.3010 THREE LEAVING FROM
-0.3010 TO HOW LONG
-0.3010 TO NEXT CONNECTIONS
-0.7782 TO WHEN GOES
-0.7782 TO WHEN IS
-0.7782 TO WHEN LEAVES
-0.3010 TRAIN CHURCH FROM
-0.3010 TRAIN FRIEDRICHSTRASSE FROM
-0.3010 TRAIN LADENBURG FROM
-1.3010 TRAIN LEAVING CHURCH
-1.3010 TRAIN LEAVING FRIEDRICHSTRASSE
-1.3010 TRAIN LEAVING LADENBURG
-1.3010 TRAIN LEAVING MAIN
-1.3010 TRAIN LEAVING MARKET
-1.3010 TRAIN LEAVING MARKTPLATZ
-1.3010 TRAIN LEAVING MATTHEUS
-0.8239 TRAIN LEAVING NECKARAU
-0.3010 TRAIN MAIN STATION
-0.3010 TRAIN MARKET FROM
-0.3010 TRAIN MARKTPLATZ FROM
-0.3010 TRAIN MATTHEUS KIRCHE
-0.7782 TRAIN NECKARAU BAHNHOF
-0.7782 TRAIN NECKARAU STATION
-0.7782 TRAIN NECKARAU WEST
-0.3010 TRAM CHURCH FROM
-0.3010 TRAM FRIEDRICHSTRASSE FROM
-0.3010 TRAM LADENBURG FROM
-1.3010 TRAM LEAVING CHURCH
-1.3010 TRAM LEAVING FRIEDRICHSTRASSE
-1.3010 TRAM LEAVING LADENBURG
-1.3010 TRAM LEAVING MAIN
-1.3010 TRAM LEAVING MARKET
-1.3010 TRAM LEAVING MARKTPLATZ
-1.3010 TRAM LEAVING MATTHEUS
-0.8239 TRAM LEAVING NECKARAU
-0.3010 TRAM MAIN STATION
-0.3010 TRAM MARKET FROM
-0.3010 TRAM MARKTPLATZ FROM
-0.3010 TRAM MATTHEUS KIRCHE
-0.7782 TRAM NECKARAU BAHNHOF
-0.7782 TRAM NECKARAU STATION
-0.7782 TRAM NECKARAU WEST
-1.3010 TWO FROM CHURCH
-1.3010 TWO FROM FRIEDRICHSTRASSE
-1.3010 TWO FROM LADENBURG
-1.3010 TWO FROM MAIN
-1.3010 TWO FROM MARKET
-1.3010 TWO FROM MARKTPLATZ
-1.3010 TWO FROM MATTHEUS
-0.8239 TWO FROM NECKARAU
-0.3010 TWO LEAVING FROM
-1.3802 UNTIL NEXT BUS
-0.4260 UNTIL NEXT LINE
-1.3802 UNTIL NEXT TRAIN
-1.3802 UNTIL NEXT TRAM
-0.3010 WEST FROM STOP
-0.3010 WEST STOP </s>
-0.3010 WHEN GOES THE
-0.3010 WHEN IS THE
-0.3010 WHEN LEAVES THE
-1.2553 WITH LINE BAHNBUS
-1.2553 WITH LINE DREI
-1.2553 WITH LINE EINS
-1.2553 WITH LINE FIFTY
-1.2553 WITH LINE FUENFZIG
-1.2553 WITH LINE ONE
-1.2553 WITH LINE SIXTY
-1.2553 WITH LINE THREE
-1.2553 WITH LINE TWO

\end\
