Language model created by QuickLM on Wed May 30 15:13:47 EDT 2018
Copyright (c) 1996-2010 Carnegie Mellon University and Alexander I. Rudnicky

The model is in standard ARPA format, designed by Doug Paul while he was at MITRE.

The code that was used to produce this language model is available in Open Source.
Please visit http://www.speech.cs.cmu.edu/tools/ for more information

The (fixed) discount mass is 0.5. The backoffs are computed using the ratio method.
This model based on a corpus of 25056 sentences and 610 words

\data\
ngram 1=610
ngram 2=3269
ngram 3=8222

\1-grams:
-1.2030 </s> -0.3010
-1.2030 <s> -0.2177
-2.0456 AI'S -0.2677
-2.5832 AI;CALENDAR;M_N -0.2729
-2.5832 AI;CALENDAR;W_O_M_N -0.2729
-2.9934 APRIL -0.2772
-3.5375 APRIL;CALENDAR;D_O_M -0.2729
-2.8843 APRIL;CALENDAR;D_O_M_N -0.2729
-4.1548 APRIL;CALENDAR;WD_O_M -0.2729
-3.6777 APRIL;CALENDAR;WD_O_M_N -0.2729
-3.6575 APRIL;CALENDAR;W_O_M -0.2729
-4.5228 APRIL;CALENDAR;W_O_M_N -0.2729
-4.6477 APRILEIGHTEENTH -0.2907
-4.6477 APRILEIGTH -0.2907
-4.6477 APRILELEVENTH -0.2907
-4.6477 APRILFIFTEENTH -0.2907
-4.6477 APRILFIFTH -0.2907
-4.6477 APRILFIRST -0.2907
-4.6477 APRILFOURTEENTH -0.2907
-4.6477 APRILFOURTH -0.2907
-4.6477 APRILNINETEENTH -0.2907
-4.6477 APRILNINTH -0.2907
-4.6477 APRILSECOND -0.2907
-4.6477 APRILSEVENTEENTH -0.2907
-4.6477 APRILSEVENTH -0.2907
-4.6477 APRILSIXTEENTH -0.2907
-4.6477 APRILSIXTH -0.2907
-4.6477 APRILTHIRD -0.2907
-4.6477 APRILTHIRTEENTH -0.2907
-4.6477 APRILTHIRTIETH -0.2907
-4.6477 APRILTHIRTY-FIRST -0.2907
-4.6477 APRILTWENTIETH -0.2907
-4.6477 APRILTWENTY-EIGTH -0.2907
-4.6477 APRILTWENTY-FIFTH -0.2907
-4.6477 APRILTWENTY-FIRST -0.2907
-4.6477 APRILTWENTY-FOURTH -0.2907
-4.6477 APRILTWENTY-NINTH -0.2907
-4.6477 APRILTWENTY-SECOND -0.2907
-4.6477 APRILTWENTY-SEVENTH -0.2907
-4.6477 APRILTWENTY-SIXTH -0.2907
-4.6477 APRILTWENTY-THIRD -0.2907
-2.9934 AUGUST -0.2772
-3.5375 AUGUST;CALENDAR;D_O_M -0.2729
-2.8843 AUGUST;CALENDAR;D_O_M_N -0.2729
-4.1548 AUGUST;CALENDAR;WD_O_M -0.2729
-3.6777 AUGUST;CALENDAR;WD_O_M_N -0.2729
-3.6575 AUGUST;CALENDAR;W_O_M -0.2729
-4.5228 AUGUST;CALENDAR;W_O_M_N -0.2729
-4.6477 AUGUSTEIGHTEENTH -0.2907
-4.6477 AUGUSTEIGTH -0.2907
-4.6477 AUGUSTELEVENTH -0.2907
-4.6477 AUGUSTFIFTEENTH -0.2907
-4.6477 AUGUSTFIFTH -0.2907
-4.6477 AUGUSTFIRST -0.2907
-4.6477 AUGUSTFOURTEENTH -0.2907
-4.6477 AUGUSTFOURTH -0.2907
-4.6477 AUGUSTNINETEENTH -0.2907
-4.6477 AUGUSTNINTH -0.2907
-4.6477 AUGUSTSECOND -0.2907
-4.6477 AUGUSTSEVENTEENTH -0.2907
-4.6477 AUGUSTSEVENTH -0.2907
-4.6477 AUGUSTSIXTEENTH -0.2907
-4.6477 AUGUSTSIXTH -0.2907
-4.6477 AUGUSTTHIRD -0.2907
-4.6477 AUGUSTTHIRTEENTH -0.2907
-4.6477 AUGUSTTHIRTIETH -0.2907
-4.6477 AUGUSTTHIRTY-FIRST -0.2907
-4.6477 AUGUSTTWENTIETH -0.2907
-4.6477 AUGUSTTWENTY-EIGTH -0.2907
-4.6477 AUGUSTTWENTY-FIFTH -0.2907
-4.6477 AUGUSTTWENTY-FIRST -0.2907
-4.6477 AUGUSTTWENTY-FOURTH -0.2907
-4.6477 AUGUSTTWENTY-NINTH -0.2907
-4.6477 AUGUSTTWENTY-SECOND -0.2907
-4.6477 AUGUSTTWENTY-SEVENTH -0.2907
-4.6477 AUGUSTTWENTY-SIXTH -0.2907
-4.6477 AUGUSTTWENTY-THIRD -0.2907
-2.0456 BENJAMIN'S -0.2677
-2.5832 BENJAMIN;CALENDAR;M_N -0.2729
-2.5832 BENJAMIN;CALENDAR;W_O_M_N -0.2729
-1.6290 CALENDAR -0.2609
-2.9934 DECEMBER -0.2772
-3.5375 DECEMBER;CALENDAR;D_O_M -0.2729
-2.8843 DECEMBER;CALENDAR;D_O_M_N -0.2729
-4.1548 DECEMBER;CALENDAR;WD_O_M -0.2729
-3.6777 DECEMBER;CALENDAR;WD_O_M_N -0.2729
-3.6575 DECEMBER;CALENDAR;W_O_M -0.2729
-4.5228 DECEMBER;CALENDAR;W_O_M_N -0.2729
-4.6477 DECEMBEREIGHTEENTH -0.2907
-4.6477 DECEMBEREIGTH -0.2907
-4.6477 DECEMBERELEVENTH -0.2907
-4.6477 DECEMBERFIFTEENTH -0.2907
-4.6477 DECEMBERFIFTH -0.2907
-4.6477 DECEMBERFIRST -0.2907
-4.6477 DECEMBERFOURTEENTH -0.2907
-4.6477 DECEMBERFOURTH -0.2907
-4.6477 DECEMBERNINETEENTH -0.2907
-4.6477 DECEMBERNINTH -0.2907
-4.6477 DECEMBERSECOND -0.2907
-4.6477 DECEMBERSEVENTEENTH -0.2907
-4.6477 DECEMBERSEVENTH -0.2907
-4.6477 DECEMBERSIXTEENTH -0.2907
-4.6477 DECEMBERSIXTH -0.2907
-4.6477 DECEMBERTHIRD -0.2907
-4.6477 DECEMBERTHIRTEENTH -0.2907
-4.6477 DECEMBERTHIRTIETH -0.2907
-4.6477 DECEMBERTHIRTY-FIRST -0.2907
-4.6477 DECEMBERTWENTIETH -0.2907
-4.6477 DECEMBERTWENTY-EIGTH -0.2907
-4.6477 DECEMBERTWENTY-FIFTH -0.2907
-4.6477 DECEMBERTWENTY-FIRST -0.2907
-4.6477 DECEMBERTWENTY-FOURTH -0.2907
-4.6477 DECEMBERTWENTY-NINTH -0.2907
-4.6477 DECEMBERTWENTY-SECOND -0.2907
-4.6477 DECEMBERTWENTY-SEVENTH -0.2907
-4.6477 DECEMBERTWENTY-SIXTH -0.2907
-4.6477 DECEMBERTWENTY-THIRD -0.2907
-1.6935 DISPLAY -0.2421
-3.0604 DISPLAYWEEK -0.2812
-2.8326 EIGHTEENTH -0.2537
-4.5228 EIGHTEENTH;CALENDAR;D_O_M -0.2729
-3.9207 EIGHTEENTH;CALENDAR;W_B_D -0.2729
-3.5685 EIGHTEENTH;CALENDAR;W_B_D_N -0.2729
-2.8326 EIGTH -0.2537
-4.5228 EIGTH;CALENDAR;D_O_M -0.2729
-3.9207 EIGTH;CALENDAR;W_B_D -0.2729
-3.5685 EIGTH;CALENDAR;W_B_D_N -0.2729
-2.8326 ELEVENTH -0.2537
-4.5228 ELEVENTH;CALENDAR;D_O_M -0.2729
-3.9207 ELEVENTH;CALENDAR;W_B_D -0.2729
-3.5685 ELEVENTH;CALENDAR;W_B_D_N -0.2729
-2.0456 ERIK'S -0.2677
-2.5832 ERIK;CALENDAR;M_N -0.2729
-2.5832 ERIK;CALENDAR;W_O_M_N -0.2729
-2.9934 FEBRUARY -0.2772
-3.5375 FEBRUARY;CALENDAR;D_O_M -0.2729
-2.8843 FEBRUARY;CALENDAR;D_O_M_N -0.2729
-4.1548 FEBRUARY;CALENDAR;WD_O_M -0.2729
-3.6777 FEBRUARY;CALENDAR;WD_O_M_N -0.2729
-3.6575 FEBRUARY;CALENDAR;W_O_M -0.2729
-4.5228 FEBRUARY;CALENDAR;W_O_M_N -0.2729
-4.6477 FEBRUARYEIGHTEENTH -0.2907
-4.6477 FEBRUARYEIGTH -0.2907
-4.6477 FEBRUARYELEVENTH -0.2907
-4.6477 FEBRUARYFIFTEENTH -0.2907
-4.6477 FEBRUARYFIFTH -0.2907
-4.6477 FEBRUARYFIRST -0.2907
-4.6477 FEBRUARYFOURTEENTH -0.2907
-4.6477 FEBRUARYFOURTH -0.2907
-4.6477 FEBRUARYNINETEENTH -0.2907
-4.6477 FEBRUARYNINTH -0.2907
-4.6477 FEBRUARYSECOND -0.2907
-4.6477 FEBRUARYSEVENTEENTH -0.2907
-4.6477 FEBRUARYSEVENTH -0.2907
-4.6477 FEBRUARYSIXTEENTH -0.2907
-4.6477 FEBRUARYSIXTH -0.2907
-4.6477 FEBRUARYTHIRD -0.2907
-4.6477 FEBRUARYTHIRTEENTH -0.2907
-4.6477 FEBRUARYTHIRTIETH -0.2907
-4.6477 FEBRUARYTHIRTY-FIRST -0.2907
-4.6477 FEBRUARYTWENTIETH -0.2907
-4.6477 FEBRUARYTWENTY-EIGTH -0.2907
-4.6477 FEBRUARYTWENTY-FIFTH -0.2907
-4.6477 FEBRUARYTWENTY-FIRST -0.2907
-4.6477 FEBRUARYTWENTY-FOURTH -0.2907
-4.6477 FEBRUARYTWENTY-NINTH -0.2907
-4.6477 FEBRUARYTWENTY-SECOND -0.2907
-4.6477 FEBRUARYTWENTY-SEVENTH -0.2907
-4.6477 FEBRUARYTWENTY-SIXTH -0.2907
-4.6477 FEBRUARYTWENTY-THIRD -0.2907
-2.8326 FIFTEENTH -0.2537
-4.5228 FIFTEENTH;CALENDAR;D_O_M -0.2729
-3.9207 FIFTEENTH;CALENDAR;W_B_D -0.2729
-3.5685 FIFTEENTH;CALENDAR;W_B_D_N -0.2729
-2.8326 FIFTH -0.2537
-4.5228 FIFTH;CALENDAR;D_O_M -0.2729
-3.9207 FIFTH;CALENDAR;W_B_D -0.2729
-3.5685 FIFTH;CALENDAR;W_B_D_N -0.2729
-2.5142 FIRST -0.2517
-4.5228 FIRST;CALENDAR;D_O_M -0.2729
-3.9207 FIRST;CALENDAR;W_B_D -0.2729
-3.5685 FIRST;CALENDAR;W_B_D_N -0.2729
-1.6290 FOR -0.2819
-3.6777 FORAI;CALENDAR;N_WD_N -0.2729
-2.5832 FORAI;CALENDAR;W_B_D_N -0.2729
-3.6777 FORBENJAMIN;CALENDAR;N_WD_N -0.2729
-2.5832 FORBENJAMIN;CALENDAR;W_B_D_N -0.2729
-3.6777 FORERIK;CALENDAR;N_WD_N -0.2729
-2.5832 FORERIK;CALENDAR;W_B_D_N -0.2729
-2.8326 FOURTEENTH -0.2537
-4.5228 FOURTEENTH;CALENDAR;D_O_M -0.2729
-3.9207 FOURTEENTH;CALENDAR;W_B_D -0.2729
-3.5685 FOURTEENTH;CALENDAR;W_B_D_N -0.2729
-2.5142 FOURTH -0.2517
-4.5228 FOURTH;CALENDAR;D_O_M -0.2729
-3.9207 FOURTH;CALENDAR;W_B_D -0.2729
-3.5685 FOURTH;CALENDAR;W_B_D_N -0.2729
-3.2440 FRIDAY -0.2809
-4.5228 FRIDAY;CALENDAR;N_WD -0.2729
-4.0456 FRIDAY;CALENDAR;N_WD_N -0.2729
-1.7389 GO -0.2930
-2.9934 JANUARY -0.2772
-3.5375 JANUARY;CALENDAR;D_O_M -0.2729
-2.8843 JANUARY;CALENDAR;D_O_M_N -0.2729
-4.1548 JANUARY;CALENDAR;WD_O_M -0.2729
-3.6777 JANUARY;CALENDAR;WD_O_M_N -0.2729
-3.6575 JANUARY;CALENDAR;W_O_M -0.2729
-4.5228 JANUARY;CALENDAR;W_O_M_N -0.2729
-4.6477 JANUARYEIGHTEENTH -0.2907
-4.6477 JANUARYEIGTH -0.2907
-4.6477 JANUARYELEVENTH -0.2907
-4.6477 JANUARYFIFTEENTH -0.2907
-4.6477 JANUARYFIFTH -0.2907
-4.6477 JANUARYFIRST -0.2907
-4.6477 JANUARYFOURTEENTH -0.2907
-4.6477 JANUARYFOURTH -0.2907
-4.6477 JANUARYNINETEENTH -0.2907
-4.6477 JANUARYNINTH -0.2907
-4.6477 JANUARYSECOND -0.2907
-4.6477 JANUARYSEVENTEENTH -0.2907
-4.6477 JANUARYSEVENTH -0.2907
-4.6477 JANUARYSIXTEENTH -0.2907
-4.6477 JANUARYSIXTH -0.2907
-4.6477 JANUARYTHIRD -0.2907
-4.6477 JANUARYTHIRTEENTH -0.2907
-4.6477 JANUARYTHIRTIETH -0.2907
-4.6477 JANUARYTHIRTY-FIRST -0.2907
-4.6477 JANUARYTWENTIETH -0.2907
-4.6477 JANUARYTWENTY-EIGTH -0.2907
-4.6477 JANUARYTWENTY-FIFTH -0.2907
-4.6477 JANUARYTWENTY-FIRST -0.2907
-4.6477 JANUARYTWENTY-FOURTH -0.2907
-4.6477 JANUARYTWENTY-NINTH -0.2907
-4.6477 JANUARYTWENTY-SECOND -0.2907
-4.6477 JANUARYTWENTY-SEVENTH -0.2907
-4.6477 JANUARYTWENTY-SIXTH -0.2907
-4.6477 JANUARYTWENTY-THIRD -0.2907
-2.9934 JULY -0.2772
-3.5375 JULY;CALENDAR;D_O_M -0.2729
-2.8843 JULY;CALENDAR;D_O_M_N -0.2729
-4.1548 JULY;CALENDAR;WD_O_M -0.2729
-3.6777 JULY;CALENDAR;WD_O_M_N -0.2729
-3.6575 JULY;CALENDAR;W_O_M -0.2729
-4.5228 JULY;CALENDAR;W_O_M_N -0.2729
-4.6477 JULYEIGHTEENTH -0.2907
-4.6477 JULYEIGTH -0.2907
-4.6477 JULYELEVENTH -0.2907
-4.6477 JULYFIFTEENTH -0.2907
-4.6477 JULYFIFTH -0.2907
-4.6477 JULYFIRST -0.2907
-4.6477 JULYFOURTEENTH -0.2907
-4.6477 JULYFOURTH -0.2907
-4.6477 JULYNINETEENTH -0.2907
-4.6477 JULYNINTH -0.2907
-4.6477 JULYSECOND -0.2907
-4.6477 JULYSEVENTEENTH -0.2907
-4.6477 JULYSEVENTH -0.2907
-4.6477 JULYSIXTEENTH -0.2907
-4.6477 JULYSIXTH -0.2907
-4.6477 JULYTHIRD -0.2907
-4.6477 JULYTHIRTEENTH -0.2907
-4.6477 JULYTHIRTIETH -0.2907
-4.6477 JULYTHIRTY-FIRST -0.2907
-4.6477 JULYTWENTIETH -0.2907
-4.6477 JULYTWENTY-EIGTH -0.2907
-4.6477 JULYTWENTY-FIFTH -0.2907
-4.6477 JULYTWENTY-FIRST -0.2907
-4.6477 JULYTWENTY-FOURTH -0.2907
-4.6477 JULYTWENTY-NINTH -0.2907
-4.6477 JULYTWENTY-SECOND -0.2907
-4.6477 JULYTWENTY-SEVENTH -0.2907
-4.6477 JULYTWENTY-SIXTH -0.2907
-4.6477 JULYTWENTY-THIRD -0.2907
-2.9934 JUNE -0.2772
-3.5375 JUNE;CALENDAR;D_O_M -0.2729
-2.8843 JUNE;CALENDAR;D_O_M_N -0.2729
-4.1548 JUNE;CALENDAR;WD_O_M -0.2729
-3.6777 JUNE;CALENDAR;WD_O_M_N -0.2729
-3.6575 JUNE;CALENDAR;W_O_M -0.2729
-4.5228 JUNE;CALENDAR;W_O_M_N -0.2729
-4.6477 JUNEEIGHTEENTH -0.2907
-4.6477 JUNEEIGTH -0.2907
-4.6477 JUNEELEVENTH -0.2907
-4.6477 JUNEFIFTEENTH -0.2907
-4.6477 JUNEFIFTH -0.2907
-4.6477 JUNEFIRST -0.2907
-4.6477 JUNEFOURTEENTH -0.2907
-4.6477 JUNEFOURTH -0.2907
-4.6477 JUNENINETEENTH -0.2907
-4.6477 JUNENINTH -0.2907
-4.6477 JUNESECOND -0.2907
-4.6477 JUNESEVENTEENTH -0.2907
-4.6477 JUNESEVENTH -0.2907
-4.6477 JUNESIXTEENTH -0.2907
-4.6477 JUNESIXTH -0.2907
-4.6477 JUNETHIRD -0.2907
-4.6477 JUNETHIRTEENTH -0.2907
-4.6477 JUNETHIRTIETH -0.2907
-4.6477 JUNETHIRTY-FIRST -0.2907
-4.6477 JUNETWENTIETH -0.2907
-4.6477 JUNETWENTY-EIGTH -0.2907
-4.6477 JUNETWENTY-FIFTH -0.2907
-4.6477 JUNETWENTY-FIRST -0.2907
-4.6477 JUNETWENTY-FOURTH -0.2907
-4.6477 JUNETWENTY-NINTH -0.2907
-4.6477 JUNETWENTY-SECOND -0.2907
-4.6477 JUNETWENTY-SEVENTH -0.2907
-4.6477 JUNETWENTY-SIXTH -0.2907
-4.6477 JUNETWENTY-THIRD -0.2907
-2.9934 MARCH -0.2772
-3.5375 MARCH;CALENDAR;D_O_M -0.2729
-2.8843 MARCH;CALENDAR;D_O_M_N -0.2729
-4.1548 MARCH;CALENDAR;WD_O_M -0.2729
-3.6777 MARCH;CALENDAR;WD_O_M_N -0.2729
-3.6575 MARCH;CALENDAR;W_O_M -0.2729
-4.5228 MARCH;CALENDAR;W_O_M_N -0.2729
-4.6477 MARCHEIGHTEENTH -0.2907
-4.6477 MARCHEIGTH -0.2907
-4.6477 MARCHELEVENTH -0.2907
-4.6477 MARCHFIFTEENTH -0.2907
-4.6477 MARCHFIFTH -0.2907
-4.6477 MARCHFIRST -0.2907
-4.6477 MARCHFOURTEENTH -0.2907
-4.6477 MARCHFOURTH -0.2907
-4.6477 MARCHNINETEENTH -0.2907
-4.6477 MARCHNINTH -0.2907
-4.6477 MARCHSECOND -0.2907
-4.6477 MARCHSEVENTEENTH -0.2907
-4.6477 MARCHSEVENTH -0.2907
-4.6477 MARCHSIXTEENTH -0.2907
-4.6477 MARCHSIXTH -0.2907
-4.6477 MARCHTHIRD -0.2907
-4.6477 MARCHTHIRTEENTH -0.2907
-4.6477 MARCHTHIRTIETH -0.2907
-4.6477 MARCHTHIRTY-FIRST -0.2907
-4.6477 MARCHTWENTIETH -0.2907
-4.6477 MARCHTWENTY-EIGTH -0.2907
-4.6477 MARCHTWENTY-FIFTH -0.2907
-4.6477 MARCHTWENTY-FIRST -0.2907
-4.6477 MARCHTWENTY-FOURTH -0.2907
-4.6477 MARCHTWENTY-NINTH -0.2907
-4.6477 MARCHTWENTY-SECOND -0.2907
-4.6477 MARCHTWENTY-SEVENTH -0.2907
-4.6477 MARCHTWENTY-SIXTH -0.2907
-4.6477 MARCHTWENTY-THIRD -0.2907
-2.9934 MAY -0.2772
-3.5375 MAY;CALENDAR;D_O_M -0.2729
-2.8843 MAY;CALENDAR;D_O_M_N -0.2729
-4.1548 MAY;CALENDAR;WD_O_M -0.2729
-3.6777 MAY;CALENDAR;WD_O_M_N -0.2729
-3.6575 MAY;CALENDAR;W_O_M -0.2729
-4.5228 MAY;CALENDAR;W_O_M_N -0.2729
-4.6477 MAYEIGHTEENTH -0.2907
-4.6477 MAYEIGTH -0.2907
-4.6477 MAYELEVENTH -0.2907
-4.6477 MAYFIFTEENTH -0.2907
-4.6477 MAYFIFTH -0.2907
-4.6477 MAYFIRST -0.2907
-4.6477 MAYFOURTEENTH -0.2907
-4.6477 MAYFOURTH -0.2907
-4.6477 MAYNINETEENTH -0.2907
-4.6477 MAYNINTH -0.2907
-4.6477 MAYSECOND -0.2907
-4.6477 MAYSEVENTEENTH -0.2907
-4.6477 MAYSEVENTH -0.2907
-4.6477 MAYSIXTEENTH -0.2907
-4.6477 MAYSIXTH -0.2907
-4.6477 MAYTHIRD -0.2907
-4.6477 MAYTHIRTEENTH -0.2907
-4.6477 MAYTHIRTIETH -0.2907
-4.6477 MAYTHIRTY-FIRST -0.2907
-4.6477 MAYTWENTIETH -0.2907
-4.6477 MAYTWENTY-EIGTH -0.2907
-4.6477 MAYTWENTY-FIFTH -0.2907
-4.6477 MAYTWENTY-FIRST -0.2907
-4.6477 MAYTWENTY-FOURTH -0.2907
-4.6477 MAYTWENTY-NINTH -0.2907
-4.6477 MAYTWENTY-SECOND -0.2907
-4.6477 MAYTWENTY-SEVENTH -0.2907
-4.6477 MAYTWENTY-SIXTH -0.2907
-4.6477 MAYTWENTY-THIRD -0.2907
-3.2440 MONDAY -0.2809
-4.5228 MONDAY;CALENDAR;N_WD -0.2729
-4.0456 MONDAY;CALENDAR;N_WD_N -0.2729
-2.8326 NEXT -0.2989
-2.8326 NINETEENTH -0.2537
-4.5228 NINETEENTH;CALENDAR;D_O_M -0.2729
-3.9207 NINETEENTH;CALENDAR;W_B_D -0.2729
-3.5685 NINETEENTH;CALENDAR;W_B_D_N -0.2729
-2.8326 NINTH -0.2537
-4.5228 NINTH;CALENDAR;D_O_M -0.2729
-3.9207 NINTH;CALENDAR;W_B_D -0.2729
-3.5685 NINTH;CALENDAR;W_B_D_N -0.2729
-2.9934 NOVEMBER -0.2772
-3.5375 NOVEMBER;CALENDAR;D_O_M -0.2729
-2.8843 NOVEMBER;CALENDAR;D_O_M_N -0.2729
-4.1548 NOVEMBER;CALENDAR;WD_O_M -0.2729
-3.6777 NOVEMBER;CALENDAR;WD_O_M_N -0.2729
-3.6575 NOVEMBER;CALENDAR;W_O_M -0.2729
-4.5228 NOVEMBER;CALENDAR;W_O_M_N -0.2729
-4.6477 NOVEMBEREIGHTEENTH -0.2907
-4.6477 NOVEMBEREIGTH -0.2907
-4.6477 NOVEMBERELEVENTH -0.2907
-4.6477 NOVEMBERFIFTEENTH -0.2907
-4.6477 NOVEMBERFIFTH -0.2907
-4.6477 NOVEMBERFIRST -0.2907
-4.6477 NOVEMBERFOURTEENTH -0.2907
-4.6477 NOVEMBERFOURTH -0.2907
-4.6477 NOVEMBERNINETEENTH -0.2907
-4.6477 NOVEMBERNINTH -0.2907
-4.6477 NOVEMBERSECOND -0.2907
-4.6477 NOVEMBERSEVENTEENTH -0.2907
-4.6477 NOVEMBERSEVENTH -0.2907
-4.6477 NOVEMBERSIXTEENTH -0.2907
-4.6477 NOVEMBERSIXTH -0.2907
-4.6477 NOVEMBERTHIRD -0.2907
-4.6477 NOVEMBERTHIRTEENTH -0.2907
-4.6477 NOVEMBERTHIRTIETH -0.2907
-4.6477 NOVEMBERTHIRTY-FIRST -0.2907
-4.6477 NOVEMBERTWENTIETH -0.2907
-4.6477 NOVEMBERTWENTY-EIGTH -0.2907
-4.6477 NOVEMBERTWENTY-FIFTH -0.2907
-4.6477 NOVEMBERTWENTY-FIRST -0.2907
-4.6477 NOVEMBERTWENTY-FOURTH -0.2907
-4.6477 NOVEMBERTWENTY-NINTH -0.2907
-4.6477 NOVEMBERTWENTY-SECOND -0.2907
-4.6477 NOVEMBERTWENTY-SEVENTH -0.2907
-4.6477 NOVEMBERTWENTY-SIXTH -0.2907
-4.6477 NOVEMBERTWENTY-THIRD -0.2907
-2.9934 OCTOBER -0.2772
-3.5375 OCTOBER;CALENDAR;D_O_M -0.2729
-2.8843 OCTOBER;CALENDAR;D_O_M_N -0.2729
-4.1548 OCTOBER;CALENDAR;WD_O_M -0.2729
-3.6777 OCTOBER;CALENDAR;WD_O_M_N -0.2729
-3.6575 OCTOBER;CALENDAR;W_O_M -0.2729
-4.5228 OCTOBER;CALENDAR;W_O_M_N -0.2729
-4.6477 OCTOBEREIGHTEENTH -0.2907
-4.6477 OCTOBEREIGTH -0.2907
-4.6477 OCTOBERELEVENTH -0.2907
-4.6477 OCTOBERFIFTEENTH -0.2907
-4.6477 OCTOBERFIFTH -0.2907
-4.6477 OCTOBERFIRST -0.2907
-4.6477 OCTOBERFOURTEENTH -0.2907
-4.6477 OCTOBERFOURTH -0.2907
-4.6477 OCTOBERNINETEENTH -0.2907
-4.6477 OCTOBERNINTH -0.2907
-4.6477 OCTOBERSECOND -0.2907
-4.6477 OCTOBERSEVENTEENTH -0.2907
-4.6477 OCTOBERSEVENTH -0.2907
-4.6477 OCTOBERSIXTEENTH -0.2907
-4.6477 OCTOBERSIXTH -0.2907
-4.6477 OCTOBERTHIRD -0.2907
-4.6477 OCTOBERTHIRTEENTH -0.2907
-4.6477 OCTOBERTHIRTIETH -0.2907
-4.6477 OCTOBERTHIRTY-FIRST -0.2907
-4.6477 OCTOBERTWENTIETH -0.2907
-4.6477 OCTOBERTWENTY-EIGTH -0.2907
-4.6477 OCTOBERTWENTY-FIFTH -0.2907
-4.6477 OCTOBERTWENTY-FIRST -0.2907
-4.6477 OCTOBERTWENTY-FOURTH -0.2907
-4.6477 OCTOBERTWENTY-NINTH -0.2907
-4.6477 OCTOBERTWENTY-SECOND -0.2907
-4.6477 OCTOBERTWENTY-SEVENTH -0.2907
-4.6477 OCTOBERTWENTY-SIXTH -0.2907
-4.6477 OCTOBERTWENTY-THIRD -0.2907
-1.3502 OF -0.2808
-2.8843 OFAPRIL -0.2756
-2.8843 OFAUGUST -0.2756
-2.8843 OFDECEMBER -0.2756
-2.8843 OFFEBRUARY -0.2756
-2.8843 OFJANUARY -0.2756
-2.8843 OFJULY -0.2756
-2.8843 OFJUNE -0.2756
-2.8843 OFMARCH -0.2756
-2.8843 OFMAY -0.2756
-2.8843 OFNOVEMBER -0.2756
-2.8843 OFOCTOBER -0.2756
-2.8843 OFSEPTEMBER -0.2756
-3.2440 SATURDAY -0.2809
-4.5228 SATURDAY;CALENDAR;N_WD -0.2729
-4.0456 SATURDAY;CALENDAR;N_WD_N -0.2729
-2.5142 SECOND -0.2517
-4.5228 SECOND;CALENDAR;D_O_M -0.2729
-3.9207 SECOND;CALENDAR;W_B_D -0.2729
-3.5685 SECOND;CALENDAR;W_B_D_N -0.2729
-2.9934 SEPTEMBER -0.2772
-3.5375 SEPTEMBER;CALENDAR;D_O_M -0.2729
-2.8843 SEPTEMBER;CALENDAR;D_O_M_N -0.2729
-4.1548 SEPTEMBER;CALENDAR;WD_O_M -0.2729
-3.6777 SEPTEMBER;CALENDAR;WD_O_M_N -0.2729
-3.6575 SEPTEMBER;CALENDAR;W_O_M -0.2729
-4.5228 SEPTEMBER;CALENDAR;W_O_M_N -0.2729
-4.6477 SEPTEMBEREIGHTEENTH -0.2907
-4.6477 SEPTEMBEREIGTH -0.2907
-4.6477 SEPTEMBERELEVENTH -0.2907
-4.6477 SEPTEMBERFIFTEENTH -0.2907
-4.6477 SEPTEMBERFIFTH -0.2907
-4.6477 SEPTEMBERFIRST -0.2907
-4.6477 SEPTEMBERFOURTEENTH -0.2907
-4.6477 SEPTEMBERFOURTH -0.2907
-4.6477 SEPTEMBERNINETEENTH -0.2907
-4.6477 SEPTEMBERNINTH -0.2907
-4.6477 SEPTEMBERSECOND -0.2907
-4.6477 SEPTEMBERSEVENTEENTH -0.2907
-4.6477 SEPTEMBERSEVENTH -0.2907
-4.6477 SEPTEMBERSIXTEENTH -0.2907
-4.6477 SEPTEMBERSIXTH -0.2907
-4.6477 SEPTEMBERTHIRD -0.2907
-4.6477 SEPTEMBERTHIRTEENTH -0.2907
-4.6477 SEPTEMBERTHIRTIETH -0.2907
-4.6477 SEPTEMBERTHIRTY-FIRST -0.2907
-4.6477 SEPTEMBERTWENTIETH -0.2907
-4.6477 SEPTEMBERTWENTY-EIGTH -0.2907
-4.6477 SEPTEMBERTWENTY-FIFTH -0.2907
-4.6477 SEPTEMBERTWENTY-FIRST -0.2907
-4.6477 SEPTEMBERTWENTY-FOURTH -0.2907
-4.6477 SEPTEMBERTWENTY-NINTH -0.2907
-4.6477 SEPTEMBERTWENTY-SECOND -0.2907
-4.6477 SEPTEMBERTWENTY-SEVENTH -0.2907
-4.6477 SEPTEMBERTWENTY-SIXTH -0.2907
-4.6477 SEPTEMBERTWENTY-THIRD -0.2907
-2.8326 SEVENTEENTH -0.2537
-4.5228 SEVENTEENTH;CALENDAR;D_O_M -0.2729
-3.9207 SEVENTEENTH;CALENDAR;W_B_D -0.2729
-3.5685 SEVENTEENTH;CALENDAR;W_B_D_N -0.2729
-2.8326 SEVENTH -0.2537
-4.5228 SEVENTH;CALENDAR;D_O_M -0.2729
-3.9207 SEVENTH;CALENDAR;W_B_D -0.2729
-3.5685 SEVENTH;CALENDAR;W_B_D_N -0.2729
-1.7601 SHOW -0.2421
-3.0604 SHOWWEEK -0.2812
-2.8326 SIXTEENTH -0.2537
-4.5228 SIXTEENTH;CALENDAR;D_O_M -0.2729
-3.9207 SIXTEENTH;CALENDAR;W_B_D -0.2729
-3.5685 SIXTEENTH;CALENDAR;W_B_D_N -0.2729
-2.8326 SIXTH -0.2537
-4.5228 SIXTH;CALENDAR;D_O_M -0.2729
-3.9207 SIXTH;CALENDAR;W_B_D -0.2729
-3.5685 SIXTH;CALENDAR;W_B_D_N -0.2729
-3.2440 SUNDAY -0.2809
-4.5228 SUNDAY;CALENDAR;N_WD -0.2729
-4.0456 SUNDAY;CALENDAR;N_WD_N -0.2729
-2.5142 THIRD -0.2517
-4.5228 THIRD;CALENDAR;D_O_M -0.2729
-3.9207 THIRD;CALENDAR;W_B_D -0.2729
-3.5685 THIRD;CALENDAR;W_B_D_N -0.2729
-2.8326 THIRTEENTH -0.2537
-4.5228 THIRTEENTH;CALENDAR;D_O_M -0.2729
-3.9207 THIRTEENTH;CALENDAR;W_B_D -0.2729
-3.5685 THIRTEENTH;CALENDAR;W_B_D_N -0.2729
-2.8326 THIRTIETH -0.2537
-4.5228 THIRTIETH;CALENDAR;D_O_M -0.2729
-3.9207 THIRTIETH;CALENDAR;W_B_D -0.2729
-3.5685 THIRTIETH;CALENDAR;W_B_D_N -0.2729
-2.8326 THIRTY-FIRST -0.2537
-4.5228 THIRTY-FIRST;CALENDAR;D_O_M -0.2729
-3.9207 THIRTY-FIRST;CALENDAR;W_B_D -0.2729
-3.5685 THIRTY-FIRST;CALENDAR;W_B_D_N -0.2729
-3.2440 THURSDAY -0.2809
-4.5228 THURSDAY;CALENDAR;N_WD -0.2729
-4.0456 THURSDAY;CALENDAR;N_WD_N -0.2729
-1.7601 TO -0.2421
-3.0604 TOWEEK -0.2812
-3.2440 TUESDAY -0.2809
-4.5228 TUESDAY;CALENDAR;N_WD -0.2729
-4.0456 TUESDAY;CALENDAR;N_WD_N -0.2729
-2.8326 TWENTIETH -0.2537
-4.5228 TWENTIETH;CALENDAR;D_O_M -0.2729
-3.9207 TWENTIETH;CALENDAR;W_B_D -0.2729
-3.5685 TWENTIETH;CALENDAR;W_B_D_N -0.2729
-2.8326 TWENTY-EIGTH -0.2537
-4.5228 TWENTY-EIGTH;CALENDAR;D_O_M -0.2729
-3.9207 TWENTY-EIGTH;CALENDAR;W_B_D -0.2729
-3.5685 TWENTY-EIGTH;CALENDAR;W_B_D_N -0.2729
-2.8326 TWENTY-FIFTH -0.2537
-4.5228 TWENTY-FIFTH;CALENDAR;D_O_M -0.2729
-3.9207 TWENTY-FIFTH;CALENDAR;W_B_D -0.2729
-3.5685 TWENTY-FIFTH;CALENDAR;W_B_D_N -0.2729
-2.8326 TWENTY-FIRST -0.2537
-4.5228 TWENTY-FIRST;CALENDAR;D_O_M -0.2729
-3.9207 TWENTY-FIRST;CALENDAR;W_B_D -0.2729
-3.5685 TWENTY-FIRST;CALENDAR;W_B_D_N -0.2729
-2.8326 TWENTY-FOURTH -0.2537
-4.5228 TWENTY-FOURTH;CALENDAR;D_O_M -0.2729
-3.9207 TWENTY-FOURTH;CALENDAR;W_B_D -0.2729
-3.5685 TWENTY-FOURTH;CALENDAR;W_B_D_N -0.2729
-2.8326 TWENTY-NINTH -0.2537
-4.5228 TWENTY-NINTH;CALENDAR;D_O_M -0.2729
-3.9207 TWENTY-NINTH;CALENDAR;W_B_D -0.2729
-3.5685 TWENTY-NINTH;CALENDAR;W_B_D_N -0.2729
-2.8326 TWENTY-SECOND -0.2537
-4.5228 TWENTY-SECOND;CALENDAR;D_O_M -0.2729
-3.9207 TWENTY-SECOND;CALENDAR;W_B_D -0.2729
-3.5685 TWENTY-SECOND;CALENDAR;W_B_D_N -0.2729
-2.8326 TWENTY-SEVENTH -0.2537
-4.5228 TWENTY-SEVENTH;CALENDAR;D_O_M -0.2729
-3.9207 TWENTY-SEVENTH;CALENDAR;W_B_D -0.2729
-3.5685 TWENTY-SEVENTH;CALENDAR;W_B_D_N -0.2729
-2.8326 TWENTY-SIXTH -0.2537
-4.5228 TWENTY-SIXTH;CALENDAR;D_O_M -0.2729
-3.9207 TWENTY-SIXTH;CALENDAR;W_B_D -0.2729
-3.5685 TWENTY-SIXTH;CALENDAR;W_B_D_N -0.2729
-2.8326 TWENTY-THIRD -0.2537
-4.5228 TWENTY-THIRD;CALENDAR;D_O_M -0.2729
-3.9207 TWENTY-THIRD;CALENDAR;W_B_D -0.2729
-3.5685 TWENTY-THIRD;CALENDAR;W_B_D_N -0.2729
-3.2440 WEDNESDAY -0.2809
-4.5228 WEDNESDAY;CALENDAR;N_WD -0.2729
-4.0456 WEDNESDAY;CALENDAR;N_WD_N -0.2729
-1.5628 WEEK -0.2740

\2-grams:
-2.7757 <s> AI'S -0.2959
-3.2375 <s> APRIL -0.2852
-3.2375 <s> AUGUST -0.2852
-2.7757 <s> BENJAMIN'S -0.2959
-3.2375 <s> DECEMBER -0.2852
-0.7915 <s> DISPLAY -0.0000
-2.1584 <s> DISPLAYWEEK 0.0000
-3.6208 <s> EIGHTEENTH -0.1906
-3.6208 <s> EIGTH -0.1906
-3.6208 <s> ELEVENTH -0.1906
-2.7757 <s> ERIK'S -0.2959
-3.2375 <s> FEBRUARY -0.2852
-3.6208 <s> FIFTEENTH -0.1906
-3.6208 <s> FIFTH -0.1906
-2.6665 <s> FIRST -0.0706
-3.6208 <s> FOURTEENTH -0.1906
-2.6665 <s> FOURTH -0.0706
-0.8369 <s> GO 0.0000
-3.2375 <s> JANUARY -0.2852
-3.2375 <s> JULY -0.2852
-3.2375 <s> JUNE -0.2852
-3.2375 <s> MARCH -0.2852
-3.2375 <s> MAY -0.2852
-2.1736 <s> NEXT -0.1549
-3.6208 <s> NINETEENTH -0.1906
-3.6208 <s> NINTH -0.1906
-3.2375 <s> NOVEMBER -0.2852
-3.2375 <s> OCTOBER -0.2852
-2.6665 <s> SECOND -0.0706
-3.2375 <s> SEPTEMBER -0.2852
-3.6208 <s> SEVENTEENTH -0.1906
-3.6208 <s> SEVENTH -0.1906
-0.8581 <s> SHOW -0.0000
-2.1584 <s> SHOWWEEK 0.0000
-3.6208 <s> SIXTEENTH -0.1906
-3.6208 <s> SIXTH -0.1906
-2.6665 <s> THIRD -0.0706
-3.6208 <s> THIRTEENTH -0.1906
-3.6208 <s> THIRTIETH -0.1906
-3.6208 <s> THIRTY-FIRST -0.1906
-3.6208 <s> TWENTIETH -0.1906
-3.6208 <s> TWENTY-EIGTH -0.1906
-3.6208 <s> TWENTY-FIFTH -0.1906
-3.6208 <s> TWENTY-FIRST -0.1906
-3.6208 <s> TWENTY-FOURTH -0.1906
-3.6208 <s> TWENTY-NINTH -0.1906
-3.6208 <s> TWENTY-SECOND -0.1906
-3.6208 <s> TWENTY-SEVENTH -0.1906
-3.6208 <s> TWENTY-SIXTH -0.1906
-3.6208 <s> TWENTY-THIRD -0.1906
-2.1584 <s> WEEK -0.1093
-0.5376 AI'S CALENDAR -0.1249
-2.3010 AI'S EIGHTEENTH -0.1906
-2.3010 AI'S EIGTH -0.1906
-2.3010 AI'S ELEVENTH -0.1906
-2.3010 AI'S FIFTEENTH -0.1906
-2.3010 AI'S FIFTH -0.1906
-1.7368 AI'S FIRST -0.0706
-2.3010 AI'S FOURTEENTH -0.1906
-1.7368 AI'S FOURTH -0.0706
-1.9331 AI'S NEXT -0.1963
-2.3010 AI'S NINETEENTH -0.1906
-2.3010 AI'S NINTH -0.1906
-1.7368 AI'S SECOND -0.0706
-2.3010 AI'S SEVENTEENTH -0.1906
-2.3010 AI'S SEVENTH -0.1906
-2.3010 AI'S SIXTEENTH -0.1906
-2.3010 AI'S SIXTH -0.1906
-1.7368 AI'S THIRD -0.0706
-2.3010 AI'S THIRTEENTH -0.1906
-2.3010 AI'S THIRTIETH -0.1906
-2.3010 AI'S THIRTY-FIRST -0.1906
-2.3010 AI'S TWENTIETH -0.1906
-2.3010 AI'S TWENTY-EIGTH -0.1906
-2.3010 AI'S TWENTY-FIFTH -0.1906
-2.3010 AI'S TWENTY-FIRST -0.1906
-2.3010 AI'S TWENTY-FOURTH -0.1906
-2.3010 AI'S TWENTY-NINTH -0.1906
-2.3010 AI'S TWENTY-SECOND -0.1906
-2.3010 AI'S TWENTY-SEVENTH -0.1906
-2.3010 AI'S TWENTY-SIXTH -0.1906
-2.3010 AI'S TWENTY-THIRD -0.1906
-0.3010 AI;CALENDAR;M_N </s> -0.3010
-0.3010 AI;CALENDAR;W_O_M_N </s> -0.3010
-1.9553 APRIL EIGHTEENTH -0.2592
-2.9096 APRIL EIGHTEENTH;CALENDAR;D_O_M 0.0000
-2.3075 APRIL EIGHTEENTH;CALENDAR;W_B_D 0.0000
-1.9553 APRIL EIGTH -0.2592
-2.9096 APRIL EIGTH;CALENDAR;D_O_M 0.0000
-2.3075 APRIL EIGTH;CALENDAR;W_B_D 0.0000
-1.9553 APRIL ELEVENTH -0.2592
-2.9096 APRIL ELEVENTH;CALENDAR;D_O_M 0.0000
-2.3075 APRIL ELEVENTH;CALENDAR;W_B_D 0.0000
-1.9553 APRIL FIFTEENTH -0.2592
-2.9096 APRIL FIFTEENTH;CALENDAR;D_O_M 0.0000
-2.3075 APRIL FIFTEENTH;CALENDAR;W_B_D 0.0000
-1.9553 APRIL FIFTH -0.2592
-2.9096 APRIL FIFTH;CALENDAR;D_O_M 0.0000
-2.3075 APRIL FIFTH;CALENDAR;W_B_D 0.0000
-1.9553 APRIL FIRST -0.2814
-2.9096 APRIL FIRST;CALENDAR;D_O_M 0.0000
-2.3075 APRIL FIRST;CALENDAR;W_B_D 0.0000
-1.9553 APRIL FOURTEENTH -0.2592
-2.9096 APRIL FOURTEENTH;CALENDAR;D_O_M 0.0000
-2.3075 APRIL FOURTEENTH;CALENDAR;W_B_D 0.0000
-1.9553 APRIL FOURTH -0.2814
-2.9096 APRIL FOURTH;CALENDAR;D_O_M 0.0000
-2.3075 APRIL FOURTH;CALENDAR;W_B_D 0.0000
-1.9553 APRIL NINETEENTH -0.2592
-2.9096 APRIL NINETEENTH;CALENDAR;D_O_M 0.0000
-2.3075 APRIL NINETEENTH;CALENDAR;W_B_D 0.0000
-1.9553 APRIL NINTH -0.2592
-2.9096 APRIL NINTH;CALENDAR;D_O_M 0.0000
-2.3075 APRIL NINTH;CALENDAR;W_B_D 0.0000
-1.9553 APRIL SECOND -0.2814
-2.9096 APRIL SECOND;CALENDAR;D_O_M 0.0000
-2.3075 APRIL SECOND;CALENDAR;W_B_D 0.0000
-1.9553 APRIL SEVENTEENTH -0.2592
-2.9096 APRIL SEVENTEENTH;CALENDAR;D_O_M 0.0000
-2.3075 APRIL SEVENTEENTH;CALENDAR;W_B_D 0.0000
-1.9553 APRIL SEVENTH -0.2592
-2.9096 APRIL SEVENTH;CALENDAR;D_O_M 0.0000
-2.3075 APRIL SEVENTH;CALENDAR;W_B_D 0.0000
-1.9553 APRIL SIXTEENTH -0.2592
-2.9096 APRIL SIXTEENTH;CALENDAR;D_O_M 0.0000
-2.3075 APRIL SIXTEENTH;CALENDAR;W_B_D 0.0000
-1.9553 APRIL SIXTH -0.2592
-2.9096 APRIL SIXTH;CALENDAR;D_O_M 0.0000
-2.3075 APRIL SIXTH;CALENDAR;W_B_D 0.0000
-1.9553 APRIL THIRD -0.2814
-2.9096 APRIL THIRD;CALENDAR;D_O_M 0.0000
-2.3075 APRIL THIRD;CALENDAR;W_B_D 0.0000
-1.9553 APRIL THIRTEENTH -0.2592
-2.9096 APRIL THIRTEENTH;CALENDAR;D_O_M 0.0000
-2.3075 APRIL THIRTEENTH;CALENDAR;W_B_D 0.0000
-1.9553 APRIL THIRTIETH -0.2592
-2.9096 APRIL THIRTIETH;CALENDAR;D_O_M 0.0000
-2.3075 APRIL THIRTIETH;CALENDAR;W_B_D 0.0000
-1.9553 APRIL THIRTY-FIRST -0.2592
-2.9096 APRIL THIRTY-FIRST;CALENDAR;D_O_M 0.0000
-2.3075 APRIL THIRTY-FIRST;CALENDAR;W_B_D 0.0000
-1.9553 APRIL TWENTIETH -0.2592
-2.9096 APRIL TWENTIETH;CALENDAR;D_O_M 0.0000
-2.3075 APRIL TWENTIETH;CALENDAR;W_B_D 0.0000
-1.9553 APRIL TWENTY-EIGTH -0.2592
-2.9096 APRIL TWENTY-EIGTH;CALENDAR;D_O_M 0.0000
-2.3075 APRIL TWENTY-EIGTH;CALENDAR;W_B_D 0.0000
-1.9553 APRIL TWENTY-FIFTH -0.2592
-2.9096 APRIL TWENTY-FIFTH;CALENDAR;D_O_M 0.0000
-2.3075 APRIL TWENTY-FIFTH;CALENDAR;W_B_D 0.0000
-1.9553 APRIL TWENTY-FIRST -0.2592
-2.9096 APRIL TWENTY-FIRST;CALENDAR;D_O_M 0.0000
-2.3075 APRIL TWENTY-FIRST;CALENDAR;W_B_D 0.0000
-1.9553 APRIL TWENTY-FOURTH -0.2592
-2.9096 APRIL TWENTY-FOURTH;CALENDAR;D_O_M 0.0000
-2.3075 APRIL TWENTY-FOURTH;CALENDAR;W_B_D 0.0000
-1.9553 APRIL TWENTY-NINTH -0.2592
-2.9096 APRIL TWENTY-NINTH;CALENDAR;D_O_M 0.0000
-2.3075 APRIL TWENTY-NINTH;CALENDAR;W_B_D 0.0000
-1.9553 APRIL TWENTY-SECOND -0.2592
-2.9096 APRIL TWENTY-SECOND;CALENDAR;D_O_M 0.0000
-2.3075 APRIL TWENTY-SECOND;CALENDAR;W_B_D 0.0000
-1.9553 APRIL TWENTY-SEVENTH -0.2592
-2.9096 APRIL TWENTY-SEVENTH;CALENDAR;D_O_M 0.0000
-2.3075 APRIL TWENTY-SEVENTH;CALENDAR;W_B_D 0.0000
-1.9553 APRIL TWENTY-SIXTH -0.2592
-2.9096 APRIL TWENTY-SIXTH;CALENDAR;D_O_M 0.0000
-2.3075 APRIL TWENTY-SIXTH;CALENDAR;W_B_D 0.0000
-1.9553 APRIL TWENTY-THIRD -0.2592
-2.9096 APRIL TWENTY-THIRD;CALENDAR;D_O_M 0.0000
-2.3075 APRIL TWENTY-THIRD;CALENDAR;W_B_D 0.0000
-0.3010 APRIL;CALENDAR;D_O_M </s> -0.3010
-0.3010 APRIL;CALENDAR;D_O_M_N </s> -0.3010
-0.3010 APRIL;CALENDAR;WD_O_M </s> -0.3010
-0.3010 APRIL;CALENDAR;WD_O_M_N </s> -0.3010
-0.3010 APRIL;CALENDAR;W_O_M </s> -0.3010
-0.3010 APRIL;CALENDAR;W_O_M_N </s> -0.3010
-0.3010 APRILEIGHTEENTH FOR -0.2218
-0.3010 APRILEIGTH FOR -0.2218
-0.3010 APRILELEVENTH FOR -0.2218
-0.3010 APRILFIFTEENTH FOR -0.2218
-0.3010 APRILFIFTH FOR -0.2218
-0.3010 APRILFIRST FOR -0.2218
-0.3010 APRILFOURTEENTH FOR -0.2218
-0.3010 APRILFOURTH FOR -0.2218
-0.3010 APRILNINETEENTH FOR -0.2218
-0.3010 APRILNINTH FOR -0.2218
-0.3010 APRILSECOND FOR -0.2218
-0.3010 APRILSEVENTEENTH FOR -0.2218
-0.3010 APRILSEVENTH FOR -0.2218
-0.3010 APRILSIXTEENTH FOR -0.2218
-0.3010 APRILSIXTH FOR -0.2218
-0.3010 APRILTHIRD FOR -0.2218
-0.3010 APRILTHIRTEENTH FOR -0.2218
-0.3010 APRILTHIRTIETH FOR -0.2218
-0.3010 APRILTHIRTY-FIRST FOR -0.2218
-0.3010 APRILTWENTIETH FOR -0.2218
-0.3010 APRILTWENTY-EIGTH FOR -0.2218
-0.3010 APRILTWENTY-FIFTH FOR -0.2218
-0.3010 APRILTWENTY-FIRST FOR -0.2218
-0.3010 APRILTWENTY-FOURTH FOR -0.2218
-0.3010 APRILTWENTY-NINTH FOR -0.2218
-0.3010 APRILTWENTY-SECOND FOR -0.2218
-0.3010 APRILTWENTY-SEVENTH FOR -0.2218
-0.3010 APRILTWENTY-SIXTH FOR -0.2218
-0.3010 APRILTWENTY-THIRD FOR -0.2218
-1.9553 AUGUST EIGHTEENTH -0.2592
-2.9096 AUGUST EIGHTEENTH;CALENDAR;D_O_M 0.0000
-2.3075 AUGUST EIGHTEENTH;CALENDAR;W_B_D 0.0000
-1.9553 AUGUST EIGTH -0.2592
-2.9096 AUGUST EIGTH;CALENDAR;D_O_M 0.0000
-2.3075 AUGUST EIGTH;CALENDAR;W_B_D 0.0000
-1.9553 AUGUST ELEVENTH -0.2592
-2.9096 AUGUST ELEVENTH;CALENDAR;D_O_M 0.0000
-2.3075 AUGUST ELEVENTH;CALENDAR;W_B_D 0.0000
-1.9553 AUGUST FIFTEENTH -0.2592
-2.9096 AUGUST FIFTEENTH;CALENDAR;D_O_M 0.0000
-2.3075 AUGUST FIFTEENTH;CALENDAR;W_B_D 0.0000
-1.9553 AUGUST FIFTH -0.2592
-2.9096 AUGUST FIFTH;CALENDAR;D_O_M 0.0000
-2.3075 AUGUST FIFTH;CALENDAR;W_B_D 0.0000
-1.9553 AUGUST FIRST -0.2814
-2.9096 AUGUST FIRST;CALENDAR;D_O_M 0.0000
-2.3075 AUGUST FIRST;CALENDAR;W_B_D 0.0000
-1.9553 AUGUST FOURTEENTH -0.2592
-2.9096 AUGUST FOURTEENTH;CALENDAR;D_O_M 0.0000
-2.3075 AUGUST FOURTEENTH;CALENDAR;W_B_D 0.0000
-1.9553 AUGUST FOURTH -0.2814
-2.9096 AUGUST FOURTH;CALENDAR;D_O_M 0.0000
-2.3075 AUGUST FOURTH;CALENDAR;W_B_D 0.0000
-1.9553 AUGUST NINETEENTH -0.2592
-2.9096 AUGUST NINETEENTH;CALENDAR;D_O_M 0.0000
-2.3075 AUGUST NINETEENTH;CALENDAR;W_B_D 0.0000
-1.9553 AUGUST NINTH -0.2592
-2.9096 AUGUST NINTH;CALENDAR;D_O_M 0.0000
-2.3075 AUGUST NINTH;CALENDAR;W_B_D 0.0000
-1.9553 AUGUST SECOND -0.2814
-2.9096 AUGUST SECOND;CALENDAR;D_O_M 0.0000
-2.3075 AUGUST SECOND;CALENDAR;W_B_D 0.0000
-1.9553 AUGUST SEVENTEENTH -0.2592
-2.9096 AUGUST SEVENTEENTH;CALENDAR;D_O_M 0.0000
-2.3075 AUGUST SEVENTEENTH;CALENDAR;W_B_D 0.0000
-1.9553 AUGUST SEVENTH -0.2592
-2.9096 AUGUST SEVENTH;CALENDAR;D_O_M 0.0000
-2.3075 AUGUST SEVENTH;CALENDAR;W_B_D 0.0000
-1.9553 AUGUST SIXTEENTH -0.2592
-2.9096 AUGUST SIXTEENTH;CALENDAR;D_O_M 0.0000
-2.3075 AUGUST SIXTEENTH;CALENDAR;W_B_D 0.0000
-1.9553 AUGUST SIXTH -0.2592
-2.9096 AUGUST SIXTH;CALENDAR;D_O_M 0.0000
-2.3075 AUGUST SIXTH;CALENDAR;W_B_D 0.0000
-1.9553 AUGUST THIRD -0.2814
-2.9096 AUGUST THIRD;CALENDAR;D_O_M 0.0000
-2.3075 AUGUST THIRD;CALENDAR;W_B_D 0.0000
-1.9553 AUGUST THIRTEENTH -0.2592
-2.9096 AUGUST THIRTEENTH;CALENDAR;D_O_M 0.0000
-2.3075 AUGUST THIRTEENTH;CALENDAR;W_B_D 0.0000
-1.9553 AUGUST THIRTIETH -0.2592
-2.9096 AUGUST THIRTIETH;CALENDAR;D_O_M 0.0000
-2.3075 AUGUST THIRTIETH;CALENDAR;W_B_D 0.0000
-1.9553 AUGUST THIRTY-FIRST -0.2592
-2.9096 AUGUST THIRTY-FIRST;CALENDAR;D_O_M 0.0000
-2.3075 AUGUST THIRTY-FIRST;CALENDAR;W_B_D 0.0000
-1.9553 AUGUST TWENTIETH -0.2592
-2.9096 AUGUST TWENTIETH;CALENDAR;D_O_M 0.0000
-2.3075 AUGUST TWENTIETH;CALENDAR;W_B_D 0.0000
-1.9553 AUGUST TWENTY-EIGTH -0.2592
-2.9096 AUGUST TWENTY-EIGTH;CALENDAR;D_O_M 0.0000
-2.3075 AUGUST TWENTY-EIGTH;CALENDAR;W_B_D 0.0000
-1.9553 AUGUST TWENTY-FIFTH -0.2592
-2.9096 AUGUST TWENTY-FIFTH;CALENDAR;D_O_M 0.0000
-2.3075 AUGUST TWENTY-FIFTH;CALENDAR;W_B_D 0.0000
-1.9553 AUGUST TWENTY-FIRST -0.2592
-2.9096 AUGUST TWENTY-FIRST;CALENDAR;D_O_M 0.0000
-2.3075 AUGUST TWENTY-FIRST;CALENDAR;W_B_D 0.0000
-1.9553 AUGUST TWENTY-FOURTH -0.2592
-2.9096 AUGUST TWENTY-FOURTH;CALENDAR;D_O_M 0.0000
-2.3075 AUGUST TWENTY-FOURTH;CALENDAR;W_B_D 0.0000
-1.9553 AUGUST TWENTY-NINTH -0.2592
-2.9096 AUGUST TWENTY-NINTH;CALENDAR;D_O_M 0.0000
-2.3075 AUGUST TWENTY-NINTH;CALENDAR;W_B_D 0.0000
-1.9553 AUGUST TWENTY-SECOND -0.2592
-2.9096 AUGUST TWENTY-SECOND;CALENDAR;D_O_M 0.0000
-2.3075 AUGUST TWENTY-SECOND;CALENDAR;W_B_D 0.0000
-1.9553 AUGUST TWENTY-SEVENTH -0.2592
-2.9096 AUGUST TWENTY-SEVENTH;CALENDAR;D_O_M 0.0000
-2.3075 AUGUST TWENTY-SEVENTH;CALENDAR;W_B_D 0.0000
-1.9553 AUGUST TWENTY-SIXTH -0.2592
-2.9096 AUGUST TWENTY-SIXTH;CALENDAR;D_O_M 0.0000
-2.3075 AUGUST TWENTY-SIXTH;CALENDAR;W_B_D 0.0000
-1.9553 AUGUST TWENTY-THIRD -0.2592
-2.9096 AUGUST TWENTY-THIRD;CALENDAR;D_O_M 0.0000
-2.3075 AUGUST TWENTY-THIRD;CALENDAR;W_B_D 0.0000
-0.3010 AUGUST;CALENDAR;D_O_M </s> -0.3010
-0.3010 AUGUST;CALENDAR;D_O_M_N </s> -0.3010
-0.3010 AUGUST;CALENDAR;WD_O_M </s> -0.3010
-0.3010 AUGUST;CALENDAR;WD_O_M_N </s> -0.3010
-0.3010 AUGUST;CALENDAR;W_O_M </s> -0.3010
-0.3010 AUGUST;CALENDAR;W_O_M_N </s> -0.3010
-0.3010 AUGUSTEIGHTEENTH FOR -0.2218
-0.3010 AUGUSTEIGTH FOR -0.2218
-0.3010 AUGUSTELEVENTH FOR -0.2218
-0.3010 AUGUSTFIFTEENTH FOR -0.2218
-0.3010 AUGUSTFIFTH FOR -0.2218
-0.3010 AUGUSTFIRST FOR -0.2218
-0.3010 AUGUSTFOURTEENTH FOR -0.2218
-0.3010 AUGUSTFOURTH FOR -0.2218
-0.3010 AUGUSTNINETEENTH FOR -0.2218
-0.3010 AUGUSTNINTH FOR -0.2218
-0.3010 AUGUSTSECOND FOR -0.2218
-0.3010 AUGUSTSEVENTEENTH FOR -0.2218
-0.3010 AUGUSTSEVENTH FOR -0.2218
-0.3010 AUGUSTSIXTEENTH FOR -0.2218
-0.3010 AUGUSTSIXTH FOR -0.2218
-0.3010 AUGUSTTHIRD FOR -0.2218
-0.3010 AUGUSTTHIRTEENTH FOR -0.2218
-0.3010 AUGUSTTHIRTIETH FOR -0.2218
-0.3010 AUGUSTTHIRTY-FIRST FOR -0.2218
-0.3010 AUGUSTTWENTIETH FOR -0.2218
-0.3010 AUGUSTTWENTY-EIGTH FOR -0.2218
-0.3010 AUGUSTTWENTY-FIFTH FOR -0.2218
-0.3010 AUGUSTTWENTY-FIRST FOR -0.2218
-0.3010 AUGUSTTWENTY-FOURTH FOR -0.2218
-0.3010 AUGUSTTWENTY-NINTH FOR -0.2218
-0.3010 AUGUSTTWENTY-SECOND FOR -0.2218
-0.3010 AUGUSTTWENTY-SEVENTH FOR -0.2218
-0.3010 AUGUSTTWENTY-SIXTH FOR -0.2218
-0.3010 AUGUSTTWENTY-THIRD FOR -0.2218
-0.5376 BENJAMIN'S CALENDAR -0.1249
-2.3010 BENJAMIN'S EIGHTEENTH -0.1906
-2.3010 BENJAMIN'S EIGTH -0.1906
-2.3010 BENJAMIN'S ELEVENTH -0.1906
-2.3010 BENJAMIN'S FIFTEENTH -0.1906
-2.3010 BENJAMIN'S FIFTH -0.1906
-1.7368 BENJAMIN'S FIRST -0.0706
-2.3010 BENJAMIN'S FOURTEENTH -0.1906
-1.7368 BENJAMIN'S FOURTH -0.0706
-1.9331 BENJAMIN'S NEXT -0.1963
-2.3010 BENJAMIN'S NINETEENTH -0.1906
-2.3010 BENJAMIN'S NINTH -0.1906
-1.7368 BENJAMIN'S SECOND -0.0706
-2.3010 BENJAMIN'S SEVENTEENTH -0.1906
-2.3010 BENJAMIN'S SEVENTH -0.1906
-2.3010 BENJAMIN'S SIXTEENTH -0.1906
-2.3010 BENJAMIN'S SIXTH -0.1906
-1.7368 BENJAMIN'S THIRD -0.0706
-2.3010 BENJAMIN'S THIRTEENTH -0.1906
-2.3010 BENJAMIN'S THIRTIETH -0.1906
-2.3010 BENJAMIN'S THIRTY-FIRST -0.1906
-2.3010 BENJAMIN'S TWENTIETH -0.1906
-2.3010 BENJAMIN'S TWENTY-EIGTH -0.1906
-2.3010 BENJAMIN'S TWENTY-FIFTH -0.1906
-2.3010 BENJAMIN'S TWENTY-FIRST -0.1906
-2.3010 BENJAMIN'S TWENTY-FOURTH -0.1906
-2.3010 BENJAMIN'S TWENTY-NINTH -0.1906
-2.3010 BENJAMIN'S TWENTY-SECOND -0.1906
-2.3010 BENJAMIN'S TWENTY-SEVENTH -0.1906
-2.3010 BENJAMIN'S TWENTY-SIXTH -0.1906
-2.3010 BENJAMIN'S TWENTY-THIRD -0.1906
-0.3010 BENJAMIN;CALENDAR;M_N </s> -0.3010
-0.3010 BENJAMIN;CALENDAR;W_O_M_N </s> -0.3010
-2.2405 CALENDAR EIGHTEENTH -0.1906
-2.2405 CALENDAR EIGTH -0.1906
-2.2405 CALENDAR ELEVENTH -0.1906
-2.2405 CALENDAR FIFTEENTH -0.1906
-2.2405 CALENDAR FIFTH -0.1906
-2.2405 CALENDAR FIRST -0.2515
-0.7782 CALENDAR FOR -0.2218
-2.2405 CALENDAR FOURTEENTH -0.1906
-2.2405 CALENDAR FOURTH -0.2515
-2.2405 CALENDAR NINETEENTH -0.1906
-2.2405 CALENDAR NINTH -0.1906
-1.8573 CALENDAR OFAPRIL -0.1761
-1.8573 CALENDAR OFAUGUST -0.1761
-1.8573 CALENDAR OFDECEMBER -0.1761
-1.8573 CALENDAR OFFEBRUARY -0.1761
-1.8573 CALENDAR OFJANUARY -0.1761
-1.8573 CALENDAR OFJULY -0.1761
-1.8573 CALENDAR OFJUNE -0.1761
-1.8573 CALENDAR OFMARCH -0.1761
-1.8573 CALENDAR OFMAY -0.1761
-1.8573 CALENDAR OFNOVEMBER -0.1761
-1.8573 CALENDAR OFOCTOBER -0.1761
-1.8573 CALENDAR OFSEPTEMBER -0.1761
-2.2405 CALENDAR SECOND -0.2515
-2.2405 CALENDAR SEVENTEENTH -0.1906
-2.2405 CALENDAR SEVENTH -0.1906
-2.2405 CALENDAR SIXTEENTH -0.1906
-2.2405 CALENDAR SIXTH -0.1906
-2.2405 CALENDAR THIRD -0.2515
-2.2405 CALENDAR THIRTEENTH -0.1906
-2.2405 CALENDAR THIRTIETH -0.1906
-2.2405 CALENDAR THIRTY-FIRST -0.1906
-2.2405 CALENDAR TWENTIETH -0.1906
-2.2405 CALENDAR TWENTY-EIGTH -0.1906
-2.2405 CALENDAR TWENTY-FIFTH -0.1906
-2.2405 CALENDAR TWENTY-FIRST -0.1906
-2.2405 CALENDAR TWENTY-FOURTH -0.1906
-2.2405 CALENDAR TWENTY-NINTH -0.1906
-2.2405 CALENDAR TWENTY-SECOND -0.1906
-2.2405 CALENDAR TWENTY-SEVENTH -0.1906
-2.2405 CALENDAR TWENTY-SIXTH -0.1906
-2.2405 CALENDAR TWENTY-THIRD -0.1906
-1.9553 DECEMBER EIGHTEENTH -0.2592
-2.9096 DECEMBER EIGHTEENTH;CALENDAR;D_O_M 0.0000
-2.3075 DECEMBER EIGHTEENTH;CALENDAR;W_B_D 0.0000
-1.9553 DECEMBER EIGTH -0.2592
-2.9096 DECEMBER EIGTH;CALENDAR;D_O_M 0.0000
-2.3075 DECEMBER EIGTH;CALENDAR;W_B_D 0.0000
-1.9553 DECEMBER ELEVENTH -0.2592
-2.9096 DECEMBER ELEVENTH;CALENDAR;D_O_M 0.0000
-2.3075 DECEMBER ELEVENTH;CALENDAR;W_B_D 0.0000
-1.9553 DECEMBER FIFTEENTH -0.2592
-2.9096 DECEMBER FIFTEENTH;CALENDAR;D_O_M 0.0000
-2.3075 DECEMBER FIFTEENTH;CALENDAR;W_B_D 0.0000
-1.9553 DECEMBER FIFTH -0.2592
-2.9096 DECEMBER FIFTH;CALENDAR;D_O_M 0.0000
-2.3075 DECEMBER FIFTH;CALENDAR;W_B_D 0.0000
-1.9553 DECEMBER FIRST -0.2814
-2.9096 DECEMBER FIRST;CALENDAR;D_O_M 0.0000
-2.3075 DECEMBER FIRST;CALENDAR;W_B_D 0.0000
-1.9553 DECEMBER FOURTEENTH -0.2592
-2.9096 DECEMBER FOURTEENTH;CALENDAR;D_O_M 0.0000
-2.3075 DECEMBER FOURTEENTH;CALENDAR;W_B_D 0.0000
-1.9553 DECEMBER FOURTH -0.2814
-2.9096 DECEMBER FOURTH;CALENDAR;D_O_M 0.0000
-2.3075 DECEMBER FOURTH;CALENDAR;W_B_D 0.0000
-1.9553 DECEMBER NINETEENTH -0.2592
-2.9096 DECEMBER NINETEENTH;CALENDAR;D_O_M 0.0000
-2.3075 DECEMBER NINETEENTH;CALENDAR;W_B_D 0.0000
-1.9553 DECEMBER NINTH -0.2592
-2.9096 DECEMBER NINTH;CALENDAR;D_O_M 0.0000
-2.3075 DECEMBER NINTH;CALENDAR;W_B_D 0.0000
-1.9553 DECEMBER SECOND -0.2814
-2.9096 DECEMBER SECOND;CALENDAR;D_O_M 0.0000
-2.3075 DECEMBER SECOND;CALENDAR;W_B_D 0.0000
-1.9553 DECEMBER SEVENTEENTH -0.2592
-2.9096 DECEMBER SEVENTEENTH;CALENDAR;D_O_M 0.0000
-2.3075 DECEMBER SEVENTEENTH;CALENDAR;W_B_D 0.0000
-1.9553 DECEMBER SEVENTH -0.2592
-2.9096 DECEMBER SEVENTH;CALENDAR;D_O_M 0.0000
-2.3075 DECEMBER SEVENTH;CALENDAR;W_B_D 0.0000
-1.9553 DECEMBER SIXTEENTH -0.2592
-2.9096 DECEMBER SIXTEENTH;CALENDAR;D_O_M 0.0000
-2.3075 DECEMBER SIXTEENTH;CALENDAR;W_B_D 0.0000
-1.9553 DECEMBER SIXTH -0.2592
-2.9096 DECEMBER SIXTH;CALENDAR;D_O_M 0.0000
-2.3075 DECEMBER SIXTH;CALENDAR;W_B_D 0.0000
-1.9553 DECEMBER THIRD -0.2814
-2.9096 DECEMBER THIRD;CALENDAR;D_O_M 0.0000
-2.3075 DECEMBER THIRD;CALENDAR;W_B_D 0.0000
-1.9553 DECEMBER THIRTEENTH -0.2592
-2.9096 DECEMBER THIRTEENTH;CALENDAR;D_O_M 0.0000
-2.3075 DECEMBER THIRTEENTH;CALENDAR;W_B_D 0.0000
-1.9553 DECEMBER THIRTIETH -0.2592
-2.9096 DECEMBER THIRTIETH;CALENDAR;D_O_M 0.0000
-2.3075 DECEMBER THIRTIETH;CALENDAR;W_B_D 0.0000
-1.9553 DECEMBER THIRTY-FIRST -0.2592
-2.9096 DECEMBER THIRTY-FIRST;CALENDAR;D_O_M 0.0000
-2.3075 DECEMBER THIRTY-FIRST;CALENDAR;W_B_D 0.0000
-1.9553 DECEMBER TWENTIETH -0.2592
-2.9096 DECEMBER TWENTIETH;CALENDAR;D_O_M 0.0000
-2.3075 DECEMBER TWENTIETH;CALENDAR;W_B_D 0.0000
-1.9553 DECEMBER TWENTY-EIGTH -0.2592
-2.9096 DECEMBER TWENTY-EIGTH;CALENDAR;D_O_M 0.0000
-2.3075 DECEMBER TWENTY-EIGTH;CALENDAR;W_B_D 0.0000
-1.9553 DECEMBER TWENTY-FIFTH -0.2592
-2.9096 DECEMBER TWENTY-FIFTH;CALENDAR;D_O_M 0.0000
-2.3075 DECEMBER TWENTY-FIFTH;CALENDAR;W_B_D 0.0000
-1.9553 DECEMBER TWENTY-FIRST -0.2592
-2.9096 DECEMBER TWENTY-FIRST;CALENDAR;D_O_M 0.0000
-2.3075 DECEMBER TWENTY-FIRST;CALENDAR;W_B_D 0.0000
-1.9553 DECEMBER TWENTY-FOURTH -0.2592
-2.9096 DECEMBER TWENTY-FOURTH;CALENDAR;D_O_M 0.0000
-2.3075 DECEMBER TWENTY-FOURTH;CALENDAR;W_B_D 0.0000
-1.9553 DECEMBER TWENTY-NINTH -0.2592
-2.9096 DECEMBER TWENTY-NINTH;CALENDAR;D_O_M 0.0000
-2.3075 DECEMBER TWENTY-NINTH;CALENDAR;W_B_D 0.0000
-1.9553 DECEMBER TWENTY-SECOND -0.2592
-2.9096 DECEMBER TWENTY-SECOND;CALENDAR;D_O_M 0.0000
-2.3075 DECEMBER TWENTY-SECOND;CALENDAR;W_B_D 0.0000
-1.9553 DECEMBER TWENTY-SEVENTH -0.2592
-2.9096 DECEMBER TWENTY-SEVENTH;CALENDAR;D_O_M 0.0000
-2.3075 DECEMBER TWENTY-SEVENTH;CALENDAR;W_B_D 0.0000
-1.9553 DECEMBER TWENTY-SIXTH -0.2592
-2.9096 DECEMBER TWENTY-SIXTH;CALENDAR;D_O_M 0.0000
-2.3075 DECEMBER TWENTY-SIXTH;CALENDAR;W_B_D 0.0000
-1.9553 DECEMBER TWENTY-THIRD -0.2592
-2.9096 DECEMBER TWENTY-THIRD;CALENDAR;D_O_M 0.0000
-2.3075 DECEMBER TWENTY-THIRD;CALENDAR;W_B_D 0.0000
-0.3010 DECEMBER;CALENDAR;D_O_M </s> -0.3010
-0.3010 DECEMBER;CALENDAR;D_O_M_N </s> -0.3010
-0.3010 DECEMBER;CALENDAR;WD_O_M </s> -0.3010
-0.3010 DECEMBER;CALENDAR;WD_O_M_N </s> -0.3010
-0.3010 DECEMBER;CALENDAR;W_O_M </s> -0.3010
-0.3010 DECEMBER;CALENDAR;W_O_M_N </s> -0.3010
-0.3010 DECEMBEREIGHTEENTH FOR -0.2218
-0.3010 DECEMBEREIGTH FOR -0.2218
-0.3010 DECEMBERELEVENTH FOR -0.2218
-0.3010 DECEMBERFIFTEENTH FOR -0.2218
-0.3010 DECEMBERFIFTH FOR -0.2218
-0.3010 DECEMBERFIRST FOR -0.2218
-0.3010 DECEMBERFOURTEENTH FOR -0.2218
-0.3010 DECEMBERFOURTH FOR -0.2218
-0.3010 DECEMBERNINETEENTH FOR -0.2218
-0.3010 DECEMBERNINTH FOR -0.2218
-0.3010 DECEMBERSECOND FOR -0.2218
-0.3010 DECEMBERSEVENTEENTH FOR -0.2218
-0.3010 DECEMBERSEVENTH FOR -0.2218
-0.3010 DECEMBERSIXTEENTH FOR -0.2218
-0.3010 DECEMBERSIXTH FOR -0.2218
-0.3010 DECEMBERTHIRD FOR -0.2218
-0.3010 DECEMBERTHIRTEENTH FOR -0.2218
-0.3010 DECEMBERTHIRTIETH FOR -0.2218
-0.3010 DECEMBERTHIRTY-FIRST FOR -0.2218
-0.3010 DECEMBERTWENTIETH FOR -0.2218
-0.3010 DECEMBERTWENTY-EIGTH FOR -0.2218
-0.3010 DECEMBERTWENTY-FIFTH FOR -0.2218
-0.3010 DECEMBERTWENTY-FIRST FOR -0.2218
-0.3010 DECEMBERTWENTY-FOURTH FOR -0.2218
-0.3010 DECEMBERTWENTY-NINTH FOR -0.2218
-0.3010 DECEMBERTWENTY-SECOND FOR -0.2218
-0.3010 DECEMBERTWENTY-SEVENTH FOR -0.2218
-0.3010 DECEMBERTWENTY-SIXTH FOR -0.2218
-0.3010 DECEMBERTWENTY-THIRD FOR -0.2218
-1.0548 DISPLAY AI'S -0.0100
-1.0548 DISPLAY BENJAMIN'S -0.0100
-1.1908 DISPLAY CALENDAR -0.2218
-2.5283 DISPLAY EIGHTEENTH -0.1359
-2.5283 DISPLAY EIGTH -0.1359
-2.5283 DISPLAY ELEVENTH -0.1359
-1.0548 DISPLAY ERIK'S -0.0100
-2.5283 DISPLAY FIFTEENTH -0.1359
-2.5283 DISPLAY FIFTH -0.1359
-2.0889 DISPLAY FIRST -0.1617
-2.5283 DISPLAY FOURTEENTH -0.1359
-2.0889 DISPLAY FOURTH -0.1617
-2.5283 DISPLAY NINETEENTH -0.1359
-2.5283 DISPLAY NINTH -0.1359
-2.0889 DISPLAY SECOND -0.1617
-2.5283 DISPLAY SEVENTEENTH -0.1359
-2.5283 DISPLAY SEVENTH -0.1359
-2.5283 DISPLAY SIXTEENTH -0.1359
-2.5283 DISPLAY SIXTH -0.1359
-2.0889 DISPLAY THIRD -0.1617
-2.5283 DISPLAY THIRTEENTH -0.1359
-2.5283 DISPLAY THIRTIETH -0.1359
-2.5283 DISPLAY THIRTY-FIRST -0.1359
-2.5283 DISPLAY TWENTIETH -0.1359
-2.5283 DISPLAY TWENTY-EIGTH -0.1359
-2.5283 DISPLAY TWENTY-FIFTH -0.1359
-2.5283 DISPLAY TWENTY-FIRST -0.1359
-2.5283 DISPLAY TWENTY-FOURTH -0.1359
-2.5283 DISPLAY TWENTY-NINTH -0.1359
-2.5283 DISPLAY TWENTY-SECOND -0.1359
-2.5283 DISPLAY TWENTY-SEVENTH -0.1359
-2.5283 DISPLAY TWENTY-SIXTH -0.1359
-2.5283 DISPLAY TWENTY-THIRD -0.1359
-1.1908 DISPLAY WEEK -0.1093
-0.3010 DISPLAYWEEK OF -0.2422
-1.0370 EIGHTEENTH FOR -0.2218
-1.5141 EIGHTEENTH FORAI;CALENDAR;W_B_D_N 0.0000
-1.5141 EIGHTEENTH FORBENJAMIN;CALENDAR;W_B_D_N 0.0000
-1.5141 EIGHTEENTH FORERIK;CALENDAR;W_B_D_N 0.0000
-0.6488 EIGHTEENTH OF -0.1962
-1.0370 EIGHTEENTH WEEK -0.1093
-0.3010 EIGHTEENTH;CALENDAR;D_O_M </s> -0.3010
-0.3010 EIGHTEENTH;CALENDAR;W_B_D </s> -0.3010
-0.3010 EIGHTEENTH;CALENDAR;W_B_D_N </s> -0.3010
-1.0370 EIGTH FOR -0.2218
-1.5141 EIGTH FORAI;CALENDAR;W_B_D_N 0.0000
-1.5141 EIGTH FORBENJAMIN;CALENDAR;W_B_D_N 0.0000
-1.5141 EIGTH FORERIK;CALENDAR;W_B_D_N 0.0000
-0.6488 EIGTH OF -0.1962
-1.0370 EIGTH WEEK -0.1093
-0.3010 EIGTH;CALENDAR;D_O_M </s> -0.3010
-0.3010 EIGTH;CALENDAR;W_B_D </s> -0.3010
-0.3010 EIGTH;CALENDAR;W_B_D_N </s> -0.3010
-1.0370 ELEVENTH FOR -0.2218
-1.5141 ELEVENTH FORAI;CALENDAR;W_B_D_N 0.0000
-1.5141 ELEVENTH FORBENJAMIN;CALENDAR;W_B_D_N 0.0000
-1.5141 ELEVENTH FORERIK;CALENDAR;W_B_D_N 0.0000
-0.6488 ELEVENTH OF -0.1962
-1.0370 ELEVENTH WEEK -0.1093
-0.3010 ELEVENTH;CALENDAR;D_O_M </s> -0.3010
-0.3010 ELEVENTH;CALENDAR;W_B_D </s> -0.3010
-0.3010 ELEVENTH;CALENDAR;W_B_D_N </s> -0.3010
-0.5376 ERIK'S CALENDAR -0.1249
-2.3010 ERIK'S EIGHTEENTH -0.1906
-2.3010 ERIK'S EIGTH -0.1906
-2.3010 ERIK'S ELEVENTH -0.1906
-2.3010 ERIK'S FIFTEENTH -0.1906
-2.3010 ERIK'S FIFTH -0.1906
-1.7368 ERIK'S FIRST -0.0706
-2.3010 ERIK'S FOURTEENTH -0.1906
-1.7368 ERIK'S FOURTH -0.0706
-1.9331 ERIK'S NEXT -0.1963
-2.3010 ERIK'S NINETEENTH -0.1906
-2.3010 ERIK'S NINTH -0.1906
-1.7368 ERIK'S SECOND -0.0706
-2.3010 ERIK'S SEVENTEENTH -0.1906
-2.3010 ERIK'S SEVENTH -0.1906
-2.3010 ERIK'S SIXTEENTH -0.1906
-2.3010 ERIK'S SIXTH -0.1906
-1.7368 ERIK'S THIRD -0.0706
-2.3010 ERIK'S THIRTEENTH -0.1906
-2.3010 ERIK'S THIRTIETH -0.1906
-2.3010 ERIK'S THIRTY-FIRST -0.1906
-2.3010 ERIK'S TWENTIETH -0.1906
-2.3010 ERIK'S TWENTY-EIGTH -0.1906
-2.3010 ERIK'S TWENTY-FIFTH -0.1906
-2.3010 ERIK'S TWENTY-FIRST -0.1906
-2.3010 ERIK'S TWENTY-FOURTH -0.1906
-2.3010 ERIK'S TWENTY-NINTH -0.1906
-2.3010 ERIK'S TWENTY-SECOND -0.1906
-2.3010 ERIK'S TWENTY-SEVENTH -0.1906
-2.3010 ERIK'S TWENTY-SIXTH -0.1906
-2.3010 ERIK'S TWENTY-THIRD -0.1906
-0.3010 ERIK;CALENDAR;M_N </s> -0.3010
-0.3010 ERIK;CALENDAR;W_O_M_N </s> -0.3010
-1.9553 FEBRUARY EIGHTEENTH -0.2592
-2.9096 FEBRUARY EIGHTEENTH;CALENDAR;D_O_M 0.0000
-2.3075 FEBRUARY EIGHTEENTH;CALENDAR;W_B_D 0.0000
-1.9553 FEBRUARY EIGTH -0.2592
-2.9096 FEBRUARY EIGTH;CALENDAR;D_O_M 0.0000
-2.3075 FEBRUARY EIGTH;CALENDAR;W_B_D 0.0000
-1.9553 FEBRUARY ELEVENTH -0.2592
-2.9096 FEBRUARY ELEVENTH;CALENDAR;D_O_M 0.0000
-2.3075 FEBRUARY ELEVENTH;CALENDAR;W_B_D 0.0000
-1.9553 FEBRUARY FIFTEENTH -0.2592
-2.9096 FEBRUARY FIFTEENTH;CALENDAR;D_O_M 0.0000
-2.3075 FEBRUARY FIFTEENTH;CALENDAR;W_B_D 0.0000
-1.9553 FEBRUARY FIFTH -0.2592
-2.9096 FEBRUARY FIFTH;CALENDAR;D_O_M 0.0000
-2.3075 FEBRUARY FIFTH;CALENDAR;W_B_D 0.0000
-1.9553 FEBRUARY FIRST -0.2814
-2.9096 FEBRUARY FIRST;CALENDAR;D_O_M 0.0000
-2.3075 FEBRUARY FIRST;CALENDAR;W_B_D 0.0000
-1.9553 FEBRUARY FOURTEENTH -0.2592
-2.9096 FEBRUARY FOURTEENTH;CALENDAR;D_O_M 0.0000
-2.3075 FEBRUARY FOURTEENTH;CALENDAR;W_B_D 0.0000
-1.9553 FEBRUARY FOURTH -0.2814
-2.9096 FEBRUARY FOURTH;CALENDAR;D_O_M 0.0000
-2.3075 FEBRUARY FOURTH;CALENDAR;W_B_D 0.0000
-1.9553 FEBRUARY NINETEENTH -0.2592
-2.9096 FEBRUARY NINETEENTH;CALENDAR;D_O_M 0.0000
-2.3075 FEBRUARY NINETEENTH;CALENDAR;W_B_D 0.0000
-1.9553 FEBRUARY NINTH -0.2592
-2.9096 FEBRUARY NINTH;CALENDAR;D_O_M 0.0000
-2.3075 FEBRUARY NINTH;CALENDAR;W_B_D 0.0000
-1.9553 FEBRUARY SECOND -0.2814
-2.9096 FEBRUARY SECOND;CALENDAR;D_O_M 0.0000
-2.3075 FEBRUARY SECOND;CALENDAR;W_B_D 0.0000
-1.9553 FEBRUARY SEVENTEENTH -0.2592
-2.9096 FEBRUARY SEVENTEENTH;CALENDAR;D_O_M 0.0000
-2.3075 FEBRUARY SEVENTEENTH;CALENDAR;W_B_D 0.0000
-1.9553 FEBRUARY SEVENTH -0.2592
-2.9096 FEBRUARY SEVENTH;CALENDAR;D_O_M 0.0000
-2.3075 FEBRUARY SEVENTH;CALENDAR;W_B_D 0.0000
-1.9553 FEBRUARY SIXTEENTH -0.2592
-2.9096 FEBRUARY SIXTEENTH;CALENDAR;D_O_M 0.0000
-2.3075 FEBRUARY SIXTEENTH;CALENDAR;W_B_D 0.0000
-1.9553 FEBRUARY SIXTH -0.2592
-2.9096 FEBRUARY SIXTH;CALENDAR;D_O_M 0.0000
-2.3075 FEBRUARY SIXTH;CALENDAR;W_B_D 0.0000
-1.9553 FEBRUARY THIRD -0.2814
-2.9096 FEBRUARY THIRD;CALENDAR;D_O_M 0.0000
-2.3075 FEBRUARY THIRD;CALENDAR;W_B_D 0.0000
-1.9553 FEBRUARY THIRTEENTH -0.2592
-2.9096 FEBRUARY THIRTEENTH;CALENDAR;D_O_M 0.0000
-2.3075 FEBRUARY THIRTEENTH;CALENDAR;W_B_D 0.0000
-1.9553 FEBRUARY THIRTIETH -0.2592
-2.9096 FEBRUARY THIRTIETH;CALENDAR;D_O_M 0.0000
-2.3075 FEBRUARY THIRTIETH;CALENDAR;W_B_D 0.0000
-1.9553 FEBRUARY THIRTY-FIRST -0.2592
-2.9096 FEBRUARY THIRTY-FIRST;CALENDAR;D_O_M 0.0000
-2.3075 FEBRUARY THIRTY-FIRST;CALENDAR;W_B_D 0.0000
-1.9553 FEBRUARY TWENTIETH -0.2592
-2.9096 FEBRUARY TWENTIETH;CALENDAR;D_O_M 0.0000
-2.3075 FEBRUARY TWENTIETH;CALENDAR;W_B_D 0.0000
-1.9553 FEBRUARY TWENTY-EIGTH -0.2592
-2.9096 FEBRUARY TWENTY-EIGTH;CALENDAR;D_O_M 0.0000
-2.3075 FEBRUARY TWENTY-EIGTH;CALENDAR;W_B_D 0.0000
-1.9553 FEBRUARY TWENTY-FIFTH -0.2592
-2.9096 FEBRUARY TWENTY-FIFTH;CALENDAR;D_O_M 0.0000
-2.3075 FEBRUARY TWENTY-FIFTH;CALENDAR;W_B_D 0.0000
-1.9553 FEBRUARY TWENTY-FIRST -0.2592
-2.9096 FEBRUARY TWENTY-FIRST;CALENDAR;D_O_M 0.0000
-2.3075 FEBRUARY TWENTY-FIRST;CALENDAR;W_B_D 0.0000
-1.9553 FEBRUARY TWENTY-FOURTH -0.2592
-2.9096 FEBRUARY TWENTY-FOURTH;CALENDAR;D_O_M 0.0000
-2.3075 FEBRUARY TWENTY-FOURTH;CALENDAR;W_B_D 0.0000
-1.9553 FEBRUARY TWENTY-NINTH -0.2592
-2.9096 FEBRUARY TWENTY-NINTH;CALENDAR;D_O_M 0.0000
-2.3075 FEBRUARY TWENTY-NINTH;CALENDAR;W_B_D 0.0000
-1.9553 FEBRUARY TWENTY-SECOND -0.2592
-2.9096 FEBRUARY TWENTY-SECOND;CALENDAR;D_O_M 0.0000
-2.3075 FEBRUARY TWENTY-SECOND;CALENDAR;W_B_D 0.0000
-1.9553 FEBRUARY TWENTY-SEVENTH -0.2592
-2.9096 FEBRUARY TWENTY-SEVENTH;CALENDAR;D_O_M 0.0000
-2.3075 FEBRUARY TWENTY-SEVENTH;CALENDAR;W_B_D 0.0000
-1.9553 FEBRUARY TWENTY-SIXTH -0.2592
-2.9096 FEBRUARY TWENTY-SIXTH;CALENDAR;D_O_M 0.0000
-2.3075 FEBRUARY TWENTY-SIXTH;CALENDAR;W_B_D 0.0000
-1.9553 FEBRUARY TWENTY-THIRD -0.2592
-2.9096 FEBRUARY TWENTY-THIRD;CALENDAR;D_O_M 0.0000
-2.3075 FEBRUARY TWENTY-THIRD;CALENDAR;W_B_D 0.0000
-0.3010 FEBRUARY;CALENDAR;D_O_M </s> -0.3010
-0.3010 FEBRUARY;CALENDAR;D_O_M_N </s> -0.3010
-0.3010 FEBRUARY;CALENDAR;WD_O_M </s> -0.3010
-0.3010 FEBRUARY;CALENDAR;WD_O_M_N </s> -0.3010
-0.3010 FEBRUARY;CALENDAR;W_O_M </s> -0.3010
-0.3010 FEBRUARY;CALENDAR;W_O_M_N </s> -0.3010
-0.3010 FEBRUARYEIGHTEENTH FOR -0.2218
-0.3010 FEBRUARYEIGTH FOR -0.2218
-0.3010 FEBRUARYELEVENTH FOR -0.2218
-0.3010 FEBRUARYFIFTEENTH FOR -0.2218
-0.3010 FEBRUARYFIFTH FOR -0.2218
-0.3010 FEBRUARYFIRST FOR -0.2218
-0.3010 FEBRUARYFOURTEENTH FOR -0.2218
-0.3010 FEBRUARYFOURTH FOR -0.2218
-0.3010 FEBRUARYNINETEENTH FOR -0.2218
-0.3010 FEBRUARYNINTH FOR -0.2218
-0.3010 FEBRUARYSECOND FOR -0.2218
-0.3010 FEBRUARYSEVENTEENTH FOR -0.2218
-0.3010 FEBRUARYSEVENTH FOR -0.2218
-0.3010 FEBRUARYSIXTEENTH FOR -0.2218
-0.3010 FEBRUARYSIXTH FOR -0.2218
-0.3010 FEBRUARYTHIRD FOR -0.2218
-0.3010 FEBRUARYTHIRTEENTH FOR -0.2218
-0.3010 FEBRUARYTHIRTIETH FOR -0.2218
-0.3010 FEBRUARYTHIRTY-FIRST FOR -0.2218
-0.3010 FEBRUARYTWENTIETH FOR -0.2218
-0.3010 FEBRUARYTWENTY-EIGTH FOR -0.2218
-0.3010 FEBRUARYTWENTY-FIFTH FOR -0.2218
-0.3010 FEBRUARYTWENTY-FIRST FOR -0.2218
-0.3010 FEBRUARYTWENTY-FOURTH FOR -0.2218
-0.3010 FEBRUARYTWENTY-NINTH FOR -0.2218
-0.3010 FEBRUARYTWENTY-SECOND FOR -0.2218
-0.3010 FEBRUARYTWENTY-SEVENTH FOR -0.2218
-0.3010 FEBRUARYTWENTY-SIXTH FOR -0.2218
-0.3010 FEBRUARYTWENTY-THIRD FOR -0.2218
-1.0370 FIFTEENTH FOR -0.2218
-1.5141 FIFTEENTH FORAI;CALENDAR;W_B_D_N 0.0000
-1.5141 FIFTEENTH FORBENJAMIN;CALENDAR;W_B_D_N 0.0000
-1.5141 FIFTEENTH FORERIK;CALENDAR;W_B_D_N 0.0000
-0.6488 FIFTEENTH OF -0.1962
-1.0370 FIFTEENTH WEEK -0.1093
-0.3010 FIFTEENTH;CALENDAR;D_O_M </s> -0.3010
-0.3010 FIFTEENTH;CALENDAR;W_B_D </s> -0.3010
-0.3010 FIFTEENTH;CALENDAR;W_B_D_N </s> -0.3010
-1.0370 FIFTH FOR -0.2218
-1.5141 FIFTH FORAI;CALENDAR;W_B_D_N 0.0000
-1.5141 FIFTH FORBENJAMIN;CALENDAR;W_B_D_N 0.0000
-1.5141 FIFTH FORERIK;CALENDAR;W_B_D_N 0.0000
-0.6488 FIFTH OF -0.1962
-1.0370 FIFTH WEEK -0.1093
-0.3010 FIFTH;CALENDAR;D_O_M </s> -0.3010
-0.3010 FIFTH;CALENDAR;W_B_D </s> -0.3010
-0.3010 FIFTH;CALENDAR;W_B_D_N </s> -0.3010
-1.3554 FIRST FOR -0.2218
-1.8325 FIRST FORAI;CALENDAR;W_B_D_N 0.0000
-1.8325 FIRST FORBENJAMIN;CALENDAR;W_B_D_N 0.0000
-1.8325 FIRST FORERIK;CALENDAR;W_B_D_N 0.0000
-1.7076 FIRST FRIDAY -0.0637
-1.7076 FIRST MONDAY -0.0637
-0.9672 FIRST OF -0.1962
-1.7076 FIRST SATURDAY -0.0637
-1.7076 FIRST SUNDAY -0.0637
-1.7076 FIRST THURSDAY -0.0637
-1.7076 FIRST TUESDAY -0.0637
-1.7076 FIRST WEDNESDAY -0.0637
-0.7782 FIRST WEEK -0.1093
-0.3010 FIRST;CALENDAR;D_O_M </s> -0.3010
-0.3010 FIRST;CALENDAR;W_B_D </s> -0.3010
-0.3010 FIRST;CALENDAR;W_B_D_N </s> -0.3010
-1.2553 FOR AI;CALENDAR;M_N 0.0000
-1.2553 FOR AI;CALENDAR;W_O_M_N 0.0000
-1.2553 FOR BENJAMIN;CALENDAR;M_N 0.0000
-1.2553 FOR BENJAMIN;CALENDAR;W_O_M_N 0.0000
-1.2553 FOR ERIK;CALENDAR;M_N 0.0000
-1.2553 FOR ERIK;CALENDAR;W_O_M_N 0.0000
-0.7782 FOR WEEK -0.2340
-0.3010 FORAI;CALENDAR;N_WD_N </s> -0.3010
-0.3010 FORAI;CALENDAR;W_B_D_N </s> -0.3010
-0.3010 FORBENJAMIN;CALENDAR;N_WD_N </s> -0.3010
-0.3010 FORBENJAMIN;CALENDAR;W_B_D_N </s> -0.3010
-0.3010 FORERIK;CALENDAR;N_WD_N </s> -0.3010
-0.3010 FORERIK;CALENDAR;W_B_D_N </s> -0.3010
-1.0370 FOURTEENTH FOR -0.2218
-1.5141 FOURTEENTH FORAI;CALENDAR;W_B_D_N 0.0000
-1.5141 FOURTEENTH FORBENJAMIN;CALENDAR;W_B_D_N 0.0000
-1.5141 FOURTEENTH FORERIK;CALENDAR;W_B_D_N 0.0000
-0.6488 FOURTEENTH OF -0.1962
-1.0370 FOURTEENTH WEEK -0.1093
-0.3010 FOURTEENTH;CALENDAR;D_O_M </s> -0.3010
-0.3010 FOURTEENTH;CALENDAR;W_B_D </s> -0.3010
-0.3010 FOURTEENTH;CALENDAR;W_B_D_N </s> -0.3010
-1.3554 FOURTH FOR -0.2218
-1.8325 FOURTH FORAI;CALENDAR;W_B_D_N 0.0000
-1.8325 FOURTH FORBENJAMIN;CALENDAR;W_B_D_N 0.0000
-1.8325 FOURTH FORERIK;CALENDAR;W_B_D_N 0.0000
-1.7076 FOURTH FRIDAY -0.0637
-1.7076 FOURTH MONDAY -0.0637
-0.9672 FOURTH OF -0.1962
-1.7076 FOURTH SATURDAY -0.0637
-1.7076 FOURTH SUNDAY -0.0637
-1.7076 FOURTH THURSDAY -0.0637
-1.7076 FOURTH TUESDAY -0.0637
-1.7076 FOURTH WEDNESDAY -0.0637
-0.7782 FOURTH WEEK -0.1093
-0.3010 FOURTH;CALENDAR;D_O_M </s> -0.3010
-0.3010 FOURTH;CALENDAR;W_B_D </s> -0.3010
-0.3010 FOURTH;CALENDAR;W_B_D_N </s> -0.3010
-1.5798 FRIDAY FORAI;CALENDAR;N_WD_N 0.0000
-1.5798 FRIDAY FORBENJAMIN;CALENDAR;N_WD_N 0.0000
-1.5798 FRIDAY FORERIK;CALENDAR;N_WD_N 0.0000
-0.3757 FRIDAY OF -0.2844
-0.3010 FRIDAY;CALENDAR;N_WD </s> -0.3010
-0.3010 FRIDAY;CALENDAR;N_WD_N </s> -0.3010
-0.3223 GO TO -0.0000
-1.6225 GO TOWEEK 0.0000
-1.9553 JANUARY EIGHTEENTH -0.2592
-2.9096 JANUARY EIGHTEENTH;CALENDAR;D_O_M 0.0000
-2.3075 JANUARY EIGHTEENTH;CALENDAR;W_B_D 0.0000
-1.9553 JANUARY EIGTH -0.2592
-2.9096 JANUARY EIGTH;CALENDAR;D_O_M 0.0000
-2.3075 JANUARY EIGTH;CALENDAR;W_B_D 0.0000
-1.9553 JANUARY ELEVENTH -0.2592
-2.9096 JANUARY ELEVENTH;CALENDAR;D_O_M 0.0000
-2.3075 JANUARY ELEVENTH;CALENDAR;W_B_D 0.0000
-1.9553 JANUARY FIFTEENTH -0.2592
-2.9096 JANUARY FIFTEENTH;CALENDAR;D_O_M 0.0000
-2.3075 JANUARY FIFTEENTH;CALENDAR;W_B_D 0.0000
-1.9553 JANUARY FIFTH -0.2592
-2.9096 JANUARY FIFTH;CALENDAR;D_O_M 0.0000
-2.3075 JANUARY FIFTH;CALENDAR;W_B_D 0.0000
-1.9553 JANUARY FIRST -0.2814
-2.9096 JANUARY FIRST;CALENDAR;D_O_M 0.0000
-2.3075 JANUARY FIRST;CALENDAR;W_B_D 0.0000
-1.9553 JANUARY FOURTEENTH -0.2592
-2.9096 JANUARY FOURTEENTH;CALENDAR;D_O_M 0.0000
-2.3075 JANUARY FOURTEENTH;CALENDAR;W_B_D 0.0000
-1.9553 JANUARY FOURTH -0.2814
-2.9096 JANUARY FOURTH;CALENDAR;D_O_M 0.0000
-2.3075 JANUARY FOURTH;CALENDAR;W_B_D 0.0000
-1.9553 JANUARY NINETEENTH -0.2592
-2.9096 JANUARY NINETEENTH;CALENDAR;D_O_M 0.0000
-2.3075 JANUARY NINETEENTH;CALENDAR;W_B_D 0.0000
-1.9553 JANUARY NINTH -0.2592
-2.9096 JANUARY NINTH;CALENDAR;D_O_M 0.0000
-2.3075 JANUARY NINTH;CALENDAR;W_B_D 0.0000
-1.9553 JANUARY SECOND -0.2814
-2.9096 JANUARY SECOND;CALENDAR;D_O_M 0.0000
-2.3075 JANUARY SECOND;CALENDAR;W_B_D 0.0000
-1.9553 JANUARY SEVENTEENTH -0.2592
-2.9096 JANUARY SEVENTEENTH;CALENDAR;D_O_M 0.0000
-2.3075 JANUARY SEVENTEENTH;CALENDAR;W_B_D 0.0000
-1.9553 JANUARY SEVENTH -0.2592
-2.9096 JANUARY SEVENTH;CALENDAR;D_O_M 0.0000
-2.3075 JANUARY SEVENTH;CALENDAR;W_B_D 0.0000
-1.9553 JANUARY SIXTEENTH -0.2592
-2.9096 JANUARY SIXTEENTH;CALENDAR;D_O_M 0.0000
-2.3075 JANUARY SIXTEENTH;CALENDAR;W_B_D 0.0000
-1.9553 JANUARY SIXTH -0.2592
-2.9096 JANUARY SIXTH;CALENDAR;D_O_M 0.0000
-2.3075 JANUARY SIXTH;CALENDAR;W_B_D 0.0000
-1.9553 JANUARY THIRD -0.2814
-2.9096 JANUARY THIRD;CALENDAR;D_O_M 0.0000
-2.3075 JANUARY THIRD;CALENDAR;W_B_D 0.0000
-1.9553 JANUARY THIRTEENTH -0.2592
-2.9096 JANUARY THIRTEENTH;CALENDAR;D_O_M 0.0000
-2.3075 JANUARY THIRTEENTH;CALENDAR;W_B_D 0.0000
-1.9553 JANUARY THIRTIETH -0.2592
-2.9096 JANUARY THIRTIETH;CALENDAR;D_O_M 0.0000
-2.3075 JANUARY THIRTIETH;CALENDAR;W_B_D 0.0000
-1.9553 JANUARY THIRTY-FIRST -0.2592
-2.9096 JANUARY THIRTY-FIRST;CALENDAR;D_O_M 0.0000
-2.3075 JANUARY THIRTY-FIRST;CALENDAR;W_B_D 0.0000
-1.9553 JANUARY TWENTIETH -0.2592
-2.9096 JANUARY TWENTIETH;CALENDAR;D_O_M 0.0000
-2.3075 JANUARY TWENTIETH;CALENDAR;W_B_D 0.0000
-1.9553 JANUARY TWENTY-EIGTH -0.2592
-2.9096 JANUARY TWENTY-EIGTH;CALENDAR;D_O_M 0.0000
-2.3075 JANUARY TWENTY-EIGTH;CALENDAR;W_B_D 0.0000
-1.9553 JANUARY TWENTY-FIFTH -0.2592
-2.9096 JANUARY TWENTY-FIFTH;CALENDAR;D_O_M 0.0000
-2.3075 JANUARY TWENTY-FIFTH;CALENDAR;W_B_D 0.0000
-1.9553 JANUARY TWENTY-FIRST -0.2592
-2.9096 JANUARY TWENTY-FIRST;CALENDAR;D_O_M 0.0000
-2.3075 JANUARY TWENTY-FIRST;CALENDAR;W_B_D 0.0000
-1.9553 JANUARY TWENTY-FOURTH -0.2592
-2.9096 JANUARY TWENTY-FOURTH;CALENDAR;D_O_M 0.0000
-2.3075 JANUARY TWENTY-FOURTH;CALENDAR;W_B_D 0.0000
-1.9553 JANUARY TWENTY-NINTH -0.2592
-2.9096 JANUARY TWENTY-NINTH;CALENDAR;D_O_M 0.0000
-2.3075 JANUARY TWENTY-NINTH;CALENDAR;W_B_D 0.0000
-1.9553 JANUARY TWENTY-SECOND -0.2592
-2.9096 JANUARY TWENTY-SECOND;CALENDAR;D_O_M 0.0000
-2.3075 JANUARY TWENTY-SECOND;CALENDAR;W_B_D 0.0000
-1.9553 JANUARY TWENTY-SEVENTH -0.2592
-2.9096 JANUARY TWENTY-SEVENTH;CALENDAR;D_O_M 0.0000
-2.3075 JANUARY TWENTY-SEVENTH;CALENDAR;W_B_D 0.0000
-1.9553 JANUARY TWENTY-SIXTH -0.2592
-2.9096 JANUARY TWENTY-SIXTH;CALENDAR;D_O_M 0.0000
-2.3075 JANUARY TWENTY-SIXTH;CALENDAR;W_B_D 0.0000
-1.9553 JANUARY TWENTY-THIRD -0.2592
-2.9096 JANUARY TWENTY-THIRD;CALENDAR;D_O_M 0.0000
-2.3075 JANUARY TWENTY-THIRD;CALENDAR;W_B_D 0.0000
-0.3010 JANUARY;CALENDAR;D_O_M </s> -0.3010
-0.3010 JANUARY;CALENDAR;D_O_M_N </s> -0.3010
-0.3010 JANUARY;CALENDAR;WD_O_M </s> -0.3010
-0.3010 JANUARY;CALENDAR;WD_O_M_N </s> -0.3010
-0.3010 JANUARY;CALENDAR;W_O_M </s> -0.3010
-0.3010 JANUARY;CALENDAR;W_O_M_N </s> -0.3010
-0.3010 JANUARYEIGHTEENTH FOR -0.2218
-0.3010 JANUARYEIGTH FOR -0.2218
-0.3010 JANUARYELEVENTH FOR -0.2218
-0.3010 JANUARYFIFTEENTH FOR -0.2218
-0.3010 JANUARYFIFTH FOR -0.2218
-0.3010 JANUARYFIRST FOR -0.2218
-0.3010 JANUARYFOURTEENTH FOR -0.2218
-0.3010 JANUARYFOURTH FOR -0.2218
-0.3010 JANUARYNINETEENTH FOR -0.2218
-0.3010 JANUARYNINTH FOR -0.2218
-0.3010 JANUARYSECOND FOR -0.2218
-0.3010 JANUARYSEVENTEENTH FOR -0.2218
-0.3010 JANUARYSEVENTH FOR -0.2218
-0.3010 JANUARYSIXTEENTH FOR -0.2218
-0.3010 JANUARYSIXTH FOR -0.2218
-0.3010 JANUARYTHIRD FOR -0.2218
-0.3010 JANUARYTHIRTEENTH FOR -0.2218
-0.3010 JANUARYTHIRTIETH FOR -0.2218
-0.3010 JANUARYTHIRTY-FIRST FOR -0.2218
-0.3010 JANUARYTWENTIETH FOR -0.2218
-0.3010 JANUARYTWENTY-EIGTH FOR -0.2218
-0.3010 JANUARYTWENTY-FIFTH FOR -0.2218
-0.3010 JANUARYTWENTY-FIRST FOR -0.2218
-0.3010 JANUARYTWENTY-FOURTH FOR -0.2218
-0.3010 JANUARYTWENTY-NINTH FOR -0.2218
-0.3010 JANUARYTWENTY-SECOND FOR -0.2218
-0.3010 JANUARYTWENTY-SEVENTH FOR -0.2218
-0.3010 JANUARYTWENTY-SIXTH FOR -0.2218
-0.3010 JANUARYTWENTY-THIRD FOR -0.2218
-1.9553 JULY EIGHTEENTH -0.2592
-2.9096 JULY EIGHTEENTH;CALENDAR;D_O_M 0.0000
-2.3075 JULY EIGHTEENTH;CALENDAR;W_B_D 0.0000
-1.9553 JULY EIGTH -0.2592
-2.9096 JULY EIGTH;CALENDAR;D_O_M 0.0000
-2.3075 JULY EIGTH;CALENDAR;W_B_D 0.0000
-1.9553 JULY ELEVENTH -0.2592
-2.9096 JULY ELEVENTH;CALENDAR;D_O_M 0.0000
-2.3075 JULY ELEVENTH;CALENDAR;W_B_D 0.0000
-1.9553 JULY FIFTEENTH -0.2592
-2.9096 JULY FIFTEENTH;CALENDAR;D_O_M 0.0000
-2.3075 JULY FIFTEENTH;CALENDAR;W_B_D 0.0000
-1.9553 JULY FIFTH -0.2592
-2.9096 JULY FIFTH;CALENDAR;D_O_M 0.0000
-2.3075 JULY FIFTH;CALENDAR;W_B_D 0.0000
-1.9553 JULY FIRST -0.2814
-2.9096 JULY FIRST;CALENDAR;D_O_M 0.0000
-2.3075 JULY FIRST;CALENDAR;W_B_D 0.0000
-1.9553 JULY FOURTEENTH -0.2592
-2.9096 JULY FOURTEENTH;CALENDAR;D_O_M 0.0000
-2.3075 JULY FOURTEENTH;CALENDAR;W_B_D 0.0000
-1.9553 JULY FOURTH -0.2814
-2.9096 JULY FOURTH;CALENDAR;D_O_M 0.0000
-2.3075 JULY FOURTH;CALENDAR;W_B_D 0.0000
-1.9553 JULY NINETEENTH -0.2592
-2.9096 JULY NINETEENTH;CALENDAR;D_O_M 0.0000
-2.3075 JULY NINETEENTH;CALENDAR;W_B_D 0.0000
-1.9553 JULY NINTH -0.2592
-2.9096 JULY NINTH;CALENDAR;D_O_M 0.0000
-2.3075 JULY NINTH;CALENDAR;W_B_D 0.0000
-1.9553 JULY SECOND -0.2814
-2.9096 JULY SECOND;CALENDAR;D_O_M 0.0000
-2.3075 JULY SECOND;CALENDAR;W_B_D 0.0000
-1.9553 JULY SEVENTEENTH -0.2592
-2.9096 JULY SEVENTEENTH;CALENDAR;D_O_M 0.0000
-2.3075 JULY SEVENTEENTH;CALENDAR;W_B_D 0.0000
-1.9553 JULY SEVENTH -0.2592
-2.9096 JULY SEVENTH;CALENDAR;D_O_M 0.0000
-2.3075 JULY SEVENTH;CALENDAR;W_B_D 0.0000
-1.9553 JULY SIXTEENTH -0.2592
-2.9096 JULY SIXTEENTH;CALENDAR;D_O_M 0.0000
-2.3075 JULY SIXTEENTH;CALENDAR;W_B_D 0.0000
-1.9553 JULY SIXTH -0.2592
-2.9096 JULY SIXTH;CALENDAR;D_O_M 0.0000
-2.3075 JULY SIXTH;CALENDAR;W_B_D 0.0000
-1.9553 JULY THIRD -0.2814
-2.9096 JULY THIRD;CALENDAR;D_O_M 0.0000
-2.3075 JULY THIRD;CALENDAR;W_B_D 0.0000
-1.9553 JULY THIRTEENTH -0.2592
-2.9096 JULY THIRTEENTH;CALENDAR;D_O_M 0.0000
-2.3075 JULY THIRTEENTH;CALENDAR;W_B_D 0.0000
-1.9553 JULY THIRTIETH -0.2592
-2.9096 JULY THIRTIETH;CALENDAR;D_O_M 0.0000
-2.3075 JULY THIRTIETH;CALENDAR;W_B_D 0.0000
-1.9553 JULY THIRTY-FIRST -0.2592
-2.9096 JULY THIRTY-FIRST;CALENDAR;D_O_M 0.0000
-2.3075 JULY THIRTY-FIRST;CALENDAR;W_B_D 0.0000
-1.9553 JULY TWENTIETH -0.2592
-2.9096 JULY TWENTIETH;CALENDAR;D_O_M 0.0000
-2.3075 JULY TWENTIETH;CALENDAR;W_B_D 0.0000
-1.9553 JULY TWENTY-EIGTH -0.2592
-2.9096 JULY TWENTY-EIGTH;CALENDAR;D_O_M 0.0000
-2.3075 JULY TWENTY-EIGTH;CALENDAR;W_B_D 0.0000
-1.9553 JULY TWENTY-FIFTH -0.2592
-2.9096 JULY TWENTY-FIFTH;CALENDAR;D_O_M 0.0000
-2.3075 JULY TWENTY-FIFTH;CALENDAR;W_B_D 0.0000
-1.9553 JULY TWENTY-FIRST -0.2592
-2.9096 JULY TWENTY-FIRST;CALENDAR;D_O_M 0.0000
-2.3075 JULY TWENTY-FIRST;CALENDAR;W_B_D 0.0000
-1.9553 JULY TWENTY-FOURTH -0.2592
-2.9096 JULY TWENTY-FOURTH;CALENDAR;D_O_M 0.0000
-2.3075 JULY TWENTY-FOURTH;CALENDAR;W_B_D 0.0000
-1.9553 JULY TWENTY-NINTH -0.2592
-2.9096 JULY TWENTY-NINTH;CALENDAR;D_O_M 0.0000
-2.3075 JULY TWENTY-NINTH;CALENDAR;W_B_D 0.0000
-1.9553 JULY TWENTY-SECOND -0.2592
-2.9096 JULY TWENTY-SECOND;CALENDAR;D_O_M 0.0000
-2.3075 JULY TWENTY-SECOND;CALENDAR;W_B_D 0.0000
-1.9553 JULY TWENTY-SEVENTH -0.2592
-2.9096 JULY TWENTY-SEVENTH;CALENDAR;D_O_M 0.0000
-2.3075 JULY TWENTY-SEVENTH;CALENDAR;W_B_D 0.0000
-1.9553 JULY TWENTY-SIXTH -0.2592
-2.9096 JULY TWENTY-SIXTH;CALENDAR;D_O_M 0.0000
-2.3075 JULY TWENTY-SIXTH;CALENDAR;W_B_D 0.0000
-1.9553 JULY TWENTY-THIRD -0.2592
-2.9096 JULY TWENTY-THIRD;CALENDAR;D_O_M 0.0000
-2.3075 JULY TWENTY-THIRD;CALENDAR;W_B_D 0.0000
-0.3010 JULY;CALENDAR;D_O_M </s> -0.3010
-0.3010 JULY;CALENDAR;D_O_M_N </s> -0.3010
-0.3010 JULY;CALENDAR;WD_O_M </s> -0.3010
-0.3010 JULY;CALENDAR;WD_O_M_N </s> -0.3010
-0.3010 JULY;CALENDAR;W_O_M </s> -0.3010
-0.3010 JULY;CALENDAR;W_O_M_N </s> -0.3010
-0.3010 JULYEIGHTEENTH FOR -0.2218
-0.3010 JULYEIGTH FOR -0.2218
-0.3010 JULYELEVENTH FOR -0.2218
-0.3010 JULYFIFTEENTH FOR -0.2218
-0.3010 JULYFIFTH FOR -0.2218
-0.3010 JULYFIRST FOR -0.2218
-0.3010 JULYFOURTEENTH FOR -0.2218
-0.3010 JULYFOURTH FOR -0.2218
-0.3010 JULYNINETEENTH FOR -0.2218
-0.3010 JULYNINTH FOR -0.2218
-0.3010 JULYSECOND FOR -0.2218
-0.3010 JULYSEVENTEENTH FOR -0.2218
-0.3010 JULYSEVENTH FOR -0.2218
-0.3010 JULYSIXTEENTH FOR -0.2218
-0.3010 JULYSIXTH FOR -0.2218
-0.3010 JULYTHIRD FOR -0.2218
-0.3010 JULYTHIRTEENTH FOR -0.2218
-0.3010 JULYTHIRTIETH FOR -0.2218
-0.3010 JULYTHIRTY-FIRST FOR -0.2218
-0.3010 JULYTWENTIETH FOR -0.2218
-0.3010 JULYTWENTY-EIGTH FOR -0.2218
-0.3010 JULYTWENTY-FIFTH FOR -0.2218
-0.3010 JULYTWENTY-FIRST FOR -0.2218
-0.3010 JULYTWENTY-FOURTH FOR -0.2218
-0.3010 JULYTWENTY-NINTH FOR -0.2218
-0.3010 JULYTWENTY-SECOND FOR -0.2218
-0.3010 JULYTWENTY-SEVENTH FOR -0.2218
-0.3010 JULYTWENTY-SIXTH FOR -0.2218
-0.3010 JULYTWENTY-THIRD FOR -0.2218
-1.9553 JUNE EIGHTEENTH -0.2592
-2.9096 JUNE EIGHTEENTH;CALENDAR;D_O_M 0.0000
-2.3075 JUNE EIGHTEENTH;CALENDAR;W_B_D 0.0000
-1.9553 JUNE EIGTH -0.2592
-2.9096 JUNE EIGTH;CALENDAR;D_O_M 0.0000
-2.3075 JUNE EIGTH;CALENDAR;W_B_D 0.0000
-1.9553 JUNE ELEVENTH -0.2592
-2.9096 JUNE ELEVENTH;CALENDAR;D_O_M 0.0000
-2.3075 JUNE ELEVENTH;CALENDAR;W_B_D 0.0000
-1.9553 JUNE FIFTEENTH -0.2592
-2.9096 JUNE FIFTEENTH;CALENDAR;D_O_M 0.0000
-2.3075 JUNE FIFTEENTH;CALENDAR;W_B_D 0.0000
-1.9553 JUNE FIFTH -0.2592
-2.9096 JUNE FIFTH;CALENDAR;D_O_M 0.0000
-2.3075 JUNE FIFTH;CALENDAR;W_B_D 0.0000
-1.9553 JUNE FIRST -0.2814
-2.9096 JUNE FIRST;CALENDAR;D_O_M 0.0000
-2.3075 JUNE FIRST;CALENDAR;W_B_D 0.0000
-1.9553 JUNE FOURTEENTH -0.2592
-2.9096 JUNE FOURTEENTH;CALENDAR;D_O_M 0.0000
-2.3075 JUNE FOURTEENTH;CALENDAR;W_B_D 0.0000
-1.9553 JUNE FOURTH -0.2814
-2.9096 JUNE FOURTH;CALENDAR;D_O_M 0.0000
-2.3075 JUNE FOURTH;CALENDAR;W_B_D 0.0000
-1.9553 JUNE NINETEENTH -0.2592
-2.9096 JUNE NINETEENTH;CALENDAR;D_O_M 0.0000
-2.3075 JUNE NINETEENTH;CALENDAR;W_B_D 0.0000
-1.9553 JUNE NINTH -0.2592
-2.9096 JUNE NINTH;CALENDAR;D_O_M 0.0000
-2.3075 JUNE NINTH;CALENDAR;W_B_D 0.0000
-1.9553 JUNE SECOND -0.2814
-2.9096 JUNE SECOND;CALENDAR;D_O_M 0.0000
-2.3075 JUNE SECOND;CALENDAR;W_B_D 0.0000
-1.9553 JUNE SEVENTEENTH -0.2592
-2.9096 JUNE SEVENTEENTH;CALENDAR;D_O_M 0.0000
-2.3075 JUNE SEVENTEENTH;CALENDAR;W_B_D 0.0000
-1.9553 JUNE SEVENTH -0.2592
-2.9096 JUNE SEVENTH;CALENDAR;D_O_M 0.0000
-2.3075 JUNE SEVENTH;CALENDAR;W_B_D 0.0000
-1.9553 JUNE SIXTEENTH -0.2592
-2.9096 JUNE SIXTEENTH;CALENDAR;D_O_M 0.0000
-2.3075 JUNE SIXTEENTH;CALENDAR;W_B_D 0.0000
-1.9553 JUNE SIXTH -0.2592
-2.9096 JUNE SIXTH;CALENDAR;D_O_M 0.0000
-2.3075 JUNE SIXTH;CALENDAR;W_B_D 0.0000
-1.9553 JUNE THIRD -0.2814
-2.9096 JUNE THIRD;CALENDAR;D_O_M 0.0000
-2.3075 JUNE THIRD;CALENDAR;W_B_D 0.0000
-1.9553 JUNE THIRTEENTH -0.2592
-2.9096 JUNE THIRTEENTH;CALENDAR;D_O_M 0.0000
-2.3075 JUNE THIRTEENTH;CALENDAR;W_B_D 0.0000
-1.9553 JUNE THIRTIETH -0.2592
-2.9096 JUNE THIRTIETH;CALENDAR;D_O_M 0.0000
-2.3075 JUNE THIRTIETH;CALENDAR;W_B_D 0.0000
-1.9553 JUNE THIRTY-FIRST -0.2592
-2.9096 JUNE THIRTY-FIRST;CALENDAR;D_O_M 0.0000
-2.3075 JUNE THIRTY-FIRST;CALENDAR;W_B_D 0.0000
-1.9553 JUNE TWENTIETH -0.2592
-2.9096 JUNE TWENTIETH;CALENDAR;D_O_M 0.0000
-2.3075 JUNE TWENTIETH;CALENDAR;W_B_D 0.0000
-1.9553 JUNE TWENTY-EIGTH -0.2592
-2.9096 JUNE TWENTY-EIGTH;CALENDAR;D_O_M 0.0000
-2.3075 JUNE TWENTY-EIGTH;CALENDAR;W_B_D 0.0000
-1.9553 JUNE TWENTY-FIFTH -0.2592
-2.9096 JUNE TWENTY-FIFTH;CALENDAR;D_O_M 0.0000
-2.3075 JUNE TWENTY-FIFTH;CALENDAR;W_B_D 0.0000
-1.9553 JUNE TWENTY-FIRST -0.2592
-2.9096 JUNE TWENTY-FIRST;CALENDAR;D_O_M 0.0000
-2.3075 JUNE TWENTY-FIRST;CALENDAR;W_B_D 0.0000
-1.9553 JUNE TWENTY-FOURTH -0.2592
-2.9096 JUNE TWENTY-FOURTH;CALENDAR;D_O_M 0.0000
-2.3075 JUNE TWENTY-FOURTH;CALENDAR;W_B_D 0.0000
-1.9553 JUNE TWENTY-NINTH -0.2592
-2.9096 JUNE TWENTY-NINTH;CALENDAR;D_O_M 0.0000
-2.3075 JUNE TWENTY-NINTH;CALENDAR;W_B_D 0.0000
-1.9553 JUNE TWENTY-SECOND -0.2592
-2.9096 JUNE TWENTY-SECOND;CALENDAR;D_O_M 0.0000
-2.3075 JUNE TWENTY-SECOND;CALENDAR;W_B_D 0.0000
-1.9553 JUNE TWENTY-SEVENTH -0.2592
-2.9096 JUNE TWENTY-SEVENTH;CALENDAR;D_O_M 0.0000
-2.3075 JUNE TWENTY-SEVENTH;CALENDAR;W_B_D 0.0000
-1.9553 JUNE TWENTY-SIXTH -0.2592
-2.9096 JUNE TWENTY-SIXTH;CALENDAR;D_O_M 0.0000
-2.3075 JUNE TWENTY-SIXTH;CALENDAR;W_B_D 0.0000
-1.9553 JUNE TWENTY-THIRD -0.2592
-2.9096 JUNE TWENTY-THIRD;CALENDAR;D_O_M 0.0000
-2.3075 JUNE TWENTY-THIRD;CALENDAR;W_B_D 0.0000
-0.3010 JUNE;CALENDAR;D_O_M </s> -0.3010
-0.3010 JUNE;CALENDAR;D_O_M_N </s> -0.3010
-0.3010 JUNE;CALENDAR;WD_O_M </s> -0.3010
-0.3010 JUNE;CALENDAR;WD_O_M_N </s> -0.3010
-0.3010 JUNE;CALENDAR;W_O_M </s> -0.3010
-0.3010 JUNE;CALENDAR;W_O_M_N </s> -0.3010
-0.3010 JUNEEIGHTEENTH FOR -0.2218
-0.3010 JUNEEIGTH FOR -0.2218
-0.3010 JUNEELEVENTH FOR -0.2218
-0.3010 JUNEFIFTEENTH FOR -0.2218
-0.3010 JUNEFIFTH FOR -0.2218
-0.3010 JUNEFIRST FOR -0.2218
-0.3010 JUNEFOURTEENTH FOR -0.2218
-0.3010 JUNEFOURTH FOR -0.2218
-0.3010 JUNENINETEENTH FOR -0.2218
-0.3010 JUNENINTH FOR -0.2218
-0.3010 JUNESECOND FOR -0.2218
-0.3010 JUNESEVENTEENTH FOR -0.2218
-0.3010 JUNESEVENTH FOR -0.2218
-0.3010 JUNESIXTEENTH FOR -0.2218
-0.3010 JUNESIXTH FOR -0.2218
-0.3010 JUNETHIRD FOR -0.2218
-0.3010 JUNETHIRTEENTH FOR -0.2218
-0.3010 JUNETHIRTIETH FOR -0.2218
-0.3010 JUNETHIRTY-FIRST FOR -0.2218
-0.3010 JUNETWENTIETH FOR -0.2218
-0.3010 JUNETWENTY-EIGTH FOR -0.2218
-0.3010 JUNETWENTY-FIFTH FOR -0.2218
-0.3010 JUNETWENTY-FIRST FOR -0.2218
-0.3010 JUNETWENTY-FOURTH FOR -0.2218
-0.3010 JUNETWENTY-NINTH FOR -0.2218
-0.3010 JUNETWENTY-SECOND FOR -0.2218
-0.3010 JUNETWENTY-SEVENTH FOR -0.2218
-0.3010 JUNETWENTY-SIXTH FOR -0.2218
-0.3010 JUNETWENTY-THIRD FOR -0.2218
-1.9553 MARCH EIGHTEENTH -0.2592
-2.9096 MARCH EIGHTEENTH;CALENDAR;D_O_M 0.0000
-2.3075 MARCH EIGHTEENTH;CALENDAR;W_B_D 0.0000
-1.9553 MARCH EIGTH -0.2592
-2.9096 MARCH EIGTH;CALENDAR;D_O_M 0.0000
-2.3075 MARCH EIGTH;CALENDAR;W_B_D 0.0000
-1.9553 MARCH ELEVENTH -0.2592
-2.9096 MARCH ELEVENTH;CALENDAR;D_O_M 0.0000
-2.3075 MARCH ELEVENTH;CALENDAR;W_B_D 0.0000
-1.9553 MARCH FIFTEENTH -0.2592
-2.9096 MARCH FIFTEENTH;CALENDAR;D_O_M 0.0000
-2.3075 MARCH FIFTEENTH;CALENDAR;W_B_D 0.0000
-1.9553 MARCH FIFTH -0.2592
-2.9096 MARCH FIFTH;CALENDAR;D_O_M 0.0000
-2.3075 MARCH FIFTH;CALENDAR;W_B_D 0.0000
-1.9553 MARCH FIRST -0.2814
-2.9096 MARCH FIRST;CALENDAR;D_O_M 0.0000
-2.3075 MARCH FIRST;CALENDAR;W_B_D 0.0000
-1.9553 MARCH FOURTEENTH -0.2592
-2.9096 MARCH FOURTEENTH;CALENDAR;D_O_M 0.0000
-2.3075 MARCH FOURTEENTH;CALENDAR;W_B_D 0.0000
-1.9553 MARCH FOURTH -0.2814
-2.9096 MARCH FOURTH;CALENDAR;D_O_M 0.0000
-2.3075 MARCH FOURTH;CALENDAR;W_B_D 0.0000
-1.9553 MARCH NINETEENTH -0.2592
-2.9096 MARCH NINETEENTH;CALENDAR;D_O_M 0.0000
-2.3075 MARCH NINETEENTH;CALENDAR;W_B_D 0.0000
-1.9553 MARCH NINTH -0.2592
-2.9096 MARCH NINTH;CALENDAR;D_O_M 0.0000
-2.3075 MARCH NINTH;CALENDAR;W_B_D 0.0000
-1.9553 MARCH SECOND -0.2814
-2.9096 MARCH SECOND;CALENDAR;D_O_M 0.0000
-2.3075 MARCH SECOND;CALENDAR;W_B_D 0.0000
-1.9553 MARCH SEVENTEENTH -0.2592
-2.9096 MARCH SEVENTEENTH;CALENDAR;D_O_M 0.0000
-2.3075 MARCH SEVENTEENTH;CALENDAR;W_B_D 0.0000
-1.9553 MARCH SEVENTH -0.2592
-2.9096 MARCH SEVENTH;CALENDAR;D_O_M 0.0000
-2.3075 MARCH SEVENTH;CALENDAR;W_B_D 0.0000
-1.9553 MARCH SIXTEENTH -0.2592
-2.9096 MARCH SIXTEENTH;CALENDAR;D_O_M 0.0000
-2.3075 MARCH SIXTEENTH;CALENDAR;W_B_D 0.0000
-1.9553 MARCH SIXTH -0.2592
-2.9096 MARCH SIXTH;CALENDAR;D_O_M 0.0000
-2.3075 MARCH SIXTH;CALENDAR;W_B_D 0.0000
-1.9553 MARCH THIRD -0.2814
-2.9096 MARCH THIRD;CALENDAR;D_O_M 0.0000
-2.3075 MARCH THIRD;CALENDAR;W_B_D 0.0000
-1.9553 MARCH THIRTEENTH -0.2592
-2.9096 MARCH THIRTEENTH;CALENDAR;D_O_M 0.0000
-2.3075 MARCH THIRTEENTH;CALENDAR;W_B_D 0.0000
-1.9553 MARCH THIRTIETH -0.2592
-2.9096 MARCH THIRTIETH;CALENDAR;D_O_M 0.0000
-2.3075 MARCH THIRTIETH;CALENDAR;W_B_D 0.0000
-1.9553 MARCH THIRTY-FIRST -0.2592
-2.9096 MARCH THIRTY-FIRST;CALENDAR;D_O_M 0.0000
-2.3075 MARCH THIRTY-FIRST;CALENDAR;W_B_D 0.0000
-1.9553 MARCH TWENTIETH -0.2592
-2.9096 MARCH TWENTIETH;CALENDAR;D_O_M 0.0000
-2.3075 MARCH TWENTIETH;CALENDAR;W_B_D 0.0000
-1.9553 MARCH TWENTY-EIGTH -0.2592
-2.9096 MARCH TWENTY-EIGTH;CALENDAR;D_O_M 0.0000
-2.3075 MARCH TWENTY-EIGTH;CALENDAR;W_B_D 0.0000
-1.9553 MARCH TWENTY-FIFTH -0.2592
-2.9096 MARCH TWENTY-FIFTH;CALENDAR;D_O_M 0.0000
-2.3075 MARCH TWENTY-FIFTH;CALENDAR;W_B_D 0.0000
-1.9553 MARCH TWENTY-FIRST -0.2592
-2.9096 MARCH TWENTY-FIRST;CALENDAR;D_O_M 0.0000
-2.3075 MARCH TWENTY-FIRST;CALENDAR;W_B_D 0.0000
-1.9553 MARCH TWENTY-FOURTH -0.2592
-2.9096 MARCH TWENTY-FOURTH;CALENDAR;D_O_M 0.0000
-2.3075 MARCH TWENTY-FOURTH;CALENDAR;W_B_D 0.0000
-1.9553 MARCH TWENTY-NINTH -0.2592
-2.9096 MARCH TWENTY-NINTH;CALENDAR;D_O_M 0.0000
-2.3075 MARCH TWENTY-NINTH;CALENDAR;W_B_D 0.0000
-1.9553 MARCH TWENTY-SECOND -0.2592
-2.9096 MARCH TWENTY-SECOND;CALENDAR;D_O_M 0.0000
-2.3075 MARCH TWENTY-SECOND;CALENDAR;W_B_D 0.0000
-1.9553 MARCH TWENTY-SEVENTH -0.2592
-2.9096 MARCH TWENTY-SEVENTH;CALENDAR;D_O_M 0.0000
-2.3075 MARCH TWENTY-SEVENTH;CALENDAR;W_B_D 0.0000
-1.9553 MARCH TWENTY-SIXTH -0.2592
-2.9096 MARCH TWENTY-SIXTH;CALENDAR;D_O_M 0.0000
-2.3075 MARCH TWENTY-SIXTH;CALENDAR;W_B_D 0.0000
-1.9553 MARCH TWENTY-THIRD -0.2592
-2.9096 MARCH TWENTY-THIRD;CALENDAR;D_O_M 0.0000
-2.3075 MARCH TWENTY-THIRD;CALENDAR;W_B_D 0.0000
-0.3010 MARCH;CALENDAR;D_O_M </s> -0.3010
-0.3010 MARCH;CALENDAR;D_O_M_N </s> -0.3010
-0.3010 MARCH;CALENDAR;WD_O_M </s> -0.3010
-0.3010 MARCH;CALENDAR;WD_O_M_N </s> -0.3010
-0.3010 MARCH;CALENDAR;W_O_M </s> -0.3010
-0.3010 MARCH;CALENDAR;W_O_M_N </s> -0.3010
-0.3010 MARCHEIGHTEENTH FOR -0.2218
-0.3010 MARCHEIGTH FOR -0.2218
-0.3010 MARCHELEVENTH FOR -0.2218
-0.3010 MARCHFIFTEENTH FOR -0.2218
-0.3010 MARCHFIFTH FOR -0.2218
-0.3010 MARCHFIRST FOR -0.2218
-0.3010 MARCHFOURTEENTH FOR -0.2218
-0.3010 MARCHFOURTH FOR -0.2218
-0.3010 MARCHNINETEENTH FOR -0.2218
-0.3010 MARCHNINTH FOR -0.2218
-0.3010 MARCHSECOND FOR -0.2218
-0.3010 MARCHSEVENTEENTH FOR -0.2218
-0.3010 MARCHSEVENTH FOR -0.2218
-0.3010 MARCHSIXTEENTH FOR -0.2218
-0.3010 MARCHSIXTH FOR -0.2218
-0.3010 MARCHTHIRD FOR -0.2218
-0.3010 MARCHTHIRTEENTH FOR -0.2218
-0.3010 MARCHTHIRTIETH FOR -0.2218
-0.3010 MARCHTHIRTY-FIRST FOR -0.2218
-0.3010 MARCHTWENTIETH FOR -0.2218
-0.3010 MARCHTWENTY-EIGTH FOR -0.2218
-0.3010 MARCHTWENTY-FIFTH FOR -0.2218
-0.3010 MARCHTWENTY-FIRST FOR -0.2218
-0.3010 MARCHTWENTY-FOURTH FOR -0.2218
-0.3010 MARCHTWENTY-NINTH FOR -0.2218
-0.3010 MARCHTWENTY-SECOND FOR -0.2218
-0.3010 MARCHTWENTY-SEVENTH FOR -0.2218
-0.3010 MARCHTWENTY-SIXTH FOR -0.2218
-0.3010 MARCHTWENTY-THIRD FOR -0.2218
-1.9553 MAY EIGHTEENTH -0.2592
-2.9096 MAY EIGHTEENTH;CALENDAR;D_O_M 0.0000
-2.3075 MAY EIGHTEENTH;CALENDAR;W_B_D 0.0000
-1.9553 MAY EIGTH -0.2592
-2.9096 MAY EIGTH;CALENDAR;D_O_M 0.0000
-2.3075 MAY EIGTH;CALENDAR;W_B_D 0.0000
-1.9553 MAY ELEVENTH -0.2592
-2.9096 MAY ELEVENTH;CALENDAR;D_O_M 0.0000
-2.3075 MAY ELEVENTH;CALENDAR;W_B_D 0.0000
-1.9553 MAY FIFTEENTH -0.2592
-2.9096 MAY FIFTEENTH;CALENDAR;D_O_M 0.0000
-2.3075 MAY FIFTEENTH;CALENDAR;W_B_D 0.0000
-1.9553 MAY FIFTH -0.2592
-2.9096 MAY FIFTH;CALENDAR;D_O_M 0.0000
-2.3075 MAY FIFTH;CALENDAR;W_B_D 0.0000
-1.9553 MAY FIRST -0.2814
-2.9096 MAY FIRST;CALENDAR;D_O_M 0.0000
-2.3075 MAY FIRST;CALENDAR;W_B_D 0.0000
-1.9553 MAY FOURTEENTH -0.2592
-2.9096 MAY FOURTEENTH;CALENDAR;D_O_M 0.0000
-2.3075 MAY FOURTEENTH;CALENDAR;W_B_D 0.0000
-1.9553 MAY FOURTH -0.2814
-2.9096 MAY FOURTH;CALENDAR;D_O_M 0.0000
-2.3075 MAY FOURTH;CALENDAR;W_B_D 0.0000
-1.9553 MAY NINETEENTH -0.2592
-2.9096 MAY NINETEENTH;CALENDAR;D_O_M 0.0000
-2.3075 MAY NINETEENTH;CALENDAR;W_B_D 0.0000
-1.9553 MAY NINTH -0.2592
-2.9096 MAY NINTH;CALENDAR;D_O_M 0.0000
-2.3075 MAY NINTH;CALENDAR;W_B_D 0.0000
-1.9553 MAY SECOND -0.2814
-2.9096 MAY SECOND;CALENDAR;D_O_M 0.0000
-2.3075 MAY SECOND;CALENDAR;W_B_D 0.0000
-1.9553 MAY SEVENTEENTH -0.2592
-2.9096 MAY SEVENTEENTH;CALENDAR;D_O_M 0.0000
-2.3075 MAY SEVENTEENTH;CALENDAR;W_B_D 0.0000
-1.9553 MAY SEVENTH -0.2592
-2.9096 MAY SEVENTH;CALENDAR;D_O_M 0.0000
-2.3075 MAY SEVENTH;CALENDAR;W_B_D 0.0000
-1.9553 MAY SIXTEENTH -0.2592
-2.9096 MAY SIXTEENTH;CALENDAR;D_O_M 0.0000
-2.3075 MAY SIXTEENTH;CALENDAR;W_B_D 0.0000
-1.9553 MAY SIXTH -0.2592
-2.9096 MAY SIXTH;CALENDAR;D_O_M 0.0000
-2.3075 MAY SIXTH;CALENDAR;W_B_D 0.0000
-1.9553 MAY THIRD -0.2814
-2.9096 MAY THIRD;CALENDAR;D_O_M 0.0000
-2.3075 MAY THIRD;CALENDAR;W_B_D 0.0000
-1.9553 MAY THIRTEENTH -0.2592
-2.9096 MAY THIRTEENTH;CALENDAR;D_O_M 0.0000
-2.3075 MAY THIRTEENTH;CALENDAR;W_B_D 0.0000
-1.9553 MAY THIRTIETH -0.2592
-2.9096 MAY THIRTIETH;CALENDAR;D_O_M 0.0000
-2.3075 MAY THIRTIETH;CALENDAR;W_B_D 0.0000
-1.9553 MAY THIRTY-FIRST -0.2592
-2.9096 MAY THIRTY-FIRST;CALENDAR;D_O_M 0.0000
-2.3075 MAY THIRTY-FIRST;CALENDAR;W_B_D 0.0000
-1.9553 MAY TWENTIETH -0.2592
-2.9096 MAY TWENTIETH;CALENDAR;D_O_M 0.0000
-2.3075 MAY TWENTIETH;CALENDAR;W_B_D 0.0000
-1.9553 MAY TWENTY-EIGTH -0.2592
-2.9096 MAY TWENTY-EIGTH;CALENDAR;D_O_M 0.0000
-2.3075 MAY TWENTY-EIGTH;CALENDAR;W_B_D 0.0000
-1.9553 MAY TWENTY-FIFTH -0.2592
-2.9096 MAY TWENTY-FIFTH;CALENDAR;D_O_M 0.0000
-2.3075 MAY TWENTY-FIFTH;CALENDAR;W_B_D 0.0000
-1.9553 MAY TWENTY-FIRST -0.2592
-2.9096 MAY TWENTY-FIRST;CALENDAR;D_O_M 0.0000
-2.3075 MAY TWENTY-FIRST;CALENDAR;W_B_D 0.0000
-1.9553 MAY TWENTY-FOURTH -0.2592
-2.9096 MAY TWENTY-FOURTH;CALENDAR;D_O_M 0.0000
-2.3075 MAY TWENTY-FOURTH;CALENDAR;W_B_D 0.0000
-1.9553 MAY TWENTY-NINTH -0.2592
-2.9096 MAY TWENTY-NINTH;CALENDAR;D_O_M 0.0000
-2.3075 MAY TWENTY-NINTH;CALENDAR;W_B_D 0.0000
-1.9553 MAY TWENTY-SECOND -0.2592
-2.9096 MAY TWENTY-SECOND;CALENDAR;D_O_M 0.0000
-2.3075 MAY TWENTY-SECOND;CALENDAR;W_B_D 0.0000
-1.9553 MAY TWENTY-SEVENTH -0.2592
-2.9096 MAY TWENTY-SEVENTH;CALENDAR;D_O_M 0.0000
-2.3075 MAY TWENTY-SEVENTH;CALENDAR;W_B_D 0.0000
-1.9553 MAY TWENTY-SIXTH -0.2592
-2.9096 MAY TWENTY-SIXTH;CALENDAR;D_O_M 0.0000
-2.3075 MAY TWENTY-SIXTH;CALENDAR;W_B_D 0.0000
-1.9553 MAY TWENTY-THIRD -0.2592
-2.9096 MAY TWENTY-THIRD;CALENDAR;D_O_M 0.0000
-2.3075 MAY TWENTY-THIRD;CALENDAR;W_B_D 0.0000
-0.3010 MAY;CALENDAR;D_O_M </s> -0.3010
-0.3010 MAY;CALENDAR;D_O_M_N </s> -0.3010
-0.3010 MAY;CALENDAR;WD_O_M </s> -0.3010
-0.3010 MAY;CALENDAR;WD_O_M_N </s> -0.3010
-0.3010 MAY;CALENDAR;W_O_M </s> -0.3010
-0.3010 MAY;CALENDAR;W_O_M_N </s> -0.3010
-0.3010 MAYEIGHTEENTH FOR -0.2218
-0.3010 MAYEIGTH FOR -0.2218
-0.3010 MAYELEVENTH FOR -0.2218
-0.3010 MAYFIFTEENTH FOR -0.2218
-0.3010 MAYFIFTH FOR -0.2218
-0.3010 MAYFIRST FOR -0.2218
-0.3010 MAYFOURTEENTH FOR -0.2218
-0.3010 MAYFOURTH FOR -0.2218
-0.3010 MAYNINETEENTH FOR -0.2218
-0.3010 MAYNINTH FOR -0.2218
-0.3010 MAYSECOND FOR -0.2218
-0.3010 MAYSEVENTEENTH FOR -0.2218
-0.3010 MAYSEVENTH FOR -0.2218
-0.3010 MAYSIXTEENTH FOR -0.2218
-0.3010 MAYSIXTH FOR -0.2218
-0.3010 MAYTHIRD FOR -0.2218
-0.3010 MAYTHIRTEENTH FOR -0.2218
-0.3010 MAYTHIRTIETH FOR -0.2218
-0.3010 MAYTHIRTY-FIRST FOR -0.2218
-0.3010 MAYTWENTIETH FOR -0.2218
-0.3010 MAYTWENTY-EIGTH FOR -0.2218
-0.3010 MAYTWENTY-FIFTH FOR -0.2218
-0.3010 MAYTWENTY-FIRST FOR -0.2218
-0.3010 MAYTWENTY-FOURTH FOR -0.2218
-0.3010 MAYTWENTY-NINTH FOR -0.2218
-0.3010 MAYTWENTY-SECOND FOR -0.2218
-0.3010 MAYTWENTY-SEVENTH FOR -0.2218
-0.3010 MAYTWENTY-SIXTH FOR -0.2218
-0.3010 MAYTWENTY-THIRD FOR -0.2218
-1.5798 MONDAY FORAI;CALENDAR;N_WD_N 0.0000
-1.5798 MONDAY FORBENJAMIN;CALENDAR;N_WD_N 0.0000
-1.5798 MONDAY FORERIK;CALENDAR;N_WD_N 0.0000
-0.3757 MONDAY OF -0.2844
-0.3010 MONDAY;CALENDAR;N_WD </s> -0.3010
-0.3010 MONDAY;CALENDAR;N_WD_N </s> -0.3010
-1.5141 NEXT FRIDAY -0.2653
-1.9912 NEXT FRIDAY;CALENDAR;N_WD 0.0000
-1.5141 NEXT FRIDAY;CALENDAR;N_WD_N 0.0000
-1.5141 NEXT MONDAY -0.2653
-1.9912 NEXT MONDAY;CALENDAR;N_WD 0.0000
-1.5141 NEXT MONDAY;CALENDAR;N_WD_N 0.0000
-1.5141 NEXT SATURDAY -0.2653
-1.9912 NEXT SATURDAY;CALENDAR;N_WD 0.0000
-1.5141 NEXT SATURDAY;CALENDAR;N_WD_N 0.0000
-1.5141 NEXT SUNDAY -0.2653
-1.9912 NEXT SUNDAY;CALENDAR;N_WD 0.0000
-1.5141 NEXT SUNDAY;CALENDAR;N_WD_N 0.0000
-1.5141 NEXT THURSDAY -0.2653
-1.9912 NEXT THURSDAY;CALENDAR;N_WD 0.0000
-1.5141 NEXT THURSDAY;CALENDAR;N_WD_N 0.0000
-1.5141 NEXT TUESDAY -0.2653
-1.9912 NEXT TUESDAY;CALENDAR;N_WD 0.0000
-1.5141 NEXT TUESDAY;CALENDAR;N_WD_N 0.0000
-1.5141 NEXT WEDNESDAY -0.2653
-1.9912 NEXT WEDNESDAY;CALENDAR;N_WD 0.0000
-1.5141 NEXT WEDNESDAY;CALENDAR;N_WD_N 0.0000
-1.0370 NINETEENTH FOR -0.2218
-1.5141 NINETEENTH FORAI;CALENDAR;W_B_D_N 0.0000
-1.5141 NINETEENTH FORBENJAMIN;CALENDAR;W_B_D_N 0.0000
-1.5141 NINETEENTH FORERIK;CALENDAR;W_B_D_N 0.0000
-0.6488 NINETEENTH OF -0.1962
-1.0370 NINETEENTH WEEK -0.1093
-0.3010 NINETEENTH;CALENDAR;D_O_M </s> -0.3010
-0.3010 NINETEENTH;CALENDAR;W_B_D </s> -0.3010
-0.3010 NINETEENTH;CALENDAR;W_B_D_N </s> -0.3010
-1.0370 NINTH FOR -0.2218
-1.5141 NINTH FORAI;CALENDAR;W_B_D_N 0.0000
-1.5141 NINTH FORBENJAMIN;CALENDAR;W_B_D_N 0.0000
-1.5141 NINTH FORERIK;CALENDAR;W_B_D_N 0.0000
-0.6488 NINTH OF -0.1962
-1.0370 NINTH WEEK -0.1093
-0.3010 NINTH;CALENDAR;D_O_M </s> -0.3010
-0.3010 NINTH;CALENDAR;W_B_D </s> -0.3010
-0.3010 NINTH;CALENDAR;W_B_D_N </s> -0.3010
-1.9553 NOVEMBER EIGHTEENTH -0.2592
-2.9096 NOVEMBER EIGHTEENTH;CALENDAR;D_O_M 0.0000
-2.3075 NOVEMBER EIGHTEENTH;CALENDAR;W_B_D 0.0000
-1.9553 NOVEMBER EIGTH -0.2592
-2.9096 NOVEMBER EIGTH;CALENDAR;D_O_M 0.0000
-2.3075 NOVEMBER EIGTH;CALENDAR;W_B_D 0.0000
-1.9553 NOVEMBER ELEVENTH -0.2592
-2.9096 NOVEMBER ELEVENTH;CALENDAR;D_O_M 0.0000
-2.3075 NOVEMBER ELEVENTH;CALENDAR;W_B_D 0.0000
-1.9553 NOVEMBER FIFTEENTH -0.2592
-2.9096 NOVEMBER FIFTEENTH;CALENDAR;D_O_M 0.0000
-2.3075 NOVEMBER FIFTEENTH;CALENDAR;W_B_D 0.0000
-1.9553 NOVEMBER FIFTH -0.2592
-2.9096 NOVEMBER FIFTH;CALENDAR;D_O_M 0.0000
-2.3075 NOVEMBER FIFTH;CALENDAR;W_B_D 0.0000
-1.9553 NOVEMBER FIRST -0.2814
-2.9096 NOVEMBER FIRST;CALENDAR;D_O_M 0.0000
-2.3075 NOVEMBER FIRST;CALENDAR;W_B_D 0.0000
-1.9553 NOVEMBER FOURTEENTH -0.2592
-2.9096 NOVEMBER FOURTEENTH;CALENDAR;D_O_M 0.0000
-2.3075 NOVEMBER FOURTEENTH;CALENDAR;W_B_D 0.0000
-1.9553 NOVEMBER FOURTH -0.2814
-2.9096 NOVEMBER FOURTH;CALENDAR;D_O_M 0.0000
-2.3075 NOVEMBER FOURTH;CALENDAR;W_B_D 0.0000
-1.9553 NOVEMBER NINETEENTH -0.2592
-2.9096 NOVEMBER NINETEENTH;CALENDAR;D_O_M 0.0000
-2.3075 NOVEMBER NINETEENTH;CALENDAR;W_B_D 0.0000
-1.9553 NOVEMBER NINTH -0.2592
-2.9096 NOVEMBER NINTH;CALENDAR;D_O_M 0.0000
-2.3075 NOVEMBER NINTH;CALENDAR;W_B_D 0.0000
-1.9553 NOVEMBER SECOND -0.2814
-2.9096 NOVEMBER SECOND;CALENDAR;D_O_M 0.0000
-2.3075 NOVEMBER SECOND;CALENDAR;W_B_D 0.0000
-1.9553 NOVEMBER SEVENTEENTH -0.2592
-2.9096 NOVEMBER SEVENTEENTH;CALENDAR;D_O_M 0.0000
-2.3075 NOVEMBER SEVENTEENTH;CALENDAR;W_B_D 0.0000
-1.9553 NOVEMBER SEVENTH -0.2592
-2.9096 NOVEMBER SEVENTH;CALENDAR;D_O_M 0.0000
-2.3075 NOVEMBER SEVENTH;CALENDAR;W_B_D 0.0000
-1.9553 NOVEMBER SIXTEENTH -0.2592
-2.9096 NOVEMBER SIXTEENTH;CALENDAR;D_O_M 0.0000
-2.3075 NOVEMBER SIXTEENTH;CALENDAR;W_B_D 0.0000
-1.9553 NOVEMBER SIXTH -0.2592
-2.9096 NOVEMBER SIXTH;CALENDAR;D_O_M 0.0000
-2.3075 NOVEMBER SIXTH;CALENDAR;W_B_D 0.0000
-1.9553 NOVEMBER THIRD -0.2814
-2.9096 NOVEMBER THIRD;CALENDAR;D_O_M 0.0000
-2.3075 NOVEMBER THIRD;CALENDAR;W_B_D 0.0000
-1.9553 NOVEMBER THIRTEENTH -0.2592
-2.9096 NOVEMBER THIRTEENTH;CALENDAR;D_O_M 0.0000
-2.3075 NOVEMBER THIRTEENTH;CALENDAR;W_B_D 0.0000
-1.9553 NOVEMBER THIRTIETH -0.2592
-2.9096 NOVEMBER THIRTIETH;CALENDAR;D_O_M 0.0000
-2.3075 NOVEMBER THIRTIETH;CALENDAR;W_B_D 0.0000
-1.9553 NOVEMBER THIRTY-FIRST -0.2592
-2.9096 NOVEMBER THIRTY-FIRST;CALENDAR;D_O_M 0.0000
-2.3075 NOVEMBER THIRTY-FIRST;CALENDAR;W_B_D 0.0000
-1.9553 NOVEMBER TWENTIETH -0.2592
-2.9096 NOVEMBER TWENTIETH;CALENDAR;D_O_M 0.0000
-2.3075 NOVEMBER TWENTIETH;CALENDAR;W_B_D 0.0000
-1.9553 NOVEMBER TWENTY-EIGTH -0.2592
-2.9096 NOVEMBER TWENTY-EIGTH;CALENDAR;D_O_M 0.0000
-2.3075 NOVEMBER TWENTY-EIGTH;CALENDAR;W_B_D 0.0000
-1.9553 NOVEMBER TWENTY-FIFTH -0.2592
-2.9096 NOVEMBER TWENTY-FIFTH;CALENDAR;D_O_M 0.0000
-2.3075 NOVEMBER TWENTY-FIFTH;CALENDAR;W_B_D 0.0000
-1.9553 NOVEMBER TWENTY-FIRST -0.2592
-2.9096 NOVEMBER TWENTY-FIRST;CALENDAR;D_O_M 0.0000
-2.3075 NOVEMBER TWENTY-FIRST;CALENDAR;W_B_D 0.0000
-1.9553 NOVEMBER TWENTY-FOURTH -0.2592
-2.9096 NOVEMBER TWENTY-FOURTH;CALENDAR;D_O_M 0.0000
-2.3075 NOVEMBER TWENTY-FOURTH;CALENDAR;W_B_D 0.0000
-1.9553 NOVEMBER TWENTY-NINTH -0.2592
-2.9096 NOVEMBER TWENTY-NINTH;CALENDAR;D_O_M 0.0000
-2.3075 NOVEMBER TWENTY-NINTH;CALENDAR;W_B_D 0.0000
-1.9553 NOVEMBER TWENTY-SECOND -0.2592
-2.9096 NOVEMBER TWENTY-SECOND;CALENDAR;D_O_M 0.0000
-2.3075 NOVEMBER TWENTY-SECOND;CALENDAR;W_B_D 0.0000
-1.9553 NOVEMBER TWENTY-SEVENTH -0.2592
-2.9096 NOVEMBER TWENTY-SEVENTH;CALENDAR;D_O_M 0.0000
-2.3075 NOVEMBER TWENTY-SEVENTH;CALENDAR;W_B_D 0.0000
-1.9553 NOVEMBER TWENTY-SIXTH -0.2592
-2.9096 NOVEMBER TWENTY-SIXTH;CALENDAR;D_O_M 0.0000
-2.3075 NOVEMBER TWENTY-SIXTH;CALENDAR;W_B_D 0.0000
-1.9553 NOVEMBER TWENTY-THIRD -0.2592
-2.9096 NOVEMBER TWENTY-THIRD;CALENDAR;D_O_M 0.0000
-2.3075 NOVEMBER TWENTY-THIRD;CALENDAR;W_B_D 0.0000
-0.3010 NOVEMBER;CALENDAR;D_O_M </s> -0.3010
-0.3010 NOVEMBER;CALENDAR;D_O_M_N </s> -0.3010
-0.3010 NOVEMBER;CALENDAR;WD_O_M </s> -0.3010
-0.3010 NOVEMBER;CALENDAR;WD_O_M_N </s> -0.3010
-0.3010 NOVEMBER;CALENDAR;W_O_M </s> -0.3010
-0.3010 NOVEMBER;CALENDAR;W_O_M_N </s> -0.3010
-0.3010 NOVEMBEREIGHTEENTH FOR -0.2218
-0.3010 NOVEMBEREIGTH FOR -0.2218
-0.3010 NOVEMBERELEVENTH FOR -0.2218
-0.3010 NOVEMBERFIFTEENTH FOR -0.2218
-0.3010 NOVEMBERFIFTH FOR -0.2218
-0.3010 NOVEMBERFIRST FOR -0.2218
-0.3010 NOVEMBERFOURTEENTH FOR -0.2218
-0.3010 NOVEMBERFOURTH FOR -0.2218
-0.3010 NOVEMBERNINETEENTH FOR -0.2218
-0.3010 NOVEMBERNINTH FOR -0.2218
-0.3010 NOVEMBERSECOND FOR -0.2218
-0.3010 NOVEMBERSEVENTEENTH FOR -0.2218
-0.3010 NOVEMBERSEVENTH FOR -0.2218
-0.3010 NOVEMBERSIXTEENTH FOR -0.2218
-0.3010 NOVEMBERSIXTH FOR -0.2218
-0.3010 NOVEMBERTHIRD FOR -0.2218
-0.3010 NOVEMBERTHIRTEENTH FOR -0.2218
-0.3010 NOVEMBERTHIRTIETH FOR -0.2218
-0.3010 NOVEMBERTHIRTY-FIRST FOR -0.2218
-0.3010 NOVEMBERTWENTIETH FOR -0.2218
-0.3010 NOVEMBERTWENTY-EIGTH FOR -0.2218
-0.3010 NOVEMBERTWENTY-FIFTH FOR -0.2218
-0.3010 NOVEMBERTWENTY-FIRST FOR -0.2218
-0.3010 NOVEMBERTWENTY-FOURTH FOR -0.2218
-0.3010 NOVEMBERTWENTY-NINTH FOR -0.2218
-0.3010 NOVEMBERTWENTY-SECOND FOR -0.2218
-0.3010 NOVEMBERTWENTY-SEVENTH FOR -0.2218
-0.3010 NOVEMBERTWENTY-SIXTH FOR -0.2218
-0.3010 NOVEMBERTWENTY-THIRD FOR -0.2218
-1.9553 OCTOBER EIGHTEENTH -0.2592
-2.9096 OCTOBER EIGHTEENTH;CALENDAR;D_O_M 0.0000
-2.3075 OCTOBER EIGHTEENTH;CALENDAR;W_B_D 0.0000
-1.9553 OCTOBER EIGTH -0.2592
-2.9096 OCTOBER EIGTH;CALENDAR;D_O_M 0.0000
-2.3075 OCTOBER EIGTH;CALENDAR;W_B_D 0.0000
-1.9553 OCTOBER ELEVENTH -0.2592
-2.9096 OCTOBER ELEVENTH;CALENDAR;D_O_M 0.0000
-2.3075 OCTOBER ELEVENTH;CALENDAR;W_B_D 0.0000
-1.9553 OCTOBER FIFTEENTH -0.2592
-2.9096 OCTOBER FIFTEENTH;CALENDAR;D_O_M 0.0000
-2.3075 OCTOBER FIFTEENTH;CALENDAR;W_B_D 0.0000
-1.9553 OCTOBER FIFTH -0.2592
-2.9096 OCTOBER FIFTH;CALENDAR;D_O_M 0.0000
-2.3075 OCTOBER FIFTH;CALENDAR;W_B_D 0.0000
-1.9553 OCTOBER FIRST -0.2814
-2.9096 OCTOBER FIRST;CALENDAR;D_O_M 0.0000
-2.3075 OCTOBER FIRST;CALENDAR;W_B_D 0.0000
-1.9553 OCTOBER FOURTEENTH -0.2592
-2.9096 OCTOBER FOURTEENTH;CALENDAR;D_O_M 0.0000
-2.3075 OCTOBER FOURTEENTH;CALENDAR;W_B_D 0.0000
-1.9553 OCTOBER FOURTH -0.2814
-2.9096 OCTOBER FOURTH;CALENDAR;D_O_M 0.0000
-2.3075 OCTOBER FOURTH;CALENDAR;W_B_D 0.0000
-1.9553 OCTOBER NINETEENTH -0.2592
-2.9096 OCTOBER NINETEENTH;CALENDAR;D_O_M 0.0000
-2.3075 OCTOBER NINETEENTH;CALENDAR;W_B_D 0.0000
-1.9553 OCTOBER NINTH -0.2592
-2.9096 OCTOBER NINTH;CALENDAR;D_O_M 0.0000
-2.3075 OCTOBER NINTH;CALENDAR;W_B_D 0.0000
-1.9553 OCTOBER SECOND -0.2814
-2.9096 OCTOBER SECOND;CALENDAR;D_O_M 0.0000
-2.3075 OCTOBER SECOND;CALENDAR;W_B_D 0.0000
-1.9553 OCTOBER SEVENTEENTH -0.2592
-2.9096 OCTOBER SEVENTEENTH;CALENDAR;D_O_M 0.0000
-2.3075 OCTOBER SEVENTEENTH;CALENDAR;W_B_D 0.0000
-1.9553 OCTOBER SEVENTH -0.2592
-2.9096 OCTOBER SEVENTH;CALENDAR;D_O_M 0.0000
-2.3075 OCTOBER SEVENTH;CALENDAR;W_B_D 0.0000
-1.9553 OCTOBER SIXTEENTH -0.2592
-2.9096 OCTOBER SIXTEENTH;CALENDAR;D_O_M 0.0000
-2.3075 OCTOBER SIXTEENTH;CALENDAR;W_B_D 0.0000
-1.9553 OCTOBER SIXTH -0.2592
-2.9096 OCTOBER SIXTH;CALENDAR;D_O_M 0.0000
-2.3075 OCTOBER SIXTH;CALENDAR;W_B_D 0.0000
-1.9553 OCTOBER THIRD -0.2814
-2.9096 OCTOBER THIRD;CALENDAR;D_O_M 0.0000
-2.3075 OCTOBER THIRD;CALENDAR;W_B_D 0.0000
-1.9553 OCTOBER THIRTEENTH -0.2592
-2.9096 OCTOBER THIRTEENTH;CALENDAR;D_O_M 0.0000
-2.3075 OCTOBER THIRTEENTH;CALENDAR;W_B_D 0.0000
-1.9553 OCTOBER THIRTIETH -0.2592
-2.9096 OCTOBER THIRTIETH;CALENDAR;D_O_M 0.0000
-2.3075 OCTOBER THIRTIETH;CALENDAR;W_B_D 0.0000
-1.9553 OCTOBER THIRTY-FIRST -0.2592
-2.9096 OCTOBER THIRTY-FIRST;CALENDAR;D_O_M 0.0000
-2.3075 OCTOBER THIRTY-FIRST;CALENDAR;W_B_D 0.0000
-1.9553 OCTOBER TWENTIETH -0.2592
-2.9096 OCTOBER TWENTIETH;CALENDAR;D_O_M 0.0000
-2.3075 OCTOBER TWENTIETH;CALENDAR;W_B_D 0.0000
-1.9553 OCTOBER TWENTY-EIGTH -0.2592
-2.9096 OCTOBER TWENTY-EIGTH;CALENDAR;D_O_M 0.0000
-2.3075 OCTOBER TWENTY-EIGTH;CALENDAR;W_B_D 0.0000
-1.9553 OCTOBER TWENTY-FIFTH -0.2592
-2.9096 OCTOBER TWENTY-FIFTH;CALENDAR;D_O_M 0.0000
-2.3075 OCTOBER TWENTY-FIFTH;CALENDAR;W_B_D 0.0000
-1.9553 OCTOBER TWENTY-FIRST -0.2592
-2.9096 OCTOBER TWENTY-FIRST;CALENDAR;D_O_M 0.0000
-2.3075 OCTOBER TWENTY-FIRST;CALENDAR;W_B_D 0.0000
-1.9553 OCTOBER TWENTY-FOURTH -0.2592
-2.9096 OCTOBER TWENTY-FOURTH;CALENDAR;D_O_M 0.0000
-2.3075 OCTOBER TWENTY-FOURTH;CALENDAR;W_B_D 0.0000
-1.9553 OCTOBER TWENTY-NINTH -0.2592
-2.9096 OCTOBER TWENTY-NINTH;CALENDAR;D_O_M 0.0000
-2.3075 OCTOBER TWENTY-NINTH;CALENDAR;W_B_D 0.0000
-1.9553 OCTOBER TWENTY-SECOND -0.2592
-2.9096 OCTOBER TWENTY-SECOND;CALENDAR;D_O_M 0.0000
-2.3075 OCTOBER TWENTY-SECOND;CALENDAR;W_B_D 0.0000
-1.9553 OCTOBER TWENTY-SEVENTH -0.2592
-2.9096 OCTOBER TWENTY-SEVENTH;CALENDAR;D_O_M 0.0000
-2.3075 OCTOBER TWENTY-SEVENTH;CALENDAR;W_B_D 0.0000
-1.9553 OCTOBER TWENTY-SIXTH -0.2592
-2.9096 OCTOBER TWENTY-SIXTH;CALENDAR;D_O_M 0.0000
-2.3075 OCTOBER TWENTY-SIXTH;CALENDAR;W_B_D 0.0000
-1.9553 OCTOBER TWENTY-THIRD -0.2592
-2.9096 OCTOBER TWENTY-THIRD;CALENDAR;D_O_M 0.0000
-2.3075 OCTOBER TWENTY-THIRD;CALENDAR;W_B_D 0.0000
-0.3010 OCTOBER;CALENDAR;D_O_M </s> -0.3010
-0.3010 OCTOBER;CALENDAR;D_O_M_N </s> -0.3010
-0.3010 OCTOBER;CALENDAR;WD_O_M </s> -0.3010
-0.3010 OCTOBER;CALENDAR;WD_O_M_N </s> -0.3010
-0.3010 OCTOBER;CALENDAR;W_O_M </s> -0.3010
-0.3010 OCTOBER;CALENDAR;W_O_M_N </s> -0.3010
-0.3010 OCTOBEREIGHTEENTH FOR -0.2218
-0.3010 OCTOBEREIGTH FOR -0.2218
-0.3010 OCTOBERELEVENTH FOR -0.2218
-0.3010 OCTOBERFIFTEENTH FOR -0.2218
-0.3010 OCTOBERFIFTH FOR -0.2218
-0.3010 OCTOBERFIRST FOR -0.2218
-0.3010 OCTOBERFOURTEENTH FOR -0.2218
-0.3010 OCTOBERFOURTH FOR -0.2218
-0.3010 OCTOBERNINETEENTH FOR -0.2218
-0.3010 OCTOBERNINTH FOR -0.2218
-0.3010 OCTOBERSECOND FOR -0.2218
-0.3010 OCTOBERSEVENTEENTH FOR -0.2218
-0.3010 OCTOBERSEVENTH FOR -0.2218
-0.3010 OCTOBERSIXTEENTH FOR -0.2218
-0.3010 OCTOBERSIXTH FOR -0.2218
-0.3010 OCTOBERTHIRD FOR -0.2218
-0.3010 OCTOBERTHIRTEENTH FOR -0.2218
-0.3010 OCTOBERTHIRTIETH FOR -0.2218
-0.3010 OCTOBERTHIRTY-FIRST FOR -0.2218
-0.3010 OCTOBERTWENTIETH FOR -0.2218
-0.3010 OCTOBERTWENTY-EIGTH FOR -0.2218
-0.3010 OCTOBERTWENTY-FIFTH FOR -0.2218
-0.3010 OCTOBERTWENTY-FIRST FOR -0.2218
-0.3010 OCTOBERTWENTY-FOURTH FOR -0.2218
-0.3010 OCTOBERTWENTY-NINTH FOR -0.2218
-0.3010 OCTOBERTWENTY-SECOND FOR -0.2218
-0.3010 OCTOBERTWENTY-SEVENTH FOR -0.2218
-0.3010 OCTOBERTWENTY-SIXTH FOR -0.2218
-0.3010 OCTOBERTWENTY-THIRD FOR -0.2218
-1.9765 OF APRIL -0.0300
-2.4884 OF APRIL;CALENDAR;D_O_M 0.0000
-1.8351 OF APRIL;CALENDAR;D_O_M_N 0.0000
-3.1057 OF APRIL;CALENDAR;WD_O_M 0.0000
-2.6285 OF APRIL;CALENDAR;WD_O_M_N 0.0000
-2.6083 OF APRIL;CALENDAR;W_O_M 0.0000
-3.4736 OF APRIL;CALENDAR;W_O_M_N 0.0000
-3.5986 OF APRILEIGHTEENTH 0.0000
-3.5986 OF APRILEIGTH 0.0000
-3.5986 OF APRILELEVENTH 0.0000
-3.5986 OF APRILFIFTEENTH 0.0000
-3.5986 OF APRILFIFTH 0.0000
-3.5986 OF APRILFIRST 0.0000
-3.5986 OF APRILFOURTEENTH 0.0000
-3.5986 OF APRILFOURTH 0.0000
-3.5986 OF APRILNINETEENTH 0.0000
-3.5986 OF APRILNINTH 0.0000
-3.5986 OF APRILSECOND 0.0000
-3.5986 OF APRILSEVENTEENTH 0.0000
-3.5986 OF APRILSEVENTH 0.0000
-3.5986 OF APRILSIXTEENTH 0.0000
-3.5986 OF APRILSIXTH 0.0000
-3.5986 OF APRILTHIRD 0.0000
-3.5986 OF APRILTHIRTEENTH 0.0000
-3.5986 OF APRILTHIRTIETH 0.0000
-3.5986 OF APRILTHIRTY-FIRST 0.0000
-3.5986 OF APRILTWENTIETH 0.0000
-3.5986 OF APRILTWENTY-EIGTH 0.0000
-3.5986 OF APRILTWENTY-FIFTH 0.0000
-3.5986 OF APRILTWENTY-FIRST 0.0000
-3.5986 OF APRILTWENTY-FOURTH 0.0000
-3.5986 OF APRILTWENTY-NINTH 0.0000
-3.5986 OF APRILTWENTY-SECOND 0.0000
-3.5986 OF APRILTWENTY-SEVENTH 0.0000
-3.5986 OF APRILTWENTY-SIXTH 0.0000
-3.5986 OF APRILTWENTY-THIRD 0.0000
-1.9765 OF AUGUST -0.0300
-2.4884 OF AUGUST;CALENDAR;D_O_M 0.0000
-1.8351 OF AUGUST;CALENDAR;D_O_M_N 0.0000
-3.1057 OF AUGUST;CALENDAR;WD_O_M 0.0000
-2.6285 OF AUGUST;CALENDAR;WD_O_M_N 0.0000
-2.6083 OF AUGUST;CALENDAR;W_O_M 0.0000
-3.4736 OF AUGUST;CALENDAR;W_O_M_N 0.0000
-3.5986 OF AUGUSTEIGHTEENTH 0.0000
-3.5986 OF AUGUSTEIGTH 0.0000
-3.5986 OF AUGUSTELEVENTH 0.0000
-3.5986 OF AUGUSTFIFTEENTH 0.0000
-3.5986 OF AUGUSTFIFTH 0.0000
-3.5986 OF AUGUSTFIRST 0.0000
-3.5986 OF AUGUSTFOURTEENTH 0.0000
-3.5986 OF AUGUSTFOURTH 0.0000
-3.5986 OF AUGUSTNINETEENTH 0.0000
-3.5986 OF AUGUSTNINTH 0.0000
-3.5986 OF AUGUSTSECOND 0.0000
-3.5986 OF AUGUSTSEVENTEENTH 0.0000
-3.5986 OF AUGUSTSEVENTH 0.0000
-3.5986 OF AUGUSTSIXTEENTH 0.0000
-3.5986 OF AUGUSTSIXTH 0.0000
-3.5986 OF AUGUSTTHIRD 0.0000
-3.5986 OF AUGUSTTHIRTEENTH 0.0000
-3.5986 OF AUGUSTTHIRTIETH 0.0000
-3.5986 OF AUGUSTTHIRTY-FIRST 0.0000
-3.5986 OF AUGUSTTWENTIETH 0.0000
-3.5986 OF AUGUSTTWENTY-EIGTH 0.0000
-3.5986 OF AUGUSTTWENTY-FIFTH 0.0000
-3.5986 OF AUGUSTTWENTY-FIRST 0.0000
-3.5986 OF AUGUSTTWENTY-FOURTH 0.0000
-3.5986 OF AUGUSTTWENTY-NINTH 0.0000
-3.5986 OF AUGUSTTWENTY-SECOND 0.0000
-3.5986 OF AUGUSTTWENTY-SEVENTH 0.0000
-3.5986 OF AUGUSTTWENTY-SIXTH 0.0000
-3.5986 OF AUGUSTTWENTY-THIRD 0.0000
-1.9765 OF DECEMBER -0.0300
-2.4884 OF DECEMBER;CALENDAR;D_O_M 0.0000
-1.8351 OF DECEMBER;CALENDAR;D_O_M_N 0.0000
-3.1057 OF DECEMBER;CALENDAR;WD_O_M 0.0000
-2.6285 OF DECEMBER;CALENDAR;WD_O_M_N 0.0000
-2.6083 OF DECEMBER;CALENDAR;W_O_M 0.0000
-3.4736 OF DECEMBER;CALENDAR;W_O_M_N 0.0000
-3.5986 OF DECEMBEREIGHTEENTH 0.0000
-3.5986 OF DECEMBEREIGTH 0.0000
-3.5986 OF DECEMBERELEVENTH 0.0000
-3.5986 OF DECEMBERFIFTEENTH 0.0000
-3.5986 OF DECEMBERFIFTH 0.0000
-3.5986 OF DECEMBERFIRST 0.0000
-3.5986 OF DECEMBERFOURTEENTH 0.0000
-3.5986 OF DECEMBERFOURTH 0.0000
-3.5986 OF DECEMBERNINETEENTH 0.0000
-3.5986 OF DECEMBERNINTH 0.0000
-3.5986 OF DECEMBERSECOND 0.0000
-3.5986 OF DECEMBERSEVENTEENTH 0.0000
-3.5986 OF DECEMBERSEVENTH 0.0000
-3.5986 OF DECEMBERSIXTEENTH 0.0000
-3.5986 OF DECEMBERSIXTH 0.0000
-3.5986 OF DECEMBERTHIRD 0.0000
-3.5986 OF DECEMBERTHIRTEENTH 0.0000
-3.5986 OF DECEMBERTHIRTIETH 0.0000
-3.5986 OF DECEMBERTHIRTY-FIRST 0.0000
-3.5986 OF DECEMBERTWENTIETH 0.0000
-3.5986 OF DECEMBERTWENTY-EIGTH 0.0000
-3.5986 OF DECEMBERTWENTY-FIFTH 0.0000
-3.5986 OF DECEMBERTWENTY-FIRST 0.0000
-3.5986 OF DECEMBERTWENTY-FOURTH 0.0000
-3.5986 OF DECEMBERTWENTY-NINTH 0.0000
-3.5986 OF DECEMBERTWENTY-SECOND 0.0000
-3.5986 OF DECEMBERTWENTY-SEVENTH 0.0000
-3.5986 OF DECEMBERTWENTY-SIXTH 0.0000
-3.5986 OF DECEMBERTWENTY-THIRD 0.0000
-1.9765 OF FEBRUARY -0.0300
-2.4884 OF FEBRUARY;CALENDAR;D_O_M 0.0000
-1.8351 OF FEBRUARY;CALENDAR;D_O_M_N 0.0000
-3.1057 OF FEBRUARY;CALENDAR;WD_O_M 0.0000
-2.6285 OF FEBRUARY;CALENDAR;WD_O_M_N 0.0000
-2.6083 OF FEBRUARY;CALENDAR;W_O_M 0.0000
-3.4736 OF FEBRUARY;CALENDAR;W_O_M_N 0.0000
-3.5986 OF FEBRUARYEIGHTEENTH 0.0000
-3.5986 OF FEBRUARYEIGTH 0.0000
-3.5986 OF FEBRUARYELEVENTH 0.0000
-3.5986 OF FEBRUARYFIFTEENTH 0.0000
-3.5986 OF FEBRUARYFIFTH 0.0000
-3.5986 OF FEBRUARYFIRST 0.0000
-3.5986 OF FEBRUARYFOURTEENTH 0.0000
-3.5986 OF FEBRUARYFOURTH 0.0000
-3.5986 OF FEBRUARYNINETEENTH 0.0000
-3.5986 OF FEBRUARYNINTH 0.0000
-3.5986 OF FEBRUARYSECOND 0.0000
-3.5986 OF FEBRUARYSEVENTEENTH 0.0000
-3.5986 OF FEBRUARYSEVENTH 0.0000
-3.5986 OF FEBRUARYSIXTEENTH 0.0000
-3.5986 OF FEBRUARYSIXTH 0.0000
-3.5986 OF FEBRUARYTHIRD 0.0000
-3.5986 OF FEBRUARYTHIRTEENTH 0.0000
-3.5986 OF FEBRUARYTHIRTIETH 0.0000
-3.5986 OF FEBRUARYTHIRTY-FIRST 0.0000
-3.5986 OF FEBRUARYTWENTIETH 0.0000
-3.5986 OF FEBRUARYTWENTY-EIGTH 0.0000
-3.5986 OF FEBRUARYTWENTY-FIFTH 0.0000
-3.5986 OF FEBRUARYTWENTY-FIRST 0.0000
-3.5986 OF FEBRUARYTWENTY-FOURTH 0.0000
-3.5986 OF FEBRUARYTWENTY-NINTH 0.0000
-3.5986 OF FEBRUARYTWENTY-SECOND 0.0000
-3.5986 OF FEBRUARYTWENTY-SEVENTH 0.0000
-3.5986 OF FEBRUARYTWENTY-SIXTH 0.0000
-3.5986 OF FEBRUARYTWENTY-THIRD 0.0000
-1.9765 OF JANUARY -0.0300
-2.4884 OF JANUARY;CALENDAR;D_O_M 0.0000
-1.8351 OF JANUARY;CALENDAR;D_O_M_N 0.0000
-3.1057 OF JANUARY;CALENDAR;WD_O_M 0.0000
-2.6285 OF JANUARY;CALENDAR;WD_O_M_N 0.0000
-2.6083 OF JANUARY;CALENDAR;W_O_M 0.0000
-3.4736 OF JANUARY;CALENDAR;W_O_M_N 0.0000
-3.5986 OF JANUARYEIGHTEENTH 0.0000
-3.5986 OF JANUARYEIGTH 0.0000
-3.5986 OF JANUARYELEVENTH 0.0000
-3.5986 OF JANUARYFIFTEENTH 0.0000
-3.5986 OF JANUARYFIFTH 0.0000
-3.5986 OF JANUARYFIRST 0.0000
-3.5986 OF JANUARYFOURTEENTH 0.0000
-3.5986 OF JANUARYFOURTH 0.0000
-3.5986 OF JANUARYNINETEENTH 0.0000
-3.5986 OF JANUARYNINTH 0.0000
-3.5986 OF JANUARYSECOND 0.0000
-3.5986 OF JANUARYSEVENTEENTH 0.0000
-3.5986 OF JANUARYSEVENTH 0.0000
-3.5986 OF JANUARYSIXTEENTH 0.0000
-3.5986 OF JANUARYSIXTH 0.0000
-3.5986 OF JANUARYTHIRD 0.0000
-3.5986 OF JANUARYTHIRTEENTH 0.0000
-3.5986 OF JANUARYTHIRTIETH 0.0000
-3.5986 OF JANUARYTHIRTY-FIRST 0.0000
-3.5986 OF JANUARYTWENTIETH 0.0000
-3.5986 OF JANUARYTWENTY-EIGTH 0.0000
-3.5986 OF JANUARYTWENTY-FIFTH 0.0000
-3.5986 OF JANUARYTWENTY-FIRST 0.0000
-3.5986 OF JANUARYTWENTY-FOURTH 0.0000
-3.5986 OF JANUARYTWENTY-NINTH 0.0000
-3.5986 OF JANUARYTWENTY-SECOND 0.0000
-3.5986 OF JANUARYTWENTY-SEVENTH 0.0000
-3.5986 OF JANUARYTWENTY-SIXTH 0.0000
-3.5986 OF JANUARYTWENTY-THIRD 0.0000
-1.9765 OF JULY -0.0300
-2.4884 OF JULY;CALENDAR;D_O_M 0.0000
-1.8351 OF JULY;CALENDAR;D_O_M_N 0.0000
-3.1057 OF JULY;CALENDAR;WD_O_M 0.0000
-2.6285 OF JULY;CALENDAR;WD_O_M_N 0.0000
-2.6083 OF JULY;CALENDAR;W_O_M 0.0000
-3.4736 OF JULY;CALENDAR;W_O_M_N 0.0000
-3.5986 OF JULYEIGHTEENTH 0.0000
-3.5986 OF JULYEIGTH 0.0000
-3.5986 OF JULYELEVENTH 0.0000
-3.5986 OF JULYFIFTEENTH 0.0000
-3.5986 OF JULYFIFTH 0.0000
-3.5986 OF JULYFIRST 0.0000
-3.5986 OF JULYFOURTEENTH 0.0000
-3.5986 OF JULYFOURTH 0.0000
-3.5986 OF JULYNINETEENTH 0.0000
-3.5986 OF JULYNINTH 0.0000
-3.5986 OF JULYSECOND 0.0000
-3.5986 OF JULYSEVENTEENTH 0.0000
-3.5986 OF JULYSEVENTH 0.0000
-3.5986 OF JULYSIXTEENTH 0.0000
-3.5986 OF JULYSIXTH 0.0000
-3.5986 OF JULYTHIRD 0.0000
-3.5986 OF JULYTHIRTEENTH 0.0000
-3.5986 OF JULYTHIRTIETH 0.0000
-3.5986 OF JULYTHIRTY-FIRST 0.0000
-3.5986 OF JULYTWENTIETH 0.0000
-3.5986 OF JULYTWENTY-EIGTH 0.0000
-3.5986 OF JULYTWENTY-FIFTH 0.0000
-3.5986 OF JULYTWENTY-FIRST 0.0000
-3.5986 OF JULYTWENTY-FOURTH 0.0000
-3.5986 OF JULYTWENTY-NINTH 0.0000
-3.5986 OF JULYTWENTY-SECOND 0.0000
-3.5986 OF JULYTWENTY-SEVENTH 0.0000
-3.5986 OF JULYTWENTY-SIXTH 0.0000
-3.5986 OF JULYTWENTY-THIRD 0.0000
-1.9765 OF JUNE -0.0300
-2.4884 OF JUNE;CALENDAR;D_O_M 0.0000
-1.8351 OF JUNE;CALENDAR;D_O_M_N 0.0000
-3.1057 OF JUNE;CALENDAR;WD_O_M 0.0000
-2.6285 OF JUNE;CALENDAR;WD_O_M_N 0.0000
-2.6083 OF JUNE;CALENDAR;W_O_M 0.0000
-3.4736 OF JUNE;CALENDAR;W_O_M_N 0.0000
-3.5986 OF JUNEEIGHTEENTH 0.0000
-3.5986 OF JUNEEIGTH 0.0000
-3.5986 OF JUNEELEVENTH 0.0000
-3.5986 OF JUNEFIFTEENTH 0.0000
-3.5986 OF JUNEFIFTH 0.0000
-3.5986 OF JUNEFIRST 0.0000
-3.5986 OF JUNEFOURTEENTH 0.0000
-3.5986 OF JUNEFOURTH 0.0000
-3.5986 OF JUNENINETEENTH 0.0000
-3.5986 OF JUNENINTH 0.0000
-3.5986 OF JUNESECOND 0.0000
-3.5986 OF JUNESEVENTEENTH 0.0000
-3.5986 OF JUNESEVENTH 0.0000
-3.5986 OF JUNESIXTEENTH 0.0000
-3.5986 OF JUNESIXTH 0.0000
-3.5986 OF JUNETHIRD 0.0000
-3.5986 OF JUNETHIRTEENTH 0.0000
-3.5986 OF JUNETHIRTIETH 0.0000
-3.5986 OF JUNETHIRTY-FIRST 0.0000
-3.5986 OF JUNETWENTIETH 0.0000
-3.5986 OF JUNETWENTY-EIGTH 0.0000
-3.5986 OF JUNETWENTY-FIFTH 0.0000
-3.5986 OF JUNETWENTY-FIRST 0.0000
-3.5986 OF JUNETWENTY-FOURTH 0.0000
-3.5986 OF JUNETWENTY-NINTH 0.0000
-3.5986 OF JUNETWENTY-SECOND 0.0000
-3.5986 OF JUNETWENTY-SEVENTH 0.0000
-3.5986 OF JUNETWENTY-SIXTH 0.0000
-3.5986 OF JUNETWENTY-THIRD 0.0000
-1.9765 OF MARCH -0.0300
-2.4884 OF MARCH;CALENDAR;D_O_M 0.0000
-1.8351 OF MARCH;CALENDAR;D_O_M_N 0.0000
-3.1057 OF MARCH;CALENDAR;WD_O_M 0.0000
-2.6285 OF MARCH;CALENDAR;WD_O_M_N 0.0000
-2.6083 OF MARCH;CALENDAR;W_O_M 0.0000
-3.4736 OF MARCH;CALENDAR;W_O_M_N 0.0000
-3.5986 OF MARCHEIGHTEENTH 0.0000
-3.5986 OF MARCHEIGTH 0.0000
-3.5986 OF MARCHELEVENTH 0.0000
-3.5986 OF MARCHFIFTEENTH 0.0000
-3.5986 OF MARCHFIFTH 0.0000
-3.5986 OF MARCHFIRST 0.0000
-3.5986 OF MARCHFOURTEENTH 0.0000
-3.5986 OF MARCHFOURTH 0.0000
-3.5986 OF MARCHNINETEENTH 0.0000
-3.5986 OF MARCHNINTH 0.0000
-3.5986 OF MARCHSECOND 0.0000
-3.5986 OF MARCHSEVENTEENTH 0.0000
-3.5986 OF MARCHSEVENTH 0.0000
-3.5986 OF MARCHSIXTEENTH 0.0000
-3.5986 OF MARCHSIXTH 0.0000
-3.5986 OF MARCHTHIRD 0.0000
-3.5986 OF MARCHTHIRTEENTH 0.0000
-3.5986 OF MARCHTHIRTIETH 0.0000
-3.5986 OF MARCHTHIRTY-FIRST 0.0000
-3.5986 OF MARCHTWENTIETH 0.0000
-3.5986 OF MARCHTWENTY-EIGTH 0.0000
-3.5986 OF MARCHTWENTY-FIFTH 0.0000
-3.5986 OF MARCHTWENTY-FIRST 0.0000
-3.5986 OF MARCHTWENTY-FOURTH 0.0000
-3.5986 OF MARCHTWENTY-NINTH 0.0000
-3.5986 OF MARCHTWENTY-SECOND 0.0000
-3.5986 OF MARCHTWENTY-SEVENTH 0.0000
-3.5986 OF MARCHTWENTY-SIXTH 0.0000
-3.5986 OF MARCHTWENTY-THIRD 0.0000
-1.9765 OF MAY -0.0300
